{"type":"LSTMTimeStep","options":{"inputSize":1,"inputRange":0,"hiddenLayers":[20],"outputSize":1,"decayRate":0.999,"smoothEps":1e-8,"regc":0.000001,"clipval":5,"maxPredictionLength":100,"dataFormatter":{"indexTable":{},"characterTable":{},"characters":[],"specialIndexes":[]}},"hiddenLayers":[{"inputMatrix":{"rows":20,"columns":1,"weights":[0.34328997135162354,0.35171106457710266,0.14864158630371094,0.33392366766929626,0.3895503282546997,0.07669565826654434,0.22067572176456451,0.27901026606559753,-0.11827410757541656,0.2037210911512375,0.2525857090950012,0.19258630275726318,0.7475261092185974,0.11650015413761139,-0.09545832127332687,0.39776477217674255,0.42088741064071655,0.1932869702577591,0.3104792535305023,0.05447729304432869]},"inputHidden":{"rows":20,"columns":20,"weights":[-0.2583821713924408,-0.38680538535118103,0.40408721566200256,0.25342145562171936,-0.11663080006837845,0.137094646692276,0.4007057845592499,0.3624607026576996,-0.20223557949066162,0.2560007572174072,-0.46274250745773315,0.4284040927886963,-0.41369637846946716,-0.4493164122104645,-0.10598967224359512,-0.32498699426651,0.07319313287734985,0.3988840878009796,0.3804498314857483,0.05785828456282616,-0.23434652388095856,-0.2621671259403229,0.2705709636211395,0.09718885272741318,-0.02564464509487152,0.36664003133773804,0.7777550220489502,0.5980625152587891,-0.3054136335849762,0.29128631949424744,-0.2585027515888214,0.6160292029380798,-0.5722377896308899,-0.4615391194820404,-0.31364694237709045,-0.23460730910301208,0.3801226317882538,0.24518486857414246,0.2975679934024811,0.2618725001811981,-0.23113617300987244,-0.39830246567726135,0.4582774043083191,0.4634227156639099,0.665547251701355,-0.009434768930077553,0.4126740097999573,0.3885188400745392,0.005152558442205191,0.3353850841522217,-0.7300505042076111,0.404336154460907,-0.34178346395492554,-0.6066952347755432,0.10677827149629593,-0.3095010221004486,0.43411824107170105,0.5325517058372498,0.2704898715019226,0.00446220301091671,-0.42503637075424194,-0.13947336375713348,0.08765998482704163,0.2749998867511749,0.21348261833190918,0.49199965596199036,0.6468504667282104,0.5425170063972473,-0.3525926172733307,0.3908878564834595,-0.40900325775146484,0.5636204481124878,-0.5591355562210083,-0.059361718595027924,-0.4936434030532837,-0.3254084289073944,0.383323609828949,-0.08628913015127182,0.4304076135158539,0.4027344882488251,-0.4248741865158081,-0.3450555205345154,0.49154892563819885,0.37184542417526245,0.6866277456283569,0.21487973630428314,0.29709112644195557,0.35403385758399963,-0.48343145847320557,0.21695736050605774,-0.6363128423690796,0.44987887144088745,-0.3217225670814514,-0.5494124889373779,-0.3652379810810089,-0.41144227981567383,0.3333319127559662,0.4755370318889618,0.5137937068939209,0.602371871471405,-0.2893446981906891,-0.2948695719242096,0.7739891409873962,0.07106844335794449,0.698615550994873,-0.01352518331259489,0.39498424530029297,0.40356892347335815,0.06100550666451454,0.36151283979415894,-0.7159533500671387,0.39623627066612244,-0.22791944444179535,-0.8451372385025024,0.14671804010868073,-0.3398576080799103,0.3517378270626068,0.7731398940086365,0.3532024919986725,-0.49016132950782776,-0.3103516101837158,-0.30800962448120117,0.19527599215507507,0.3296811580657959,0.010430322028696537,-0.021253414452075958,0.363316148519516,0.40309059619903564,-0.055947721004486084,0.2586534321308136,-0.54024738073349,0.3953196406364441,-0.5139912366867065,-0.03077005036175251,-0.0778857171535492,-0.38938748836517334,0.2833224833011627,0.14755311608314514,0.3856748342514038,0.04424835368990898,-0.4506363272666931,-0.3414882719516754,-0.2956569194793701,0.4305383563041687,0.061143841594457626,-0.04228581115603447,0.4281936287879944,0.3643447756767273,-0.16880159080028534,0.20440155267715454,-0.14848802983760834,0.48105156421661377,-0.5334455370903015,0.3008511960506439,-0.11610732972621918,-0.44586241245269775,0.40034475922584534,-0.3118225038051605,0.4342377483844757,0.0733753889799118,-0.10734307020902634,-0.179732084274292,0.8218411207199097,0.197559654712677,0.8963469862937927,-0.6014701128005981,0.1946323961019516,0.09630273282527924,0.3521863520145416,0.24715977907180786,-0.7222909331321716,0.13319678604602814,-0.16286033391952515,-0.860167384147644,0.5083535313606262,-0.1451573222875595,0.1888653039932251,0.823972225189209,0.1898018717765808,-0.6551626920700073,-0.43263596296310425,-0.45615383982658386,0.5347142219543457,0.022702207788825035,0.349938303232193,-0.0724521353840828,0.2981472313404083,0.05348502844572067,0.1074482649564743,0.5422245860099792,-0.4981427788734436,0.48720821738243103,-0.29854804277420044,-0.521527886390686,0.12799155712127686,-0.36844420433044434,0.04252303019165993,0.5435765385627747,0.35350656509399414,-0.1289973109960556,-0.35826775431632996,-0.4112994968891144,0.5387496948242188,0.4995936453342438,0.5565667152404785,-0.044566892087459564,0.35843196511268616,0.3494780361652374,0.13807454705238342,0.29490336775779724,-0.5186662077903748,0.37890806794166565,-0.3700464367866516,-0.7457923889160156,0.08035439997911453,-0.48473554849624634,0.4467562139034271,0.3903704285621643,0.3214237093925476,0.08242529630661011,-0.41672781109809875,-0.2566584646701813,0.6559045910835266,0.2002626210451126,0.14385849237442017,-0.17137999832630157,0.33301442861557007,0.19179601967334747,0.22048017382621765,0.3662627041339874,-0.6813143491744995,0.2159883677959442,-0.21660101413726807,-0.6053299307823181,0.14337432384490967,-0.2850182056427002,0.11414706707000732,0.7034537196159363,0.3616666793823242,-0.3570626378059387,-0.2629971504211426,-0.29360347986221313,0.08233664184808731,0.15818482637405396,0.43100816011428833,0.0159158892929554,0.21155084669589996,0.0888524204492569,0.12765447795391083,0.1625189334154129,-0.07900958508253098,0.21836121380329132,0.030029699206352234,-0.09826317429542542,-0.03406579792499542,-0.20825454592704773,0.12045778334140778,0.10116437822580338,0.35796236991882324,-0.004056499805301428,-0.2776274085044861,-0.4186371862888336,0.7470701932907104,0.39964401721954346,0.7874073386192322,-0.009787021204829216,0.32914087176322937,0.35667139291763306,0.14189212024211884,0.3599262535572052,-0.6375057697296143,0.4055618643760681,-0.1303173303604126,-0.629363477230072,0.09456373006105423,-0.3692764937877655,0.4228101074695587,0.5704250335693359,0.3146660327911377,-0.010757945477962494,-0.18165799975395203,-0.24900589883327484,0.976338803768158,0.1709863543510437,0.7230624556541443,-0.4960498511791229,0.16882897913455963,0.28949812054634094,0.21395593881607056,0.2839300334453583,-0.8713042140007019,0.2659420371055603,-0.2606339454650879,-0.9326867461204529,0.26649364829063416,-0.20457160472869873,0.18256905674934387,0.9666459560394287,0.2806871831417084,-0.5655324459075928,-0.14554734528064728,-0.3488076627254486,0.35036420822143555,0.11977415531873703,-0.13374309241771698,0.2461409866809845,0.18639706075191498,0.023419462144374847,-0.2435208112001419,0.33465930819511414,-0.25505897402763367,0.623600423336029,-0.5300097465515137,-0.38373833894729614,-0.3046704828739166,-0.29100683331489563,0.30400991439819336,0.31271687150001526,0.22141730785369873,0.0943218246102333,-0.4465276598930359,-0.31305044889450073,-0.026178060099482536,0.3431977331638336,0.027817029505968094,0.27913153171539307,0.5210102796554565,0.38888606429100037,-0.22941215336322784,0.2647518515586853,-0.14066855609416962,0.5232649445533752,-0.47106748819351196,0.11355483531951904,-0.3304387629032135,-0.4786415994167328,0.2979378402233124,-0.17731256783008575,0.45436328649520874,0.31167879700660706,-0.32905474305152893,-0.3271677792072296,0.6317273378372192,0.4315263628959656,0.7501343488693237,0.08813417702913284,0.3163333237171173,0.35607871413230896,-0.044464703649282455,0.25072377920150757,-0.7713197469711304,0.2912747263908386,-0.297599196434021,-0.6609611511230469,0.04577154293656349,-0.3726445138454437,0.44280755519866943,0.5557870268821716,0.34671202301979065,0.12267986685037613,-0.17800059914588928,-0.39174994826316833,0.5068040490150452,0.19496236741542816,-0.04891860857605934,0.013690623454749584,0.2011214792728424,0.3350619673728943,-0.04501386359333992,0.16919931769371033,-0.50481116771698,0.3985089957714081,-0.27189964056015015,-0.5276087522506714,-0.1193811222910881,-0.1655270904302597,0.1916322112083435,0.4819687306880951,0.19636087119579315,-0.005718844477087259,-0.4112646281719208,-0.370633602142334,0.5129764080047607,0.23348881304264069,0.8427160978317261,-0.06190327927470207,0.3795507550239563,0.35820597410202026,-0.041743844747543335,0.37600013613700867,-0.5941678881645203,0.380948543548584,-0.24803850054740906,-0.6163017749786377,0.19218628108501434,-0.29475101828575134,0.10726914554834366,0.452420175075531,0.36509570479393005,-0.20728452503681183]},"inputBias":{"rows":20,"columns":1,"weights":[0.1393035650253296,0.2547183632850647,-0.2670016884803772,-0.15116652846336365,0.6586011052131653,-0.15206897258758545,-0.23160502314567566,-0.07033898681402206,0.16274279356002808,-0.01887984201312065,-0.015192344784736633,-0.14955055713653564,-0.35351768136024475,-0.05871650204062462,-0.12116669118404388,0.19439131021499634,-0.1852506548166275,-0.1663321554660797,0.15098042786121368,-0.15642975270748138]},"forgetMatrix":{"rows":20,"columns":1,"weights":[0.19680456817150116,0.13011661171913147,0.05086364597082138,0.46024277806282043,0.14144563674926758,0.3066331744194031,0.21203579008579254,0.17735083401203156,0.3071459233760834,0.07673041522502899,-0.01574641466140747,0.11076043546199799,0.14944124221801758,0.02374480850994587,0.23013468086719513,0.18728022277355194,0.5061966180801392,-0.03369417414069176,0.1078752726316452,0.043681301176548004]},"forgetHidden":{"rows":20,"columns":20,"weights":[-0.2576422691345215,-0.31660640239715576,0.5466392636299133,0.00021983844635542482,-0.221064493060112,-0.13372404873371124,0.2600005865097046,0.2013738453388214,0.07315199077129364,0.3403934836387634,-0.5874844193458557,0.39793676137924194,-0.4868747293949127,-0.4162829518318176,0.056899841874837875,-0.2421232908964157,0.08659728616476059,0.34721338748931885,0.17847178876399994,-0.08494009077548981,-0.2941368520259857,-0.42536261677742004,0.636064350605011,0.22027823328971863,0.23339076340198517,0.05388910695910454,0.3317645490169525,0.4533226191997528,-0.0016984213143587112,0.4696822464466095,-0.7685782313346863,0.3379477560520172,-0.5267208814620972,-0.6708506941795349,0.007231761235743761,-0.33154675364494324,0.26437342166900635,0.6633535027503967,0.4057263731956482,-0.0825544223189354,-0.6096315979957581,-0.2898663282394409,0.32542309165000916,0.4215778410434723,0.7083199620246887,0.2504853308200836,0.42816582322120667,0.44631025195121765,-0.33908283710479736,0.4617982506752014,-0.4629501700401306,0.4696396291255951,-0.5468441843986511,-0.4388447701931,-0.4351010322570801,-0.4308883547782898,0.4893685579299927,0.7583556771278381,0.5628311634063721,0.3747551441192627,0.23378081619739532,-0.10243014246225357,0.5935157537460327,0.2711640000343323,0.3499630391597748,-0.09879473596811295,-0.010338659398257732,0.04294097423553467,0.05391762778162956,-0.30690819025039673,-0.8264949917793274,0.07809416949748993,-0.0756014958024025,-0.39038124680519104,0.03726792335510254,0.02889995276927948,0.0782790258526802,0.3678284287452698,-0.11918488144874573,-0.09223951399326324,-0.5234414339065552,-0.292041152715683,0.3705183267593384,0.297862708568573,0.46448442339897156,0.21379567682743073,0.40624815225601196,0.33744722604751587,-0.1485637128353119,0.4122064709663391,-0.3257802128791809,0.439160019159317,-0.4303620159626007,-0.5922902822494507,-0.24554690718650818,-0.45681408047676086,0.39581793546676636,0.3901127576828003,0.5582833290100098,0.07353072613477707,-0.08141490072011948,-0.1774611920118332,0.4124597907066345,0.5687564015388489,0.44280001521110535,-0.2174762487411499,0.05381431058049202,0.22495771944522858,0.2531247138977051,0.1155133992433548,-0.3262407183647156,0.06584830582141876,-0.07051108777523041,-0.6175531148910522,0.26784127950668335,-0.20471370220184326,0.05411680042743683,0.37686142325401306,0.19922101497650146,-0.41786450147628784,-0.3863139748573303,-0.2574825584888458,0.41203850507736206,0.28567206859588623,-0.21534444391727448,0.14426958560943604,0.4924899637699127,0.4914863407611847,-0.014464948326349258,0.32426339387893677,-0.4690418243408203,0.6420980095863342,-0.6531546115875244,-0.3214164078235626,-0.058739129453897476,-0.3171849548816681,0.33555248379707336,0.3478492796421051,0.3873600661754608,0.18438971042633057,-0.5715891122817993,-0.4573172330856323,0.1962416023015976,0.4724298119544983,-0.08419805020093918,-0.02600896544754505,0.44981467723846436,0.35996562242507935,0.002314888872206211,0.33671867847442627,-0.49613866209983826,0.5421226620674133,-0.6323716044425964,-0.12291637063026428,-0.009647703729569912,-0.40336665511131287,0.4584794044494629,-0.00458383047953248,0.33652010560035706,0.008239825256168842,0.15278315544128418,-0.0998946949839592,0.5389724969863892,0.15213997662067413,0.5007303357124329,-0.5065693855285645,0.01885882019996643,-0.044894956052303314,0.4058617055416107,-0.06845587491989136,-0.3908624053001404,-0.3306937515735626,0.0161674153059721,-0.4411310851573944,0.4016352593898773,-0.0639759823679924,0.07884963601827621,0.567704439163208,-0.0802726075053215,-0.5740678906440735,-0.4810021221637726,-0.33919069170951843,0.6868932247161865,0.019349230453372,0.5365570783615112,-0.1287306845188141,0.2715563476085663,0.3197053074836731,0.16122671961784363,0.6795073747634888,-0.7618505954742432,0.413547158241272,-0.4341161549091339,-0.7655431032180786,0.19811037182807922,-0.5252862572669983,0.1421748697757721,0.5817148089408875,0.48722735047340393,-0.2409089207649231,-0.5323043465614319,-0.30351969599723816,0.771733820438385,0.4939381182193756,0.6049651503562927,0.19859679043293,0.5021297335624695,0.3417937457561493,-0.2985532581806183,0.46176740527153015,-0.2934121787548065,0.558883786201477,-0.46496105194091797,-0.4327116310596466,-0.3876110017299652,-0.4399147927761078,0.36643922328948975,0.8039640188217163,0.5156580209732056,0.3290345370769501,-0.5546441078186035,-0.3839556872844696,0.763628363609314,0.09319476038217545,0.3555152416229248,-0.2611050605773926,0.3368624448776245,0.2651832699775696,0.2745823562145233,0.5611404776573181,-0.6285247802734375,0.14948421716690063,-0.28862252831459045,-0.5422372221946716,0.20994849503040314,-0.39913442730903625,0.2621498107910156,0.6046512722969055,0.41152727603912354,-0.34929898381233215,-0.5647030472755432,-0.46903347969055176,0.9606742262840271,0.1347290575504303,0.8356471657752991,-0.16869962215423584,0.444851279258728,0.34627485275268555,0.17179636657238007,0.41263577342033386,-0.8983389139175415,-0.007883278653025627,-0.22198601067066193,-0.7510188221931458,0.12318793684244156,-0.40644511580467224,0.39594152569770813,0.8851994276046753,0.3959236145019531,-0.30559030175209045,-0.4699820876121521,-0.31160756945610046,0.7281466722488403,0.4329753518104553,0.49435698986053467,0.1642129123210907,0.41632622480392456,0.3714032769203186,-0.2735128700733185,0.46357792615890503,-0.49487775564193726,0.5021518468856812,-0.4503495693206787,-0.37871429324150085,-0.31966203451156616,-0.5017430782318115,0.4689410924911499,0.6131136417388916,0.5549748539924622,0.33350083231925964,-0.12701860070228577,-0.14165650308132172,0.5474612712860107,0.6003143787384033,0.4364997148513794,-0.7090224623680115,0.07789906859397888,0.2680260241031647,-0.10125179588794708,0.11821796000003815,-0.5469303131103516,0.03255299851298332,-0.023189591243863106,-0.7183837294578552,0.16480281949043274,-0.14751149713993073,0.3434772491455078,0.6463397145271301,0.15859082341194153,-0.3940015733242035,-0.2207222729921341,-0.3296240568161011,0.6489466428756714,0.19348907470703125,0.13318277895450592,-0.04809592291712761,0.3588474690914154,0.35684528946876526,0.0614447221159935,0.2686142325401306,-0.6631885170936584,0.3240715265274048,-0.29902470111846924,-0.7927938103675842,-0.0009555628057569265,-0.18356896936893463,0.2750127911567688,0.7159469127655029,0.17672167718410492,-0.10078731924295425,-0.5721864700317383,-0.3419492244720459,-0.1493910253047943,0.34676000475883484,-0.11671412736177444,0.1636824905872345,0.5703101754188538,0.517385721206665,-0.21247397363185883,0.4055944085121155,-0.21722596883773804,0.4757196009159088,-0.48380109667778015,0.08993875980377197,-0.14947351813316345,-0.46362048387527466,0.33585014939308167,-0.19885793328285217,0.414369136095047,0.13399618864059448,-0.6293020248413086,-0.6181448698043823,0.4998486340045929,0.4772739112377167,1.1645920276641846,0.1410462111234665,0.5420165061950684,0.5435567498207092,-0.25091052055358887,0.4935918152332306,-0.47202616930007935,0.39495986700057983,-0.5648440718650818,-0.5235269665718079,-0.3923071026802063,-0.47734394669532776,0.4167097508907318,0.4656558036804199,0.5891791582107544,0.4335566461086273,-0.30590009689331055,-0.20179229974746704,0.7849851846694946,0.03723533824086189,0.10097233206033707,0.030627885833382607,0.24573488533496857,0.2949349284172058,0.013655385002493858,0.2700919806957245,-0.8078804016113281,0.30898192524909973,-0.40613260865211487,-0.5678613185882568,0.005806508008390665,-0.2254549264907837,0.1948186159133911,0.6734108924865723,0.2976539134979248,-0.09223819524049759,-0.13223077356815338,-0.27842041850090027,0.5553786158561707,0.3333607017993927,0.5825284719467163,-0.775416374206543,0.18874657154083252,0.12844236195087433,0.07967723906040192,0.14174920320510864,-0.49616697430610657,0.09681953489780426,-0.023607390001416206,-0.6395456194877625,0.5883238315582275,-0.15281781554222107,0.2536320388317108,0.43380939960479736,0.15670359134674072,-0.5266279578208923]},"forgetBias":{"rows":20,"columns":1,"weights":[0,0,0,0,0,0,0,0,0,0,0,0,0,0,0,0,0,0,0,0]},"outputMatrix":{"rows":20,"columns":1,"weights":[0.18712317943572998,0.3706071376800537,0.2247788906097412,0.2559155523777008,0.4116766154766083,0.23715665936470032,0.33221617341041565,0.24196550250053406,0.044139012694358826,0.36868131160736084,0.15881316363811493,0.09591986984014511,0.41805893182754517,0.21289590001106262,-0.0830395370721817,0.0971812978386879,0.2701226770877838,0.14143414795398712,0.1705523431301117,0.13624826073646545]},"outputHidden":{"rows":20,"columns":20,"weights":[-0.2942362427711487,-0.38173699378967285,0.7671716213226318,0.2802346348762512,0.10445721447467804,0.03793308138847351,0.4481109380722046,0.31768983602523804,-0.05633174628019333,0.3154192864894867,-0.7190344333648682,0.45433810353279114,-0.4501272439956665,-0.7879907488822937,-0.17532455921173096,-0.4064824879169464,0.4056498110294342,0.7131209373474121,0.42118486762046814,0.002528132637962699,-0.42813634872436523,-0.2841883599758148,0.46295166015625,0.13909874856472015,0.0518248975276947,0.2186795026063919,0.5722735524177551,0.5003340840339661,-0.09981558471918106,0.40462592244148254,-0.5821203589439392,0.47865521907806396,-0.5446674823760986,-0.4935655891895294,-0.13939601182937622,-0.26590004563331604,0.4474756121635437,0.39684444665908813,0.4112425148487091,0.09656941145658493,-0.5269150137901306,-0.4187898635864258,0.676576554775238,0.5824851989746094,0.8384360074996948,-0.03693821653723717,0.4761202037334442,0.38923975825309753,-0.0003641876101028174,0.4494258165359497,-0.8059576749801636,0.3769617974758148,-0.2772861123085022,-0.5691975951194763,0.055307116359472275,-0.5101152062416077,0.43938905000686646,0.776469886302948,0.4508412778377533,0.1863323152065277,-0.17380504310131073,-0.2291020154953003,0.8654596209526062,0.23145955801010132,0.6659929752349854,-0.06342939287424088,0.2824579179286957,0.2761489748954773,0.016077861189842224,0.04113259166479111,-0.5819382071495056,0.25826478004455566,-0.19993309676647186,-0.8076066374778748,-0.02821703441441059,-0.25479719042778015,0.11895066499710083,1.0842132568359375,0.2489205002784729,-0.029856771230697632,-0.5167734026908875,-0.4902423620223999,0.6018147468566895,0.4035796821117401,0.8984368443489075,0.10823211073875427,0.4260353446006775,0.46137529611587524,-0.14038093388080597,0.4321308135986328,-0.6899188160896301,0.4198789894580841,-0.35848450660705566,-0.5452503561973572,-0.08815920352935791,-0.5373337864875793,0.4730386734008789,0.6052758693695068,0.5512096285820007,0.2671932578086853,-0.1904699057340622,-0.2693895101547241,0.6033003330230713,0.8033387660980225,0.7463837265968323,-0.3037600815296173,0.2287992238998413,0.28518277406692505,0.28681135177612305,0.2108658254146576,-0.7017112374305725,0.20867915451526642,-0.20240339636802673,-0.6906971335411072,0.41907426714897156,-0.2404593676328659,0.13892920315265656,0.6835153102874756,0.27807196974754333,-0.6296877264976501,-0.41663938760757446,-0.3518070876598358,0.43758195638656616,0.38376307487487793,0.11927156150341034,0.11211811751127243,0.4276345372200012,0.38088610768318176,-0.016783006489276886,0.32331225275993347,-0.5223894715309143,0.4826087951660156,-0.440332293510437,-0.3778182864189148,-0.1822332739830017,-0.42835548520088196,0.4001771807670593,0.3325006067752838,0.4316088855266571,0.014462178573012352,-0.40509647130966187,-0.31054264307022095,0.5199431777000427,0.35403716564178467,0.2491942197084427,0.03247633948922157,0.4632997214794159,0.39626768231391907,-0.061456967145204544,0.25962385535240173,-0.6422226428985596,0.41183537244796753,-0.4469475746154785,-0.39906948804855347,-0.1497116982936859,-0.42340442538261414,0.4178142249584198,0.3929968476295471,0.37206342816352844,-0.06446824222803116,-0.14519603550434113,-0.23717503249645233,0.7716389894485474,0.4244239330291748,0.785914957523346,-0.6905640363693237,0.18647436797618866,0.2425309717655182,0.5842492580413818,0.1636369228363037,-0.750248908996582,0.1181691586971283,-0.14105653762817383,-0.8737046122550964,0.6393631100654602,-0.11297722905874252,0.32332295179367065,0.8091905117034912,0.18492618203163147,-0.7490633726119995,-0.25848639011383057,-0.3728138208389282,0.4942629337310791,0.10587763786315918,0.20564959943294525,0.23170368373394012,0.25604113936424255,0.20521380007266998,-0.0886000394821167,0.4644205868244171,-0.5241707563400269,0.40491774678230286,-0.4064042568206787,-0.5875532627105713,-0.1186533123254776,-0.29122394323349,0.17874829471111298,0.2587728500366211,0.3608550727367401,0.14565704762935638,-0.32838720083236694,-0.4168064296245575,0.9552231431007385,0.4075550436973572,0.8764235377311707,-0.06076923385262489,0.31632503867149353,0.37127363681793213,-0.06678087264299393,0.41122692823410034,-0.5060667991638184,0.48783549666404724,-0.35937169194221497,-0.7624382376670837,0.02890298329293728,-0.3822093904018402,0.44932860136032104,0.9604340195655823,0.4559546411037445,0.18380221724510193,-0.3883873522281647,-0.2915865182876587,1.071825623512268,0.29096493124961853,0.30936455726623535,-0.14222273230552673,0.45327919721603394,0.38701310753822327,0.17392905056476593,0.43387269973754883,-0.8303757309913635,0.4027900695800781,-0.2586606740951538,-1.037591814994812,0.12383314967155457,-0.393302857875824,0.3511684834957123,0.9295204877853394,0.4550169110298157,-0.2820247411727905,-0.266048789024353,-0.24733218550682068,0.39905622601509094,0.262764573097229,0.5344523787498474,0.05880412459373474,0.24007049202919006,0.08440937101840973,0.038133397698402405,0.2892259955406189,-0.5378299355506897,0.3488013744354248,-0.3933489918708801,-0.38502150774002075,-0.06952589005231857,-0.35507526993751526,0.2129436731338501,0.4063044488430023,0.29989320039749146,0.0344134196639061,-0.4222603142261505,-0.4106862545013428,0.8281875848770142,0.4467982351779938,0.7013900876045227,0.03617405518889427,0.36194542050361633,0.3691425919532776,-0.1056118980050087,0.30549973249435425,-0.6268172264099121,0.5513572692871094,-0.3125761151313782,-0.6478762030601501,-0.04007691517472267,-0.47832903265953064,0.49051201343536377,0.9013527631759644,0.5127971172332764,0.13918547332286835,-0.3279929757118225,-0.27868562936782837,1.180970549583435,0.4905199408531189,0.7930331230163574,-0.49813124537467957,0.21485267579555511,0.24162797629833221,0.4499780833721161,0.23658443987369537,-1.0797481536865234,0.3545755445957184,-0.2153623402118683,-1.060447335243225,0.5092558264732361,-0.21172744035720825,0.2177591323852539,1.0446094274520874,0.32234153151512146,-0.7899828553199768,-0.4111390709877014,-0.3823195993900299,0.9645869731903076,0.3636811375617981,0.23461011052131653,0.2387983649969101,0.4039113521575928,0.37518057227134705,-0.15006691217422485,0.43227821588516235,-0.6752402186393738,0.4472346305847168,-0.3917098045349121,-0.9319546222686768,-0.10591556876897812,-0.40564611554145813,0.3537781536579132,0.9076073169708252,0.36921197175979614,0.1445193737745285,-0.48515379428863525,-0.3159802258014679,0.5455589890480042,0.2938975989818573,0.5054254531860352,0.07743310183286667,0.38086163997650146,0.3017006814479828,-0.004076904151588678,0.3975292444229126,-0.6480364203453064,0.489278644323349,-0.5442607998847961,-0.523726224899292,-0.15603308379650116,-0.33334603905677795,0.2852154076099396,0.43350082635879517,0.3536378741264343,0.03713211417198181,-0.4086492359638214,-0.45696204900741577,0.7310909628868103,0.4692939519882202,1.0167192220687866,-0.0816449224948883,0.3719148635864258,0.4619702994823456,0.05472315847873688,0.43206337094306946,-0.7475113272666931,0.3847784101963043,-0.5212741494178772,-0.6436488628387451,0.0938371792435646,-0.5294229984283447,0.4064349830150604,0.7063292264938354,0.38386669754981995,0.008632239885628223,-0.25541067123413086,-0.3789654076099396,0.8205937743186951,0.27576351165771484,0.18326431512832642,0.04409141093492508,0.389119952917099,0.37470656633377075,-0.057304155081510544,0.3612567186355591,-0.727220892906189,0.460384339094162,-0.4142484962940216,-0.8470537662506104,-0.1877676099538803,-0.27603384852409363,0.2630618214607239,0.7132365703582764,0.3778335750102997,0.07243464887142181,-0.25566646456718445,-0.3065309226512909,0.5122438073158264,0.4685780107975006,0.9993158578872681,-0.533186137676239,0.1929394155740738,0.33661940693855286,0.28714099526405334,0.3092362880706787,-0.5361796021461487,0.20215216279029846,-0.0971778854727745,-0.6731989979743958,0.645675003528595,-0.2821704149246216,0.3369292616844177,0.6140754222869873,0.24043503403663635,-0.5656228065490723]},"outputBias":{"rows":20,"columns":1,"weights":[0.17086772620677948,0.2816915214061737,-0.26966118812561035,-0.13024191558361053,0.644213080406189,-0.14106184244155884,-0.21776172518730164,-0.0483771413564682,0.1620357632637024,-0.006128580775111914,-0.012432684190571308,-0.13489387929439545,-0.34052151441574097,-0.05153169110417366,-0.12543250620365143,0.21859833598136902,-0.16402478516101837,-0.158806711435318,0.17346996068954468,-0.15378060936927795]},"cellActivationMatrix":{"rows":20,"columns":1,"weights":[-0.17674916982650757,-0.09533773362636566,-0.09524243324995041,0.11717961728572845,-0.08141381293535233,-0.12367815524339676,0.15531571209430695,0.12914301455020905,-0.008819673210382462,0.13036881387233734,-0.025841522961854935,0.23858687281608582,-0.32364264130592346,0.04075099900364876,0.06585714966058731,-0.14227701723575592,0.072447270154953,-0.13287660479545593,0.19476541876792908,0.11038995534181595]},"cellActivationHidden":{"rows":20,"columns":20,"weights":[0.17325182259082794,-0.013543576933443546,0.28503212332725525,-0.5166419148445129,0.4568125605583191,0.027198676019906998,-0.4886910617351532,-0.6149628758430481,0.11841585487127304,-0.2750377655029297,-0.21540677547454834,-0.48126110434532166,1.2212361097335815,-0.3139317035675049,0.05672505497932434,0.21114960312843323,-0.41163456439971924,0.24700093269348145,-0.14544683694839478,-0.1860121488571167,0.23144197463989258,-0.03733466938138008,0.1772494912147522,-0.7072800397872925,0.42100074887275696,0.025375714525580406,-0.8378834128379822,-0.8724857568740845,-0.06186699867248535,-0.2921382486820221,-0.15184806287288666,-0.43841367959976196,0.9923467636108398,-0.11342110484838486,0.013103540055453777,0.2680668234825134,-0.6586453318595886,0.11077673733234406,-0.2609458267688751,-0.055015288293361664,-0.8071109056472778,-0.6926389336585999,0.36896055936813354,0.6153073310852051,0.019388889893889427,-0.14013172686100006,0.5797387957572937,0.4804629981517792,0.19294624030590057,0.9673833847045898,-0.42893853783607483,0.6715628504753113,-0.8162877559661865,-0.34618428349494934,0.2932053208351135,-0.7437319755554199,0.6407734155654907,0.4425741732120514,0.7783077359199524,-0.2969456613063812,-0.18521390855312347,-0.1505788266658783,0.08459397405385971,0.5372694134712219,-0.20988111197948456,-0.015982722863554955,0.5145726203918457,0.5704997181892395,0.0032749688252806664,0.2029052972793579,-0.15456852316856384,0.42798328399658203,-0.47184208035469055,-0.12415964156389236,0.03652387484908104,-0.3176485300064087,0.4153313934803009,-0.021119235083460808,0.20644685626029968,0.31337592005729675,-1.0244206190109253,-0.8260537385940552,0.45406439900398254,0.2034013867378235,0.016605518758296967,0.06004621088504791,0.526043176651001,0.14809872210025787,-0.020341912284493446,0.7638936638832092,-0.650265634059906,0.8804965615272522,-1.1525615453720093,-0.41383597254753113,0.09725181758403778,-0.7345930933952332,0.32421329617500305,0.4156920313835144,0.9469588994979858,-0.2754867970943451,0.09354434907436371,0.2772960662841797,-0.4616535007953644,-0.5887942910194397,-0.4347114861011505,-0.08507304638624191,-0.2799684703350067,-0.4401857554912567,0.26344791054725647,-0.056360870599746704,0.553047239780426,-0.0630820021033287,0.3202378749847412,0.5133582949638367,0.10280301421880722,0.1632111817598343,-0.38206663727760315,-0.5013155937194824,-0.1261185109615326,-0.09317014366388321,-0.20364154875278473,-0.316928505897522,-0.3357146680355072,0.6134641170501709,-0.24713332951068878,-0.05498415604233742,0.406966894865036,0.5273457765579224,-0.09397152811288834,0.1785433143377304,0.3689403533935547,0.36045926809310913,-0.48740851879119873,0.24512511491775513,-0.15766310691833496,-0.32719069719314575,0.5194008946418762,-0.37424784898757935,0.4013311564922333,0.19675326347351074,-0.3221803903579712,-0.329941064119339,-0.38935261964797974,0.7270503640174866,-0.08072001487016678,-0.04541582986712456,0.3695136606693268,0.5235627889633179,-0.1324375569820404,0.06938284635543823,0.30126187205314636,0.36672863364219666,-0.5035438537597656,0.31107115745544434,-0.15437310934066772,-0.3739425241947174,0.466474324464798,-0.4159875512123108,0.28246617317199707,0.2151997983455658,-0.2009681761264801,-0.23029641807079315,0.604486346244812,0.7605730891227722,0.2987281382083893,-0.10774427652359009,0.3499518036842346,0.4520590007305145,-0.2827383279800415,0.05832292139530182,-0.6954066157341003,0.09785014390945435,-0.40017232298851013,-0.6783703565597534,0.1709292232990265,-0.29560360312461853,0.17782683670520782,0.5984491109848022,0.24169299006462097,0.22220370173454285,-0.10471155494451523,-0.023712052032351494,-0.2363615185022354,0.6189994215965271,-0.5899242162704468,0.11189300566911697,0.6229129433631897,0.7585369348526001,-0.23005059361457825,0.3170722424983978,0.15836629271507263,0.4234023094177246,-0.8800415396690369,0.10262735188007355,-0.15286096930503845,-0.15646393597126007,0.5750515460968018,-0.10732387006282806,0.12273067981004715,0.11840222030878067,0.5452885031700134,0.41483062505722046,-0.059554215520620346,-0.37800347805023193,-0.04823371395468712,0.11680404841899872,-0.4755684733390808,-0.49855563044548035,-0.18587730824947357,-0.562552273273468,0.26837238669395447,-0.4937686622142792,0.5198651552200317,0.06506717205047607,-0.23748859763145447,0.44286224246025085,-0.3277010917663574,-0.13078518211841583,-0.5886167287826538,0.13471631705760956,-0.15957364439964294,-0.14092785120010376,-0.3896391987800598,0.4972320795059204,-0.4689617156982422,0.041014160960912704,0.32569175958633423,0.4605947434902191,-0.3538653254508972,0.1351037174463272,0.28794199228286743,0.3085557520389557,-0.9078146815299988,0.2779496908187866,-0.20394600927829742,-0.129052996635437,0.44676002860069275,-0.226941779255867,0.12471556663513184,0.19925497472286224,-0.1331508755683899,-0.1389281451702118,0.3499543368816376,-0.47119131684303284,0.6251239776611328,-0.2524537444114685,-0.36069244146347046,-0.602092444896698,0.060336802154779434,-0.054929327219724655,-0.2645891010761261,0.07923765480518341,0.3490367829799652,-0.17613182961940765,0.2754371762275696,0.00986909307539463,-0.4157094955444336,0.3257540166378021,0.05410870909690857,-0.054759688675403595,0.6947993636131287,0.7932090163230896,-0.30674687027931213,-0.6740708351135254,0.007805441506206989,0.19971273839473724,-0.5663946866989136,-0.45731019973754883,-0.16356098651885986,-0.7541070580482483,0.3940984010696411,-0.5884413123130798,0.6643742322921753,0.2556817829608917,-0.27527159452438354,0.6854774355888367,-0.777705729007721,-0.28617891669273376,-0.5684459209442139,0.20837616920471191,-0.09325506538152695,-0.48808950185775757,0.6026323437690735,0.6397643089294434,0.3714156150817871,-0.01227873656898737,0.2846534550189972,0.30496302247047424,-0.28072991967201233,0.10728569328784943,-0.6101795434951782,0.08717864751815796,-0.2353714555501938,-0.5569215416908264,-0.11788184940814972,-0.3115687668323517,0.312563419342041,0.6520287990570068,0.14588788151741028,0.11270985752344131,0.3098452687263489,0.0034266936127096415,0.2371070832014084,-0.5354562997817993,0.4230547547340393,0.0037056882865726948,-0.774543821811676,-0.8068221211433411,0.0637926235795021,-0.41584083437919617,-0.2745891213417053,-0.38262832164764404,0.7630053162574768,-0.19934312999248505,0.037453748285770416,0.21676665544509888,-0.5784792304039001,0.28275176882743835,-0.20031540095806122,-0.05194846913218498,-0.07330085337162018,-0.1544935405254364,-0.25556591153144836,0.7631112933158875,-0.5526911616325378,-0.02293057180941105,0.7130928635597229,0.8546918630599976,-0.2865390181541443,0.24078305065631866,0.13348206877708435,0.46623164415359497,-0.8566737771034241,0.09297838807106018,-0.2552269399166107,-0.23451445996761322,0.6538398861885071,-0.12001911550760269,0.145437553524971,0.38836348056793213,-0.8324639201164246,-0.7284731268882751,0.4961731731891632,0.7495121359825134,0.20691773295402527,-0.14787989854812622,0.7090696692466736,0.6421812772750854,0.2271668016910553,0.7762443423271179,-0.4309665262699127,0.7396340370178223,-0.8856897950172424,-0.3044694662094116,0.3350071907043457,-0.784081757068634,0.8539676666259766,0.3807486891746521,0.6775555610656738,-0.31884053349494934,-0.1619180142879486,-0.2002178430557251,-0.22788293659687042,0.44499799609184265,-0.36177605390548706,0.0669315755367279,0.4815526604652405,0.6172221899032593,-0.06075923889875412,0.19580784440040588,0.2423851042985916,0.1585863083600998,-0.6106433868408203,0.21817460656166077,-0.1601303666830063,-0.19157162308692932,0.5068569779396057,-0.1802295297384262,0.15272124111652374,0.11116542667150497,0.22244824469089508,0.3753947615623474,-0.6566614508628845,-0.3684503734111786,-0.30268827080726624,-0.04150312766432762,-0.09228027611970901,-0.10523945093154907,0.32187721133232117,-0.2740795612335205,0.5377311706542969,-0.18977463245391846,0.5116064548492432,0.6189264059066772,0.08835440129041672,0.3374105393886566,-0.12224457412958145,-0.7061489820480347,-0.207426518201828,-0.08550911396741867]},"cellActivationBias":{"rows":20,"columns":1,"weights":[-0.05561492592096329,-0.23437464237213135,0.32020628452301025,-0.001695968327112496,0.8641743659973145,-0.2782372832298279,-0.2012806087732315,-0.20626138150691986,0.5655224919319153,0.012243568897247314,-0.1947333663702011,-0.11131982505321503,0.40219050645828247,-0.2100658416748047,0.4476267397403717,-0.07969250530004501,0.03636395186185837,0.30814290046691895,-0.0027378129307180643,-0.5836136341094971]}}],"outputConnector":{"rows":1,"columns":20,"weights":[-0.5820586085319519,-0.22658538818359375,0.031905438750982285,0.5949754118919373,0.07161476463079453,-0.634889543056488,0.22906726598739624,0.2717711627483368,0.6435793042182922,0.04503998905420303,-0.09885167330503464,0.5666422247886658,-0.48594701290130615,-0.04555676132440567,0.5640081167221069,-0.04958481714129448,0.32627177238464355,-0.002178485970944166,0.07578641176223755,-0.5964294075965881]},"output":{"rows":1,"columns":1,"weights":[0.9013673663139343]},"inputLookup":null,"inputLookupLength":0,"outputLookup":null,"outputLookupLength":0}