{"type":"GRUTimeStep","options":{"inputSize":1,"inputRange":0,"hiddenLayers":[20],"outputSize":1,"decayRate":0.999,"smoothEps":1e-8,"regc":0.000001,"clipval":5,"maxPredictionLength":100,"dataFormatter":{"indexTable":{},"characterTable":{},"characters":[],"specialIndexes":[]}},"hiddenLayers":[{"updateGateInputMatrix":{"rows":20,"columns":1,"weights":[2.250352621078491,1.0890871286392212,0.5649746060371399,1.1624369621276855,0.547705352306366,1.2557497024536133,0.9959239363670349,0.66462242603302,0.5330401062965393,1.0834413766860962,1.5184118747711182,1.4890280961990356,0.5922191143035889,1.1794102191925049,1.0681174993515015,1.2257460355758667,0.8112648129463196,1.2254021167755127,0.5132519006729126,1.274708867073059]},"updateGateHiddenMatrix":{"rows":20,"columns":20,"weights":[0.5766901969909668,0.5115766525268555,-0.468497633934021,-0.3085840940475464,-0.3827804625034332,0.24311397969722748,-0.8598431944847107,-0.00727272080257535,0.1403971016407013,-0.4644308090209961,-1.2895327806472778,0.21698646247386932,-0.347368061542511,-0.8716903328895569,-0.2372952252626419,-0.08242194354534149,0.37911245226860046,-0.4815843403339386,-0.1018543541431427,0.38027337193489075,0.596991777420044,0.4862687587738037,-0.9193554520606995,-0.40896421670913696,-0.8730320930480957,0.5952833294868469,-0.5892446637153625,-0.2400035709142685,0.7308129668235779,0.22091491520404816,-0.4607403576374054,0.3331354260444641,-0.8422103524208069,-0.5935449004173279,-0.189324751496315,-0.36911922693252563,0.14505378901958466,-0.2615642845630646,-1.3464211225509644,0.5333467125892639,0.15825460851192474,0.2925199866294861,-1.0132005214691162,-0.42629483342170715,-1.0978577136993408,0.22752384841442108,-0.2551732361316681,-0.6944437026977539,1.0079904794692993,0.7336981296539307,-0.37793081998825073,0.18501201272010803,-0.42031651735305786,-0.2089647799730301,0.8382702469825745,-0.7168422937393188,0.2795167565345764,-0.2521416246891022,-0.569681704044342,0.2621046006679535,0.7066538333892822,0.134145587682724,-0.6292113065719604,-0.19978302717208862,-0.4567142128944397,0.4573054015636444,-0.23204468190670013,-0.13438697159290314,0.4632551968097687,-0.20417985320091248,-0.4232077896595001,0.48288020491600037,-0.2849467396736145,-0.38245153427124023,-0.47012826800346375,-0.3773517608642578,0.3171546161174774,-0.7898027300834656,-0.42906415462493896,0.20253778994083405,0.3291887640953064,0.5216950178146362,-1.1752821207046509,-0.458143949508667,-1.1932387351989746,0.3368004262447357,-0.31104913353919983,-0.9678640961647034,1.1582192182540894,0.6789678335189819,-0.24882952868938446,0.38317590951919556,-0.5912166237831116,-0.27810660004615784,0.5933789610862732,-0.8803462386131287,0.22069211304187775,-0.48237344622612,-0.7133700251579285,0.3469836711883545,0.906692385673523,0.6307592988014221,-0.5609965324401855,-0.18193723261356354,-0.6315761208534241,0.9160129427909851,-0.4948219954967499,-0.1499023586511612,0.582415759563446,0.4837510287761688,-0.6205966472625732,0.7049320936203003,-0.431580513715744,-0.6412811279296875,-0.38023680448532104,-0.33046916127204895,0.4120941162109375,-0.6383183598518372,-0.48211508989334106,0.6399081945419312,0.43093442916870117,0.4241972267627716,-0.6213551163673401,-0.3640393316745758,-0.5799655914306641,0.394584059715271,-0.4813764989376068,-0.050313640385866165,0.36865538358688354,0.2836352288722992,-0.7530052661895752,0.4219070076942444,-0.3381780982017517,-0.6931068897247314,0.31366440653800964,-0.12465249001979828,0.5661763548851013,-0.4750235080718994,-0.2644125819206238,0.3158521056175232,0.12085237354040146,0.28997403383255005,-0.8681523203849792,-0.39416298270225525,-0.9443691372871399,0.5293404459953308,-0.34355664253234863,-0.9441734552383423,0.9152126908302307,0.45152851939201355,-0.22230765223503113,0.26448532938957214,-0.6491650342941284,-0.2986994981765747,0.4030633568763733,-0.5634234547615051,0.17143908143043518,-0.470439076423645,-0.7356129288673401,0.3058372139930725,0.4337977468967438,0.6631197333335876,-1.1638532876968384,-0.5949974060058594,-1.1242713928222656,0.5233017206192017,-0.45679736137390137,-1.019806146621704,1.0728367567062378,0.7238276600837708,-0.31567272543907166,0.3944927453994751,-0.7010996341705322,-0.3953205347061157,0.5952588319778442,-1.022735595703125,0.18344424664974213,-0.6178870797157288,-0.6196145415306091,0.4061315655708313,0.36345210671424866,0.9756262898445129,-0.8873487114906311,-0.3962422013282776,-0.7715145349502563,0.43701592087745667,-0.756145715713501,-0.8633586764335632,0.6342164278030396,0.8183833956718445,-0.5398059487342834,0.5994089245796204,-0.11761666089296341,-0.39849624037742615,0.8854870796203613,-0.7207533717155457,0.5845687985420227,-0.7097545266151428,-0.17261721193790436,0.6438443660736084,0.3980211019515991,0.4625231921672821,-0.6153109073638916,-0.3018551766872406,-0.6442390084266663,0.3725581169128418,-0.5631044507026672,0.08850729465484619,0.5512928366661072,-0.005228029564023018,-0.24394580721855164,0.37920743227005005,-0.32873591780662537,-0.5878435969352722,0.21519839763641357,0.08365219086408615,0.32731106877326965,-0.4123002290725708,-0.3268519639968872,0.4096212089061737,0.8116399645805359,0.2991834580898285,-0.6005158424377441,-0.3291129469871521,-0.6831098198890686,0.7606420516967773,-0.9267674684524536,-0.1218101754784584,0.8138414025306702,0.3162444829940796,-0.5019026398658752,0.22815194725990295,-0.7207998633384705,-0.65120530128479,-0.10152450948953629,-0.41154810786247253,0.11602717638015747,-0.34101301431655884,-1.013369083404541,0.5929862260818481,0.5289490222930908,0.5962802171707153,-1.0324915647506714,-0.5055426359176636,-0.8460679054260254,0.3445705771446228,-0.5009220838546753,-0.3413950800895691,0.7692945599555969,0.16929391026496887,-0.48565879464149475,0.5127299427986145,-1.1841421127319336,-0.39352959394454956,0.26550665497779846,-0.16970455646514893,0.427899569272995,-0.7251323461532593,-0.6634950041770935,0.42174044251441956,0.47468557953834534,0.6551238894462585,-1.0191833972930908,-0.3996908962726593,-0.7895650267601013,0.443457692861557,-0.4630179703235626,-0.23957301676273346,0.5243326425552368,0.21361961960792542,-0.5821903347969055,0.3900855779647827,-0.686259388923645,-0.30000242590904236,0.021065039560198784,-0.23978346586227417,0.23810754716396332,-0.2774261236190796,-0.8972922563552856,0.4232534170150757,0.36648029088974,0.075761578977108,-1.0846418142318726,-0.1776481419801712,-0.8632826805114746,0.37253257632255554,-0.01543126255273819,-0.6976567506790161,0.7391363382339478,0.5476666688919067,0.013372492976486683,0.166672483086586,-0.34902632236480713,-0.11344751715660095,-1.1562997102737427,-0.6752374172210693,-0.1822814643383026,-0.12903116643428802,0.2529544234275818,0.2638559937477112,0.7555391192436218,0.8398087620735168,-0.6419535875320435,-0.20568640530109406,-0.6511327624320984,0.44564980268478394,-0.6430275440216064,-0.510366678237915,0.6869622468948364,0.9595691561698914,-0.4579375982284546,0.5902066826820374,-0.3242914080619812,-0.6821287274360657,0.7306422591209412,-0.4970987141132355,0.17680984735488892,-0.4835798740386963,-0.3034367561340332,0.546390950679779,0.39952537417411804,0.6165825724601746,-0.01764928735792637,-0.6962302923202515,-0.006517763715237379,0.565259575843811,-0.6037945747375488,-0.3207349479198456,-0.037791814655065536,0.4781109690666199,-0.9214279651641846,0.5219553112983704,-0.7171090245246887,-0.8918789029121399,0.3608509302139282,-0.20034079253673553,-0.4368171989917755,-0.6091766953468323,-0.8966911435127258,0.8257545828819275,0.4469560384750366,0.2091439962387085,-0.566280722618103,-0.3591216206550598,-0.6277286410331726,0.5074834227561951,-0.7781869173049927,-0.16887687146663666,0.8256815671920776,0.38730987906455994,-0.42654481530189514,0.08743233978748322,-0.8623272776603699,-0.47177815437316895,-0.16845646500587463,-0.36367547512054443,0.10852662473917007,-0.23919066786766052,-1.347033143043518,0.4421147406101227,-0.033428434282541275,0.8765028119087219,-1.0775682926177979,-0.7501112222671509,-0.7883120775222778,0.5911893844604492,-0.470355361700058,-0.5041313171386719,0.47779878973960876,0.06613880395889282,-0.33215799927711487,0.7069174647331238,-1.3505419492721558,-0.5882810354232788,0.34655359387397766,-0.167444109916687,0.4293118715286255,-0.7321245670318604,-2.305201530456543,0.49032649397850037,0.518664538860321,0.3754502236843109,-0.6491445899009705,-0.26052144169807434,-0.4999050498008728,0.13620515167713165,-0.5141571760177612,-0.2504025995731354,0.40031853318214417,0.19639095664024353,-0.8705820441246033,0.2196660339832306,-0.2989387512207031,-0.16346196830272675,0.17785906791687012,-0.33372506499290466,0.4225725531578064,-0.22904960811138153,-0.4620332419872284,0.6176990866661072]},"updateGateBias":{"rows":20,"columns":1,"weights":[0,0,0,0,0,0,0,0,0,0,0,0,0,0,0,0,0,0,0,0]},"resetGateInputMatrix":{"rows":20,"columns":1,"weights":[0.928512454032898,0.8793504238128662,-2.2093710899353027,0.8260027766227722,-2.2960712909698486,0.7084367275238037,0.6059690117835999,-0.01619104854762554,-1.9864554405212402,0.4408923387527466,0.6847798228263855,0.73368239402771,-0.15445785224437714,0.7105486989021301,-0.9492319226264954,-0.07366402447223663,0.039714425802230835,0.8106874823570251,0.7897154688835144,0.5314385294914246]},"resetGateHiddenMatrix":{"rows":20,"columns":20,"weights":[0.3671328127384186,0.17695686221122742,0.6108763813972473,0.01973545178771019,0.37874698638916016,0.08374213427305222,-0.14063456654548645,0.4463166296482086,-0.12036199122667313,-0.08796561509370804,-0.0668889582157135,0.19446629285812378,0.12684275209903717,0.08999846875667572,-0.1962278038263321,0.08308277279138565,0.05489281192421913,0.13989384472370148,0.1950053721666336,-0.18421825766563416,0.23550032079219818,-0.2887202203273773,1.146828293800354,0.1759181171655655,0.708538293838501,0.0339772030711174,-0.09941541403532028,0.600691020488739,-0.466751366853714,0.21910108625888824,-0.3795485496520996,0.12434318661689758,0.3748913109302521,0.1535409688949585,-0.1640678495168686,-0.025392426177859306,0.38971590995788574,0.24766714870929718,0.47488853335380554,-0.10967458039522171,-0.061403919011354446,0.9122201800346375,-1.0708646774291992,-0.5226512551307678,-0.4578046500682831,0.6550042033195496,0.5946810245513916,-0.7020764350891113,0.033281248062849045,0.15016120672225952,1.1046854257583618,0.4197008013725281,-0.727440357208252,-0.6525864601135254,0.11805213242769241,-0.16631874442100525,-1.2891638278961182,-0.6458187699317932,-0.2645633816719055,0.10636133700609207,0.7289078235626221,-0.032829899340867996,0.47985541820526123,0.030212923884391785,0.4350089430809021,0.22355346381664276,-0.34494325518608093,0.42631763219833374,-0.277012437582016,0.10533066093921661,-0.17162847518920898,0.2573058307170868,0.21312478184700012,0.0969734936952591,-0.07466789335012436,-0.3567916750907898,0.1299656629562378,0.06443218886852264,1.8819892406463623,0.09176760166883469,0.10623236745595932,0.7227842211723328,-1.0925713777542114,-0.4442911744117737,-0.41864898800849915,0.7574394941329956,0.5996658802032471,-0.7343734502792358,0.09878860414028168,0.06702810525894165,1.1529815196990967,0.45310863852500916,-0.6098034381866455,-0.5475676655769348,-0.18695108592510223,-0.29605016112327576,-1.1414341926574707,-0.5633346438407898,-0.16169746220111847,0.15692584216594696,0.5317357182502747,0.1340583860874176,-0.19114522635936737,-0.035212792456150055,-0.2829262614250183,0.10890315473079681,-0.16125304996967316,-0.26871761679649353,0.1087048202753067,0.6206448078155518,-0.15503716468811035,0.13513214886188507,0.04749005287885666,0.06907843798398972,0.45590683817863464,-0.539927065372467,0.22949594259262085,0.01255233958363533,0.3995203673839569,-0.0061171590350568295,-0.08238764107227325,0.2964322865009308,-0.03440587595105171,-0.15211868286132812,-0.08295974880456924,0.22174526751041412,0.17830418050289154,0.43075764179229736,0.14497044682502747,-0.42821013927459717,-0.15044668316841125,0.16085994243621826,-0.22833414375782013,-0.33892330527305603,-0.09711793065071106,0.6902302503585815,0.2532217800617218,-0.16858349740505219,-0.01478543784469366,-0.00442392285913229,-0.17228388786315918,-0.11219830811023712,0.5286838412284851,0.14853236079216003,0.5471935868263245,-0.059472937136888504,0.14578421413898468,0.40101757645606995,-0.5537568926811218,-0.41760051250457764,0.16494879126548767,-0.18127673864364624,0.17869432270526886,0.21457378566265106,-0.2254432588815689,0.32373976707458496,-0.14375458657741547,0.16898679733276367,0.2125648856163025,-0.08243685960769653,-0.02958059310913086,0.5943387746810913,-1.0640685558319092,-0.4794886112213135,-0.694772481918335,0.5540462732315063,0.46457526087760925,-0.6210744976997375,0.1574225127696991,0.07672122865915298,0.8444609045982361,0.42564553022384644,-0.3945924639701843,-0.5582976937294006,-0.10064201802015305,-0.32499757409095764,-0.8909609913825989,-0.434719979763031,-0.5011783242225647,0.1347496509552002,0.0544392429292202,-0.13357287645339966,0.5593183636665344,0.18559223413467407,0.6041005849838257,0.11304444819688797,-0.010186675004661083,0.38211262226104736,-0.5395174026489258,-0.33385759592056274,-0.198276549577713,-0.023993784561753273,0.12328202277421951,-0.009101981297135353,-0.1742067188024521,0.17924465239048004,-0.11433851718902588,0.004682129714637995,0.534919798374176,-0.04158073663711548,0.1868295967578888,0.6259531378746033,-0.3436630666255951,-0.3816947638988495,-0.3986349105834961,0.5604373216629028,0.010204843245446682,0.14617927372455597,0.2328602522611618,-0.4975011646747589,-0.06273487955331802,0.5198308825492859,-0.511454164981842,-0.5875610709190369,-0.466010719537735,0.5050685405731201,0.19880741834640503,-0.5680398941040039,-0.38315966725349426,0.12747879326343536,-0.08668197691440582,0.23039036989212036,0.7130653262138367,-0.12835465371608734,0.39328649640083313,-0.08821200579404831,-0.2635306715965271,0.3231532871723175,-0.21256697177886963,0.26421791315078735,-0.6091291308403015,-0.04938065633177757,-0.15969125926494598,0.0927986204624176,-0.04634041339159012,0.0174389835447073,0.5206832885742188,0.1037912666797638,-0.12968310713768005,0.2207745611667633,0.34343454241752625,0.14907895028591156,-0.3947772979736328,-0.2274705469608307,-0.3683984577655792,0.12753823399543762,-0.2862391173839569,-0.3374541103839874,0.29543450474739075,0.4590662121772766,-0.27324482798576355,0.12755964696407318,0.11792223900556564,-0.12737295031547546,0.7709218859672546,-0.5045250058174133,0.2464635968208313,-0.0781828984618187,0.049566734582185745,0.1367327719926834,0.31896260380744934,0.020899347960948944,0.866380512714386,-0.002729177474975586,0.4385431408882141,0.032133445143699646,-0.06726433336734772,0.23140037059783936,-0.29647037386894226,0.12998013198375702,-0.2001902014017105,0.1291484385728836,0.11913628876209259,0.08922170847654343,0.15697740018367767,-0.04922669380903244,0.35236722230911255,0.19776038825511932,0.3974199593067169,-0.09465471655130386,-0.5300045013427734,0.031654585152864456,-0.5846610069274902,0.25337982177734375,-0.36014142632484436,-0.09590025246143341,0.3757484257221222,-0.15856043994426727,0.12790796160697937,-0.16344182193279266,0.431155264377594,-0.32876086235046387,-0.016164103522896767,0.10114377737045288,0.14726515114307404,0.22077147662639618,-0.4172896444797516,0.20157526433467865,-0.2528044879436493,-0.3006221354007721,0.05309620499610901,-0.0810128003358841,0.4580351710319519,-0.01867816224694252,0.47121065855026245,0.008001474663615227,-0.23738829791545868,0.36343812942504883,-0.41218385100364685,-0.2160627394914627,-0.1463838815689087,0.0965152308344841,0.07296831160783768,-0.057054586708545685,-0.15330955386161804,0.06304895877838135,-0.0041338675655424595,-0.0059728375636041164,-0.0011882982216775417,0.1882963329553604,-0.059170644730329514,0.253237247467041,-0.5756644606590271,-0.21541588008403778,-0.6741533875465393,0.03201945498585701,-0.3285169303417206,-0.6138436198234558,0.6309027671813965,0.25888878107070923,-0.14611998200416565,0.04091621935367584,-0.3530479371547699,-0.3292086124420166,0.32314467430114746,-0.15333528816699982,0.09613824635744095,-0.12109305709600449,-0.38597115874290466,0.24136017262935638,-0.13201461732387543,-0.18241481482982635,0.9369959831237793,0.13473428785800934,0.4424576163291931,-0.087366484105587,0.03590049222111702,0.46411648392677307,-0.12240789830684662,0.1996643841266632,-0.31434494256973267,-0.03343912586569786,0.17758676409721375,0.25153541564941406,-0.09425702691078186,0.14054320752620697,0.3555107116699219,0.18859484791755676,0.15990562736988068,-0.22494389116764069,0.128608837723732,-0.1911509782075882,-0.03226308897137642,0.0025427325163036585,-0.04640128090977669,-0.2498994916677475,-0.05288957431912422,-0.14846137166023254,0.12965872883796692,0.39963459968566895,-0.1395355612039566,-0.06343723088502884,0.3920533061027527,0.22190991044044495,0.4321165382862091,-0.3512813448905945,0.2737957537174225,-0.03190460428595543,2.7569808959960938,0.0663323625922203,0.34131503105163574,0.2703927457332611,0.4475839138031006,-0.0829179584980011,0.1304808259010315,0.1564463973045349,-0.36718907952308655,0.4033796191215515,-0.028234262019395828,-0.1262584924697876,-0.42608118057250977,0.08456381410360336,0.0161600299179554,-0.17732086777687073,0.030732115730643272,0.2141154706478119,0.3748672604560852,-0.10821100324392319,-0.09688750654459,0.006094906013458967]},"resetGateBias":{"rows":20,"columns":1,"weights":[0,0,0,0,0,0,0,0,0,0,0,0,0,0,0,0,0,0,0,0]},"cellWriteInputMatrix":{"rows":20,"columns":1,"weights":[0.42973870038986206,0.8872619271278381,-0.9679317474365234,-0.7062061429023743,-0.9760374426841736,1.2916553020477295,-0.8103716373443604,-0.9141205549240112,0.9483702778816223,1.2407029867172241,-0.749410092830658,1.6205650568008423,-0.8110383749008179,-0.7784658074378967,-0.5274113416671753,-1.133217453956604,0.6808913946151733,-0.6218534708023071,-0.47259223461151123,0.9483428001403809]},"cellWriteHiddenMatrix":{"rows":20,"columns":20,"weights":[-0.12863945960998535,-0.041140832006931305,1.5940990447998047,1.0635038614273071,1.8161567449569702,-0.1624639481306076,-0.048317305743694305,0.3410605490207672,-1.2463414669036865,-0.4913775324821472,-0.03818364441394806,-0.5671221613883972,-0.8284145593643188,-0.2389248013496399,-0.08256489038467407,0.12785203754901886,-0.5862515568733215,0.7417008876800537,-1.5972840785980225,-0.14938779175281525,0.5910932421684265,0.20556031167507172,0.5208284854888916,0.6900548934936523,0.8003389239311218,0.45039182901382446,-0.4629163444042206,0.03474486619234085,-1.0891057252883911,0.33368751406669617,-0.49451059103012085,0.3616555333137512,0.14448986947536469,-0.5618301630020142,0.7105175256729126,-0.299972265958786,0.26983144879341125,-0.17195279896259308,0.9196155071258545,0.39623335003852844,-0.6404605507850647,-0.3704178035259247,0.13017180562019348,-0.28997597098350525,0.04663044959306717,-0.9220787286758423,0.305050790309906,-0.17864607274532318,-0.2435135692358017,0.011505436152219772,0.5263883471488953,-0.5497863292694092,0.26989489793777466,0.6784165501594543,-0.021975331008434296,-0.1392696350812912,-0.25704655051231384,0.11234193295240402,0.6060922145843506,-0.5738414525985718,-0.5282344818115234,0.014703972265124321,-0.8942977786064148,-1.2617614269256592,-1.1732510328292847,-0.6128665208816528,0.25537165999412537,0.022761086001992226,1.2247724533081055,-0.2098170816898346,0.27510759234428406,-0.024601856246590614,0.01978200674057007,0.39511457085609436,-0.8676341772079468,0.1728678196668625,-0.09818396717309952,-0.21465565264225006,0.14110301434993744,-0.4921063184738159,-0.824378252029419,-0.41716355085372925,0.026597894728183746,-0.360440194606781,-0.054917916655540466,-1.0075371265411377,0.25481051206588745,-0.1102798730134964,-0.2695639729499817,-0.12296929210424423,0.4382389783859253,-0.784745454788208,0.13368088006973267,0.7500647902488708,0.08681851625442505,-0.04869726300239563,-0.23454239964485168,0.1982950121164322,-0.11835088580846786,-0.5491943955421448,0.6891169548034668,-0.9477432370185852,0.756049633026123,3.634216070175171,1.0982916355133057,-0.574781596660614,-0.25423532724380493,0.2866270840167999,-1.1748595237731934,0.2094918042421341,-0.2653746008872986,-0.22593574225902557,0.3377262353897095,0.7493528127670288,0.8269732594490051,-0.016748394817113876,0.12531785666942596,0.46301549673080444,1.7115222215652466,0.5358242988586426,-0.286312073469162,0.025384381413459778,-1.2502140998840332,-0.6120648980140686,-1.6218037605285645,0.009790169075131416,-0.0812271311879158,-0.23968413472175598,1.5489076375961304,0.06903710961341858,0.26511943340301514,-0.13449980318546295,-0.1349225640296936,-0.3945935368537903,-0.0896095484495163,-0.0554986409842968,-0.16377782821655273,0.24675172567367554,-0.9616804122924805,0.05870041623711586,-0.5980067849159241,-0.344712495803833,-0.9597376585006714,-0.5361965894699097,-1.2923524379730225,-0.9095247983932495,0.17820216715335846,-0.08134574443101883,1.7026495933532715,-0.2250242978334427,0.4980812072753906,-0.5628455281257629,0.22884894907474518,0.5063301920890808,-0.5795963406562805,0.04407837241888046,-0.30797886848449707,0.21115531027317047,0.1143147274851799,-0.4621908664703369,0.7500481009483337,0.5106743574142456,-0.09258902817964554,0.4534553587436676,-0.020156871527433395,0.9578136205673218,-0.23032034933567047,0.21582606434822083,0.29232046008110046,-0.007247322238981724,-0.4325885772705078,0.7116154432296753,0.0015997841255739331,-0.7932927012443542,-0.2061866968870163,0.048581019043922424,0.218454048037529,-0.29795145988464355,0.3179280161857605,0.5393704771995544,0.5774843096733093,-0.5405449271202087,1.6450484991073608,0.9002720713615417,2.255770206451416,0.20743203163146973,0.4758400619029999,0.461679607629776,-1.049317479133606,-1.009495496749878,0.3065493702888489,-0.3141555190086365,-0.6868688464164734,1.2814247608184814,-0.6084455847740173,0.644860565662384,0.029909083619713783,0.27790167927742004,0.7403391003608704,-0.016514727845788002,-0.3389738202095032,0.25944408774375916,-1.523324966430664,-0.7599826455116272,-1.9466710090637207,-0.23577231168746948,-0.19561982154846191,-0.10344228893518448,1.8906537294387817,0.003183762775734067,0.10329686850309372,0.08638710528612137,0.07810332626104355,-0.46659016609191895,-0.25092336535453796,0.16708238422870636,0.0585961788892746,-0.0863562747836113,-0.8493701815605164,0.12130964547395706,0.29315391182899475,-0.8989388346672058,1.0001976490020752,4.791581153869629,1.22153639793396,-0.05382198840379715,-0.4729028046131134,0.17585231363773346,-1.3724573850631714,0.24729812145233154,-0.5501745343208313,-0.07353933155536652,-0.1879223883152008,1.0202784538269043,0.9521375894546509,-0.36066460609436035,0.2586020231246948,0.039822205901145935,0.9790242314338684,0.7616297602653503,-0.552893877029419,-0.08470693975687027,-0.5432107448577881,-0.4330560266971588,-0.8467490673065186,-0.9286030530929565,0.18012051284313202,-0.11495454609394073,1.0812623500823975,-0.16693471372127533,0.4633999168872833,-0.5592710375785828,-0.07586266845464706,0.5748692154884338,-0.6555206775665283,0.1450793594121933,-0.22190693020820618,0.22933360934257507,-0.4009544253349304,-0.3807659447193146,-0.34083646535873413,0.2819841504096985,-0.7474525570869446,-1.2327302694320679,-1.1663206815719604,0.0586513914167881,0.3220864236354828,-0.1338464617729187,1.223882794380188,-0.2712826728820801,0.555608868598938,-0.16230860352516174,-0.026311151683330536,-0.6981417536735535,-0.6070795059204102,0.07600905001163483,-0.17797110974788666,-0.05823363736271858,-2.028428077697754,-0.4008598327636719,-0.13113175332546234,-0.08475758880376816,1.3722522258758545,0.49089428782463074,1.5598976612091064,-0.028111498802900314,0.2037799060344696,0.1949320286512375,-0.8919934630393982,-0.45784905552864075,0.4525817334651947,-0.3466944396495819,-0.5910351872444153,0.6130009293556213,-0.8188513517379761,0.2764119803905487,0.14880810678005219,0.2053571194410324,-0.5855147838592529,-0.3105924129486084,-1.4291294813156128,0.9679833650588989,-1.3052105903625488,-1.7899280786514282,-1.748455286026001,-0.2600622773170471,-0.259844034910202,-0.94385826587677,1.259857416152954,0.8799411058425903,-0.006675328593701124,0.24331755936145782,0.7440270185470581,-0.4191649854183197,0.36724260449409485,-0.34419235587120056,1.0043402910232544,-0.9482975602149963,-0.11423055082559586,-0.3418722450733185,0.044982027262449265,-0.1627483069896698,1.331358790397644,0.50223308801651,1.4687621593475342,-0.35077863931655884,0.31264472007751465,-0.3815024495124817,-1.4265273809432983,0.591331422328949,0.11803527176380157,-0.200254887342453,0.7278693318367004,0.24086065590381622,0.4881608188152313,-0.6066051125526428,0.16046983003616333,0.12232160568237305,1.1852833032608032,-0.40733885765075684,-0.6844773888587952,-0.13620422780513763,-0.7623096704483032,-1.0474672317504883,-0.9994471073150635,-0.45638197660446167,0.44543954730033875,-0.1792690008878708,1.2278695106506348,-0.17752228677272797,0.6623622179031372,-0.4682944416999817,-0.33505940437316895,0.2146168053150177,-0.6285359859466553,0.1893419772386551,-0.12921220064163208,0.13086241483688354,-2.1388676166534424,-0.5232739448547363,-0.9901463985443115,-0.9676818251609802,-0.40008267760276794,-0.07566811144351959,-0.5070022940635681,-1.4769216775894165,0.25717201828956604,-0.03665771707892418,0.714077889919281,-0.26755258440971375,0.6368421912193298,-1.2453688383102417,-0.4334312379360199,0.9453642964363098,-0.250359445810318,0.10225693136453629,-0.17676803469657898,0.4419310688972473,-0.06884122639894485,-0.6308210492134094,0.13109934329986572,-0.22442643344402313,1.3724795579910278,2.04951548576355,1.7911276817321777,0.1669446974992752,0.008503299206495285,0.16677004098892212,-1.7353746891021729,-0.5524494647979736,0.2184743881225586,-0.5529072284698486,-0.6073011755943298,0.52927166223526,0.17917338013648987,0.1353304237127304,-0.012376634404063225,0.5264373421669006,0.3322049677371979,-0.18289929628372192]},"cellWriteBias":{"rows":20,"columns":1,"weights":[1.173425555229187,-5.345790863037109,5.84771728515625,4.9528326988220215,5.840939044952393,-5.71847677230835,4.448624610900879,5.440628528594971,-5.7505202293396,-4.766596794128418,4.299219608306885,-6.021788120269775,5.31144380569458,5.0638909339904785,-2.564002275466919,5.155836582183838,-4.480489730834961,4.946656703948975,5.423981189727783,-4.6602983474731445]}}],"outputConnector":{"rows":1,"columns":20,"weights":[0.2883206903934479,0.3283427059650421,-0.25629064440727234,-0.20454123616218567,-0.35962918400764465,0.4299456477165222,-0.2594490647315979,-0.2821654975414276,0.3110945224761963,0.3799239993095398,-0.31940099596977234,0.34800484776496887,-0.23956620693206787,-0.25747621059417725,-0.1957019418478012,-0.27521610260009766,0.10507118701934814,-0.3141637444496155,-0.2535683512687683,0.3451929986476898]},"output":{"rows":1,"columns":1,"weights":[2.4785401821136475]},"inputLookup":null,"inputLookupLength":0,"outputLookup":null,"outputLookupLength":0}