{"type":"LSTMTimeStep","options":{"inputSize":1,"inputRange":0,"hiddenLayers":[20],"outputSize":1,"decayRate":0.999,"smoothEps":1e-8,"regc":0.000001,"clipval":5,"maxPredictionLength":100,"dataFormatter":{"indexTable":{},"characterTable":{},"characters":[],"specialIndexes":[]}},"hiddenLayers":[{"inputMatrix":{"rows":20,"columns":1,"weights":[0.3454357385635376,0.3538568317890167,0.1495356559753418,0.33589062094688416,0.39187490940093994,0.07714269310235977,0.2220168262720108,0.2806195914745331,-0.11898936331272125,0.2049727886915207,0.25410330295562744,0.1937485933303833,0.7521752715110779,0.11721540987491608,-0.09603946655988693,0.4000893533229828,0.42339080572128296,0.1944492608308792,0.31226739287376404,0.05481256917119026]},"inputHidden":{"rows":20,"columns":20,"weights":[-0.25999149680137634,-0.38912996649742126,0.40659061074256897,0.2550307810306549,-0.11734605580568314,0.13789930939674377,0.4030841588973999,0.36460646986961365,-0.20348727703094482,0.2576100826263428,-0.4656035304069519,0.4309074878692627,-0.41619977355003357,-0.45199862122535706,-0.10661552101373672,-0.3269539475440979,0.07364016771316528,0.40120866894721985,0.3827744126319885,0.0582159124314785,-0.23577703535556793,-0.2637764513492584,0.2721802890300751,0.09776999801397324,-0.02580110728740692,0.3687857985496521,0.7824041843414307,0.6016387939453125,-0.3072017729282379,0.29307445883750916,-0.26011207699775696,0.6196054816246033,-0.5758140683174133,-0.46437370777130127,-0.31561389565467834,-0.23603782057762146,0.382447212934494,0.24666202068328857,0.2993561327457428,0.26348182559013367,-0.2325666844844818,-0.4006270468235016,0.46095961332321167,0.46628373861312866,0.6694811582565308,-0.009490648284554482,0.4151774048805237,0.3908434212207794,0.0051832920871675014,0.33735203742980957,-0.7343420386314392,0.4068395495414734,-0.3438434898853302,-0.6102715134620667,0.10740412026643753,-0.3112891614437103,0.43680045008659363,0.5357703566551208,0.27209919691085815,0.004490142688155174,-0.42753976583480835,-0.14027802646160126,0.08819642663002014,0.2766092121601105,0.21473431587219238,0.4950394928455353,0.6507843732833862,0.5457356572151184,-0.35473838448524475,0.3932124376296997,-0.41150665283203125,0.5669052600860596,-0.5623542070388794,-0.05971934646368027,-0.4966832399368286,-0.3273753821849823,0.3856481909751892,-0.08682557195425034,0.43296656012535095,0.4052378833293915,-0.4273775815963745,-0.34720128774642944,0.49457693099975586,0.3741130530834198,0.6909192800521851,0.21613605320453644,0.2988792657852173,0.3561796247959137,-0.4862924814224243,0.21829846501350403,-0.6402467489242554,0.45256108045578003,-0.3236895203590393,-0.552631139755249,-0.367383748292923,-0.41394567489624023,0.3352988660335541,0.47839805483818054,0.517012357711792,0.6059481501579285,-0.2911328375339508,-0.2966577112674713,0.7786383032798767,0.07151547819375992,0.7029070854187012,-0.013609002344310284,0.3973088264465332,0.40607231855392456,0.061363134533166885,0.363658607006073,-0.7202448844909668,0.39856085181236267,-0.22926054894924164,-0.8501440286636353,0.14761210978031158,-0.34182456135749817,0.3538835942745209,0.7777890563011169,0.35534825921058655,-0.4931026101112366,-0.31213974952697754,-0.3097977638244629,0.1964382827281952,0.3316481113433838,0.010491789318621159,-0.0213763490319252,0.36546191573143005,0.40559399127960205,-0.056282997131347656,0.26026275753974915,-0.5434660315513611,0.3976442217826843,-0.5172098875045776,-0.030960040166974068,-0.07834292203187943,-0.3917120695114136,0.28511062264442444,0.148447185754776,0.38799941539764404,0.04451657459139824,-0.4533185362815857,-0.34352147579193115,-0.29744505882263184,0.4331066310405731,0.06150360777974129,-0.042531680315732956,0.4306970238685608,0.36649054288864136,-0.16978506743907928,0.20565325021743774,-0.1493820995092392,0.4839125871658325,-0.5366641879081726,0.30263933539390564,-0.11682258546352386,-0.44854462146759033,0.40269535779953003,-0.3136792778968811,0.4369199573993683,0.07382242381572723,-0.10796891897916794,-0.18080496788024902,0.8268479108810425,0.19872194528579712,0.9017114043235779,-0.6050463914871216,0.19579468667507172,0.0968838781118393,0.3543321192264557,0.24867969751358032,-0.7265824675559998,0.1340014487504959,-0.1638438105583191,-0.8652389645576477,0.5115721821784973,-0.14605139195919037,0.19002759456634521,0.8289790153503418,0.19096416234970093,-0.6590965986251831,-0.4353181719779968,-0.45883604884147644,0.5379328727722168,0.022836318239569664,0.35208407044410706,-0.07289917021989822,0.29993537068367004,0.05379795283079147,0.1080770269036293,0.5454432368278503,-0.5011130571365356,0.4900692403316498,-0.30033618211746216,-0.5247465372085571,0.12879621982574463,-0.3705899715423584,0.042768899351358414,0.5467951893806458,0.3556523323059082,-0.12980197370052338,-0.360413521528244,-0.4138028919696808,0.5419683456420898,0.5024785995483398,0.5597853660583496,-0.04483511298894882,0.3605777323246002,0.3516238033771515,0.1388792097568512,0.29669150710105896,-0.5218848586082458,0.3812326490879059,-0.3721922039985657,-0.7504415512084961,0.0808461382985115,-0.4875965714454651,0.4494384229183197,0.39269500970840454,0.3233906626701355,0.08291703462600708,-0.41923120617866516,-0.2582677900791168,0.6598384976387024,0.2014448642730713,0.14475256204605103,-0.1724528819322586,0.33498138189315796,0.1929583102464676,0.22182127833366394,0.3684084713459015,-0.6852482557296753,0.21732386946678162,-0.21794211864471436,-0.6089062094688416,0.14426839351654053,-0.2868063449859619,0.11481761932373047,0.7077452540397644,0.3638124465942383,-0.3592084050178528,-0.2646064758300781,-0.29539161920547485,0.08282838016748428,0.1591683030128479,0.4336099922657013,0.01601647213101387,0.21280254423618317,0.08938886225223541,0.1284591406583786,0.16350241005420685,-0.07950132340192795,0.2197023183107376,0.030208513140678406,-0.09884431958198547,-0.034266963601112366,-0.20950624346733093,0.12117303907871246,0.10179022699594498,0.3601081371307373,-0.004081645514816046,-0.27923673391342163,-0.4211405813694,0.7517193555831909,0.4019685983657837,0.7920565009117126,-0.009848488494753838,0.33110782504081726,0.3588171601295471,0.1427861899137497,0.36207202076911926,-0.64143967628479,0.4080652594566345,-0.13112199306488037,-0.6332973837852478,0.09514487534761429,-0.37142226099967957,0.4253135025501251,0.5740013122558594,0.3166329860687256,-0.010825000703334808,-0.18273088335990906,-0.25049489736557007,0.9820608496665955,0.17202498018741608,0.7273539900779724,-0.49908968806266785,0.16981245577335358,0.29128625988960266,0.21520763635635376,0.28571817278862,-0.8766686320304871,0.26755136251449585,-0.26224327087402344,-0.9384087920188904,0.2681029736995697,-0.20582330226898193,0.1836419403553009,0.9723680019378662,0.2822965085506439,-0.569029688835144,-0.14644141495227814,-0.35095342993736267,0.3525099754333496,0.12048941105604172,-0.13454775512218475,0.24766090512275696,0.1875593513250351,0.023564748466014862,-0.24495132267475128,0.336626261472702,-0.2566682994365692,0.6273095011711121,-0.5332283973693848,-0.3860629200935364,-0.30645862221717834,-0.29279497265815735,0.3057980537414551,0.3146630823612213,0.22275841236114502,0.09490296989679337,-0.44920986890792847,-0.3150174021720886,-0.026334522292017937,0.3453435003757477,0.02798466756939888,0.2807408571243286,0.5242289304733276,0.3912106454372406,-0.23075325787067413,0.26636117696762085,-0.1414732187986374,0.5264835953712463,-0.4739285111427307,0.11422538757324219,-0.3324057161808014,-0.48150262236595154,0.2997259795665741,-0.17838545143604279,0.4570454955101013,0.31352120637893677,-0.3310216963291168,-0.3291347324848175,0.635661244392395,0.43416520953178406,0.7547835111618042,0.08867061883211136,0.3183002769947052,0.358224481344223,-0.04473292455077171,0.25215429067611694,-0.7759689092636108,0.29306286573410034,-0.2993873357772827,-0.6648950576782227,0.04603976383805275,-0.37496909499168396,0.445489764213562,0.5590056777000427,0.3488577902317047,0.12342391163110733,-0.1790734827518463,-0.39407452940940857,0.5100226998329163,0.19612465798854828,-0.04920918121933937,0.013774442486464977,0.2023697793483734,0.3370289206504822,-0.04528208449482918,0.17018279433250427,-0.5078012943267822,0.4008335769176483,-0.2735089659690857,-0.5308274030685425,-0.12009637802839279,-0.16651056706905365,0.19279450178146362,0.48482975363731384,0.19752316176891327,-0.0057523720897734165,-0.4137680232524872,-0.3728002607822418,0.5161950588226318,0.23491932451725006,0.8477228879928589,-0.06228325888514519,0.38187533617019653,0.3603517413139343,-0.04198971390724182,0.3783247172832489,-0.5977441668510437,0.3832731246948242,-0.24955841898918152,-0.6198780536651611,0.19334857165813446,-0.29653915762901306,0.10789499431848526,0.4551023840904236,0.3672414720058441,-0.20853622257709503]},"inputBias":{"rows":20,"columns":1,"weights":[0.14010822772979736,0.25632768869400024,-0.26861101388931274,-0.1520605981349945,0.6625350117683411,-0.1529630422592163,-0.23303553462028503,-0.07074131816625595,0.16372627019882202,-0.01899160072207451,-0.01528175175189972,-0.1504446268081665,-0.3556634485721588,-0.05907412990927696,-0.12188194692134857,0.19555360078811646,-0.1863284707069397,-0.16731563210487366,0.15187449753284454,-0.15740999579429626]},"forgetMatrix":{"rows":20,"columns":1,"weights":[0.19796685874462128,0.13092127442359924,0.05117657035589218,0.462990939617157,0.14232689142227173,0.3084213137626648,0.21328748762607574,0.1784237176179886,0.3089340627193451,0.07717745006084442,-0.015836382284760475,0.11143098771572113,-0.00690716877579689,0.023890094831585884,0.23150964081287384,0.18844251334667206,0.5093599557876587,-0.0338953398168087,0.10853452980518341,0.04394952207803726]},"forgetHidden":{"rows":20,"columns":20,"weights":[-0.25925159454345703,-0.31857335567474365,0.5498579144477844,0.00022114811872597784,-0.2224055975675583,-0.13452871143817902,0.26160991191864014,0.20262554287910461,0.07359902560710907,0.3423604369163513,-0.5910606980323792,0.4002613425254822,-0.48973575234413147,-0.41878634691238403,0.05723511800169945,-0.24355380237102509,0.0871337279677391,0.3493591547012329,0.17954467236995697,-0.08543182909488678,-0.29592499136924744,-0.42786601185798645,0.6399982571601868,0.22161933779716492,0.23482127487659454,0.05421527102589607,0.3337315022945404,0.4560048282146454,-0.0017088986933231354,0.47254326939582825,-0.7732273936271667,0.3399147093296051,-0.5299395322799683,-0.6747846007347107,0.007276464719325304,-0.33351370692253113,0.2659827470779419,0.6672874093055725,0.4082297682762146,-0.08304616063833237,-0.6132078766822815,-0.29165446758270264,0.32739004492759705,0.4240812361240387,0.7126114964485168,0.251915842294693,0.43066921830177307,0.44899246096611023,-0.34104979038238525,0.46465009450912476,-0.46581119298934937,0.47250065207481384,-0.5500628352165222,-0.44152697920799255,-0.43778324127197266,-0.4334816336631775,0.49226030707359314,0.7630048394203186,0.5660498142242432,0.37707972526550293,0.2352113276720047,-0.10305599123239517,0.5970920324325562,0.2727733254432678,0.35210880637168884,-0.099375881254673,-0.010400126688182354,0.043209195137023926,0.054245829582214355,-0.30869632959365845,-0.8315017819404602,0.07857222110033035,-0.07604853063821793,-0.3927058279514313,0.037491440773010254,0.029078766703605652,0.07877076417207718,0.36997419595718384,-0.11990013718605042,-0.09277595579624176,-0.5266600847244263,-0.2938292920589447,0.372675359249115,0.2996508479118347,0.4673454463481903,0.21504737436771393,0.40875154733657837,0.33941417932510376,-0.14945778250694275,0.4147098660469055,-0.3277471661567688,0.4418422281742096,-0.43291768431663513,-0.5958665609359741,-0.24704669415950775,-0.45949628949165344,0.3981425166130066,0.3924373388290405,0.5615019798278809,0.0739777609705925,-0.08190663903951645,-0.17853407561779022,0.4149631857872009,0.5723326802253723,0.4454822242259979,-0.2188173532485962,0.05413513258099556,0.22629882395267487,0.2547096610069275,0.11622865498065948,-0.32820767164230347,0.06625063717365265,-0.070928193628788,-0.6211293935775757,0.2694506049156189,-0.20596539974212646,0.0544520765542984,0.3791860044002533,0.20038330554962158,-0.42036789655685425,-0.38863855600357056,-0.25909188389778137,0.41454190015792847,0.28746020793914795,-0.21663396060466766,0.1451636552810669,0.49552980065345764,0.4945104420185089,-0.014554355293512344,0.32623034715652466,-0.47190284729003906,0.64603191614151,-0.6570885181427002,-0.3233833611011505,-0.05909675732254982,-0.319151908159256,0.33751943707466125,0.34999504685401917,0.38968464732170105,0.1854625940322876,-0.5751653909683228,-0.4599994421005249,0.1974038928747177,0.47529083490371704,-0.08468978852033615,-0.026165427640080452,0.45249688625335693,0.3621113896369934,0.0023288587108254433,0.33868563175201416,-0.4991784989833832,0.5453413128852844,-0.6363055109977722,-0.12367519736289978,-0.00970358308404684,-0.4058700501918793,0.46116161346435547,-0.004611770156770945,0.33848705887794495,0.008290116675198078,0.15367722511291504,-0.10047584027051926,0.5421911478042603,0.153034046292305,0.5035913586616516,-0.5097792744636536,0.018970578908920288,-0.04516317695379257,0.4083651006221771,-0.06885820627212524,-0.3931869864463806,-0.3326607048511505,0.01626799814403057,-0.443813294172287,0.4040851294994354,-0.06437831372022629,0.07934137433767319,0.5712807178497314,-0.08076434582471848,-0.5776441693305969,-0.48386314511299133,-0.3411576449871063,0.6911847591400146,0.01946098916232586,0.5397757291793823,-0.12953534722328186,0.27316567301750183,0.321672260761261,0.16221019625663757,0.6834412813186646,-0.7664997577667236,0.4160505533218384,-0.4367983639240265,-0.7701922655105591,0.19927266240119934,-0.5285049080848694,0.14306893944740295,0.5852910876274109,0.4900883734226227,-0.24233943223953247,-0.535522997379303,-0.3053078353404999,0.7763829827308655,0.49697795510292053,0.6085414290428162,0.1997590810060501,0.5049907565116882,0.34385472536087036,-0.30034139752388,0.46461719274520874,-0.29520031809806824,0.5621024370193481,-0.4678220748901367,-0.4353938400745392,-0.38993558287620544,-0.44259700179100037,0.3685849905014038,0.8089171051979065,0.5188766717910767,0.33100149035453796,-0.5578627586364746,-0.38628026843070984,0.7682775259017944,0.0937759056687355,0.35766100883483887,-0.2627143859863281,0.3388293981552124,0.2667925953865051,0.27619168162345886,0.5643591284751892,-0.6324586868286133,0.1503782868385315,-0.2904106676578522,-0.5454558730125427,0.21120019257068634,-0.4014590084552765,0.26375913619995117,0.608227550983429,0.41403067111968994,-0.3514447510242462,-0.5676641464233398,-0.471450537443161,0.9668402671813965,0.13508976995944977,0.841097891330719,-0.16923914849758148,0.4470895230770111,0.3479766547679901,0.1728692501783371,0.41469520330429077,-0.9033515453338623,-0.008373402990400791,-0.22297534346580505,-0.7561119198799133,0.12394789606332779,-0.40850454568862915,0.39782217144966125,0.8909156322479248,0.39780426025390625,-0.30782240629196167,-0.47284311056137085,-0.3134428560733795,0.7324382066726685,0.4356575608253479,0.4973968267440796,0.16519638895988464,0.41882961988449097,0.37363407015800476,-0.27512219548225403,0.4664389491081238,-0.4979175925254822,0.5050128698348999,-0.4530317783355713,-0.3810388743877411,-0.32162898778915405,-0.5046041011810303,0.47180211544036865,0.616689920425415,0.5581935048103333,0.33546778559684753,-0.12782326340675354,-0.14255057275295258,0.5506799221038818,0.6038906574249268,0.439181923866272,-0.7133139967918396,0.07835760712623596,0.2696353495121002,-0.10187764465808868,0.11893321573734283,-0.5501489639282227,0.032754164189100266,-0.023327089846134186,-0.7226752638816833,0.16578629612922668,-0.14840556681156158,0.3456230163574219,0.6502736210823059,0.15957430005073547,-0.3963261544704437,-0.22206337749958038,-0.33159101009368896,0.6528805494308472,0.19465136528015137,0.1339874416589737,-0.04838649556040764,0.36099323630332947,0.3589910566806793,0.061823293566703796,0.27022355794906616,-0.6671224236488342,0.3260384798049927,-0.30081284046173096,-0.7974429726600647,-0.0009611960267648101,-0.18464185297489166,0.27662211656570435,0.720238447189331,0.17779456079006195,-0.10141316801309586,-0.5757627487182617,-0.34402433037757874,-0.15028509497642517,0.3489057719707489,-0.11742938309907913,0.16466596722602844,0.5738864541053772,0.5206043720245361,-0.21372567117214203,0.4080978035926819,-0.21856707334518433,0.47858062386512756,-0.4866621196269989,0.09047520160675049,-0.1503675878047943,-0.4664815068244934,0.33781710267066956,-0.2000202238559723,0.4168725311756134,0.13480085134506226,-0.6332359313964844,-0.6217211484909058,0.5027185678482056,0.4801349341869354,1.1717445850372314,0.14188309013843536,0.5452351570129395,0.5467754006385803,-0.25234103202819824,0.4966316521167755,-0.4748871922492981,0.39728444814682007,-0.5682648420333862,-0.526745617389679,-0.39463168382644653,-0.4802049696445465,0.4192131459712982,0.46851682662963867,0.5927554368972778,0.4362388551235199,-0.30768823623657227,-0.20304399728775024,0.7896343469619751,0.03745885565876961,0.10159818083047867,0.030811266973614693,0.2472464144229889,0.29672306776046753,0.013739204034209251,0.27170130610466003,-0.8128871917724609,0.31077006459236145,-0.4086360037326813,-0.5714375972747803,0.005841641686856747,-0.22679603099822998,0.19598090648651123,0.677344799041748,0.2994420528411865,-0.0927746370434761,-0.13303543627262115,-0.2800297439098358,0.5585972666740417,0.3353276550769806,0.5861047506332397,-0.7800655364990234,0.18990886211395264,0.1292470246553421,0.08016897737979889,0.1426432728767395,-0.4992068111896515,0.09740068018436432,-0.02375267632305622,-0.6434795260429382,0.591900110244751,-0.15371188521385193,0.25524136424064636,0.43649160861968994,0.15768706798553467,-0.5298466086387634]},"forgetBias":{"rows":20,"columns":1,"weights":[0,0,0,0,0,0,0,0,0,0,0,0,0,0,0,0,0,0,0,0]},"outputMatrix":{"rows":20,"columns":1,"weights":[0.1882854700088501,0.37277159094810486,0.2261199951171875,0.25752487778663635,0.4141800105571747,0.2385871708393097,0.33418312668800354,0.24339601397514343,0.044407233595848083,0.3708270788192749,0.15979664027690887,0.09650101512670517,0.4205623269081116,0.21414759755134583,-0.08353127539157867,0.09776244312524796,0.27173200249671936,0.1423141360282898,0.17155151069164276,0.13705292344093323]},"outputHidden":{"rows":20,"columns":20,"weights":[-0.2960243821144104,-0.3840615749359131,0.7718207836151123,0.28184396028518677,0.10508306324481964,0.038156598806381226,0.45079314708709717,0.3196567893028259,-0.0566670224070549,0.3173862397670746,-0.7233259677886963,0.4570203125476837,-0.4528094530105591,-0.7926399111747742,-0.176397442817688,-0.4089858829975128,0.4081532061100006,0.7174124717712402,0.42368826270103455,0.0025434994604438543,-0.43063974380493164,-0.28597649931907654,0.46581268310546875,0.13990341126918793,0.0521378219127655,0.2200206071138382,0.5758498311042786,0.5031951069831848,-0.10039673000574112,0.40712931752204895,-0.5856966376304626,0.4815162420272827,-0.5478861331939697,-0.49660542607307434,-0.140200674533844,-0.2675093710422516,0.4501578211784363,0.39916902780532837,0.4137459099292755,0.09715055674314499,-0.5301336646080017,-0.4212932586669922,0.6805104613304138,0.5860614776611328,0.8434427976608276,-0.03716173395514488,0.47898122668266296,0.39156433939933777,-0.00036645770887844265,0.4521080255508423,-0.8109644651412964,0.37928637862205505,-0.27889543771743774,-0.5727738738059998,0.05564239248633385,-0.5133338570594788,0.44207125902175903,0.7811190485954285,0.4535234868526459,0.18749460577964783,-0.17487792670726776,-0.23044312000274658,0.8708240389823914,0.2328900694847107,0.6699268817901611,-0.06383172422647476,0.28417229652404785,0.27775830030441284,0.016178444027900696,0.041378460824489594,-0.585514485836029,0.2598741054534912,-0.20109538733959198,-0.8126134276390076,-0.028384672477841377,-0.2564065158367157,0.11966592073440552,1.0906505584716797,0.25041452050209045,-0.030035585165023804,-0.5199920535087585,-0.4931887090206146,0.6053910255432129,0.4060830771923065,0.9038012623786926,0.10890266299247742,0.4285387396812439,0.4641989469528198,-0.14118559658527374,0.43481284379959106,-0.6942103505134583,0.4223823845386505,-0.3606302738189697,-0.5484690070152283,-0.08869564533233643,-0.5405524373054504,0.47589969635009766,0.6088521480560303,0.5544282793998718,0.26880258321762085,-0.1916321963071823,-0.27099883556365967,0.6068766117095947,0.8082437515258789,0.7510328888893127,-0.30554822087287903,0.2301403284072876,0.28697091341018677,0.28859949111938477,0.2121175229549408,-0.7060027718544006,0.20993085205554962,-0.20365509390830994,-0.6949886679649353,0.42157766222953796,-0.24188987910747528,0.13973386585712433,0.6876307129859924,0.2796812951564789,-0.6336216330528259,-0.41914278268814087,-0.3539528548717499,0.44026416540145874,0.38608765602111816,0.11998681724071503,0.11278866976499557,0.4301379323005676,0.383210688829422,-0.016883589327335358,0.32527920603752136,-0.5256081223487854,0.4854698181152344,-0.4430145025253296,-0.38014286756515503,-0.18330615758895874,-0.43085888028144836,0.40251487493515015,0.3344675600528717,0.43425363302230835,0.014551585540175438,-0.40759986639022827,-0.31233078241348267,0.5231618285179138,0.35618293285369873,0.2506721317768097,0.032677505165338516,0.46616074442863464,0.3985922634601593,-0.061836302280426025,0.2612331807613373,-0.6461565494537354,0.41433876752853394,-0.4496297836303711,-0.4013940691947937,-0.15060576796531677,-0.42590782046318054,0.4203176200389862,0.39532142877578735,0.3743492364883423,-0.06487057358026505,-0.14609010517597198,-0.2386055439710617,0.7762881517410278,0.4269273281097412,0.7905641198158264,-0.6948555707931519,0.18763665854930878,0.24396148324012756,0.5878255367279053,0.16462039947509766,-0.7548980712890625,0.11888441443443298,-0.14189456403255463,-0.8790690302848816,0.643297016620636,-0.11364778131246567,0.32528990507125854,0.814197301864624,0.1859990656375885,-0.75371253490448,-0.2600957155227661,-0.37513840198516846,0.497302770614624,0.10650348663330078,0.20690129697322845,0.2331341952085495,0.2576504647731781,0.20646549761295319,-0.08913648128509521,0.46728160977363586,-0.527389407157898,0.40742114186286926,-0.4089076519012451,-0.5911295413970947,-0.11936856806278229,-0.2930120825767517,0.17982117831707,0.26038217544555664,0.3630008399486542,0.14655111730098724,-0.33035415410995483,-0.4193098247051239,0.960945188999176,0.4100584387779236,0.8817879557609558,-0.06112686172127724,0.3182919919490814,0.37349361181259155,-0.06718320399522781,0.41373032331466675,-0.5092138648033142,0.490696519613266,-0.36151745915412903,-0.7670873999595642,0.02908179722726345,-0.38453397154808044,0.4520108103752136,0.9661560654640198,0.4586368501186371,0.18487510085105896,-0.3907119333744049,-0.2933746576309204,1.0782629251480103,0.29275307059288025,0.31115269660949707,-0.1431168019771576,0.4559614062309265,0.3893376886844635,0.17500193417072296,0.4365549087524414,-0.8353825211524963,0.40529346466064453,-0.26026999950408936,-1.0440291166305542,0.1245931088924408,-0.3956274390220642,0.35331425070762634,0.9352425336837769,0.45769912004470825,-0.2836909592151642,-0.2676581144332886,-0.24885210394859314,0.4013808071613312,0.26437389850616455,0.5376710295677185,0.059161752462387085,0.24150100350379944,0.0849011093378067,0.03835691511631012,0.2910141348838806,-0.5410485863685608,0.35094714164733887,-0.39567357301712036,-0.387346088886261,-0.06992822140455246,-0.3572210371494293,0.2141953706741333,0.4088078439235687,0.3016813397407532,0.03461458534002304,-0.4247637093067169,-0.4131896495819092,0.833194375038147,0.44948044419288635,0.7056816220283508,0.03639757260680199,0.3640911877155304,0.37128835916519165,-0.1062377467751503,0.30728787183761597,-0.6307511329650879,0.5545759201049805,-0.31450825929641724,-0.6518101096153259,-0.04032278433442116,-0.4811900556087494,0.4934752285480499,0.9067171812057495,0.5160157680511475,0.13999013602733612,-0.3299599289894104,-0.2802949547767639,1.188123106956482,0.49348363280296326,0.7976822853088379,-0.5011022090911865,0.2161070555448532,0.2430584877729416,0.45266029238700867,0.23801495134830475,-1.0861854553222656,0.35672131180763245,-0.21665312349796295,-1.0668846368789673,0.5124744772911072,-0.21297913789749146,0.2191002368927002,1.0510467290878296,0.32430848479270935,-0.7946320176124573,-0.4136424660682678,-0.38464418053627014,0.9703090190887451,0.36582690477371216,0.2360406219959259,0.24022887647151947,0.4064147472381592,0.3775051534175873,-0.1509609818458557,0.43496042490005493,-0.6791741251945496,0.4499168395996094,-0.39403438568115234,-0.9376766681671143,-0.10654141753911972,-0.40814951062202454,0.35592392086982727,0.9129717350006104,0.3713577389717102,0.14541344344615936,-0.488014817237854,-0.3179471790790558,0.5487776398658752,0.295685738325119,0.5084923505783081,0.0778801366686821,0.3831862211227417,0.3034888207912445,-0.004102049861103296,0.39985382556915283,-0.6519703269004822,0.4921647608280182,-0.5474794507026672,-0.5269448757171631,-0.15697365999221802,-0.33531299233436584,0.2870035469532013,0.43618303537368774,0.3557836413383484,0.037355631589889526,-0.4111526310443878,-0.45964425802230835,0.7353824973106384,0.47215497493743896,1.0231565237045288,-0.08213666081428528,0.37418827414512634,0.46483132243156433,0.05505843460559845,0.4347405731678009,-0.7521604895591736,0.38710299134254456,-0.5244928002357483,-0.6475827693939209,0.09441832453012466,-0.5326416492462158,0.40893837809562683,0.7106207609176636,0.3861912786960602,0.00868253130465746,-0.2570199966430664,-0.3812899887561798,0.8256005644798279,0.2773728370666504,0.18433719873428345,0.04435963183641434,0.39144453406333923,0.377031147480011,-0.057639431208372116,0.36340248584747314,-0.7315124273300171,0.46314194798469543,-0.416751891374588,-0.8520605564117432,-0.18892990052700043,-0.2776431739330292,0.2646711468696594,0.7175281047821045,0.3801581561565399,0.07288168370723724,-0.25727578997612,-0.3083190619945526,0.5154624581336975,0.47143903374671936,1.0050781965255737,-0.5364047884941101,0.1941017061471939,0.33858636021614075,0.28892913460731506,0.31102442741394043,-0.5393982529640198,0.20340386033058167,-0.09775903075933456,-0.6771329045295715,0.6496089100837708,-0.28385284543037415,0.3388962149620056,0.6176517009735107,0.24186554551124573,-0.5691300630569458]},"outputBias":{"rows":20,"columns":1,"weights":[0.1718955636024475,0.28332072496414185,-0.2712705135345459,-0.1310465782880783,0.6481469869613647,-0.1419004499912262,-0.21910282969474792,-0.04866771399974823,0.16301923990249634,-0.006164902355521917,-0.012505327351391315,-0.13569854199886322,-0.34248846769332886,-0.05184461548924446,-0.12614776194095612,0.2199394404888153,-0.16500826179981232,-0.15979018807411194,0.1745428442955017,-0.1546746790409088]},"cellActivationMatrix":{"rows":20,"columns":1,"weights":[-0.1778220534324646,-0.09591887891292572,-0.09582357853651047,0.11789487302303314,-0.0819055512547493,-0.12443811446428299,0.1562097817659378,0.12994767725467682,-0.008872454054653645,0.13117347657680511,-0.025997985154390335,0.2400173842906952,-0.32560959458351135,0.040996868163347244,0.0662594810128212,-0.14317108690738678,0.07289430499076843,-0.1336812674999237,0.1959277093410492,0.11106050759553909]},"cellActivationHidden":{"rows":20,"columns":20,"weights":[0.17432470619678497,-0.01362739596515894,0.28682026267051697,-0.519860565662384,0.45949476957321167,0.027366314083337784,-0.49155208468437195,-0.6185391545295715,0.11913111060857773,-0.27664709091186523,-0.2167007476091385,-0.4841221272945404,1.2283886671066284,-0.3158986568450928,0.05706033110618591,0.21240130066871643,-0.41413795948028564,0.2485208511352539,-0.14634090662002563,-0.1871534138917923,0.23287248611450195,-0.037558186799287796,0.17832237482070923,-0.7115715742111206,0.42350414395332336,0.025532176718115807,-0.842890202999115,-0.8778501749038696,-0.06224697828292847,-0.2939263880252838,-0.15274213254451752,-0.44109588861465454,0.9984264373779297,-0.114091657102108,0.013181771151721478,0.269676148891449,-0.6625792384147644,0.1114472895860672,-0.26255515217781067,-0.055350564420223236,-0.8121176958084106,-0.696930468082428,0.3711063265800476,0.6188836097717285,0.019500648602843285,-0.14093638956546783,0.5833150744438171,0.4833240211009979,0.1941085308790207,0.9731054306030273,-0.43144193291664124,0.6754967570304871,-0.8212945461273193,-0.3483300507068634,0.29499346017837524,-0.7482706308364868,0.6447073221206665,0.44525638222694397,0.7829568982124329,-0.29873380064964294,-0.18628865480422974,-0.15147289633750916,0.08508571237325668,0.540488064289093,-0.21113280951976776,-0.016083305701613426,0.5177912712097168,0.5740759968757629,0.0032945265993475914,0.2041569948196411,-0.1554625928401947,0.43048667907714844,-0.4747031033039093,-0.1249196007847786,0.036747392266988754,-0.3196154832839966,0.4178347885608673,-0.02124216966331005,0.20769855380058289,0.31534287333488464,-1.0308579206466675,-0.831060528755188,0.4567466080188751,0.2046530842781067,0.016706101596355438,0.060403838753700256,0.5292618274688721,0.14899279177188873,-0.02046484686434269,0.7685428261756897,-0.6541995406150818,0.8858609795570374,-1.1597141027450562,-0.41633936762809753,0.09783296287059784,-0.7388846278190613,0.32618024945259094,0.4181954264640808,0.9526809453964233,-0.27709612250328064,0.09412549436092377,0.27890539169311523,-0.4644957184791565,-0.5923705697059631,-0.4373936951160431,-0.08556478470563889,-0.28157779574394226,-0.4428679645061493,0.265057235956192,-0.056696146726608276,0.5562658905982971,-0.06345334649085999,0.3222048282623291,0.5165769457817078,0.10342886298894882,0.16419465839862823,-0.3843912184238434,-0.5041766166687012,-0.1268555074930191,-0.09375128895044327,-0.20489324629306793,-0.31889545917510986,-0.3376816213130951,0.6170403957366943,-0.24865324795246124,-0.05531943216919899,0.4094702899456024,0.5305644273757935,-0.0945526733994484,0.17961619794368744,0.37108612060546875,0.3626050353050232,-0.4902695417404175,0.24659854173660278,-0.1586465835571289,-0.32915765047073364,0.5226195454597473,-0.3765724301338196,0.40375763177871704,0.19791555404663086,-0.3241473436355591,-0.3319080173969269,-0.39167720079421997,0.7313418984413147,-0.08121175318956375,-0.045684050768613815,0.37165942788124084,0.526781439781189,-0.13324221968650818,0.06978517770767212,0.3030500113964081,0.3688744008541107,-0.5064048767089844,0.31285929679870605,-0.15526717901229858,-0.37626710534095764,0.4693353474140167,-0.4184909462928772,0.2841814458370209,0.21647897362709045,-0.20220468938350677,-0.2316821664571762,0.6080626249313354,0.7652222514152527,0.300516277551651,-0.10839417576789856,0.3520975708961487,0.4547412097454071,-0.2844838500022888,0.05868054926395416,-0.6996981501579285,0.0984312891960144,-0.4025096595287323,-0.6823042631149292,0.1719626486301422,-0.29739174246788025,0.17889972031116486,0.6020253896713257,0.24312350153923035,0.22354480624198914,-0.10533740371465683,-0.02385733835399151,-0.2377920299768448,0.6225757002830505,-0.5935004949569702,0.11256355792284012,0.6265532970428467,0.7631860971450806,-0.23141995072364807,0.3190391957759857,0.15934976935386658,0.425905704498291,-0.885405957698822,0.10325320065021515,-0.1537550389766693,-0.15744741261005402,0.5786278247833252,-0.10794971883296967,0.12347789853811264,0.11911747604608536,0.5485071539878845,0.41733402013778687,-0.05991184338927269,-0.38032805919647217,-0.04852428659796715,0.1175193041563034,-0.47842949628829956,-0.5015016198158264,-0.187007337808609,-0.5657709240913391,0.26998171210289,-0.4968084990978241,0.5230838060379028,0.06546950340270996,-0.23891910910606384,0.44554445147514343,-0.3296680450439453,-0.1315898448228836,-0.5921930074691772,0.13552097976207733,-0.1605571210384369,-0.14175157248973846,-0.39196377992630005,0.5002559423446655,-0.47182273864746094,0.04126003012061119,0.3276587128639221,0.4633663594722748,-0.3560110926628113,0.13590838015079498,0.28973013162612915,0.3103438913822174,-0.9131790995597839,0.27955901622772217,-0.20519770681858063,-0.12985765933990479,0.4494422376155853,-0.2282828837633133,0.12544755637645721,0.20041726529598236,-0.13395553827285767,-0.13973280787467957,0.35210010409355164,-0.4740523397922516,0.6289854645729065,-0.25395482778549194,-0.3628382086753845,-0.6056687235832214,0.06069443002343178,-0.05526460334658623,-0.26619842648506165,0.07972939312458038,0.3511825501918793,-0.17720471322536469,0.2770465016365051,0.009930560365319252,-0.418212890625,0.32772096991539,0.05444398522377014,-0.05509496480226517,0.6990908980369568,0.7978581786155701,-0.30853500962257385,-0.6780047416687012,0.00785056035965681,0.20087502896785736,-0.569970965385437,-0.4599924087524414,-0.1645444631576538,-0.7587562203407288,0.39642298221588135,-0.5920175909996033,0.6683081388473511,0.25729110836982727,-0.2768809199333191,0.6897689700126648,-0.7823548913002014,-0.2879670560359955,-0.5720221996307373,0.20962786674499512,-0.093836210668087,-0.4909505248069763,0.6062086224555969,0.6436982154846191,0.37364742159843445,-0.012351379729807377,0.2864415943622589,0.30675116181373596,-0.2823392450809479,0.10791154205799103,-0.6137558221817017,0.08771508932113647,-0.23680196702480316,-0.5601401925086975,-0.1185971051454544,-0.31340017914772034,0.3144942820072174,0.6559627056121826,0.14678195118904114,0.11338040977716446,0.3116334080696106,0.0034476483706384897,0.23853759467601776,-0.5386749505996704,0.4255581498146057,0.0037280400283634663,-0.7791929841041565,-0.8118289113044739,0.06419495493173599,-0.4183442294597626,-0.27619844675064087,-0.3849529027938843,0.7676544785499573,-0.20050542056560516,0.03767726570367813,0.21810775995254517,-0.5820555090904236,0.28449878096580505,-0.20150169730186462,-0.05226139351725578,-0.07374788820743561,-0.15538761019706726,-0.2571752369403839,0.7677604556083679,-0.5559098124504089,-0.023064682260155678,0.717384397983551,0.8596986532211304,-0.288327157497406,0.24221356213092804,0.13428673148155212,0.4690926671028137,-0.8616805672645569,0.09354671090841293,-0.25683626532554626,-0.2359449714422226,0.6577737927436829,-0.12073437124490738,0.14633162319660187,0.39068806171417236,-0.8374707102775574,-0.7327646613121033,0.49921301007270813,0.7541612982749939,0.20816943049430847,-0.14877396821975708,0.7133612036705017,0.6461151838302612,0.2285079061985016,0.7808935046195984,-0.4335653781890869,0.7439255714416504,-0.8910542130470276,-0.30625760555267334,0.3369741439819336,-0.7887309193611145,0.8589744567871094,0.38307327032089233,0.6814894676208496,-0.32080748677253723,-0.16290149092674255,-0.201396644115448,-0.2292240411043167,0.44768020510673523,-0.3639218211174011,0.06733390688896179,0.48441368341445923,0.6207984685897827,-0.061116866767406464,0.196970134973526,0.243815615773201,0.15956978499889374,-0.6142196655273438,0.21951571106910706,-0.16111384332180023,-0.19273391366004944,0.5100756287574768,-0.18130241334438324,0.1536153107881546,0.11183597892522812,0.22378934919834137,0.37771934270858765,-0.6605953574180603,-0.37059614062309265,-0.30447641015052795,-0.04174899682402611,-0.09281671792268753,-0.10586529970169067,0.32384416460990906,-0.27568888664245605,0.540949821472168,-0.19093692302703857,0.5148251056671143,0.6225026845932007,0.08889084309339523,0.3393774926662445,-0.12296140938997269,-0.7104405164718628,-0.2086782157421112,-0.08602987229824066]},"cellActivationBias":{"rows":20,"columns":1,"weights":[-0.05595020204782486,-0.23580515384674072,0.32217323780059814,-0.00170644570607692,0.8695321679115295,-0.2798466086387634,-0.2025323063135147,-0.20751307904720306,0.5690186023712158,0.012316212058067322,-0.19589565694332123,-0.11199037730693817,0.40468308329582214,-0.2113175392150879,0.4503089487552643,-0.08018424361944199,0.03658746927976608,0.30993103981018066,-0.002754576737061143,-0.5871899127960205]}}],"outputConnector":{"rows":1,"columns":20,"weights":[-0.5855575203895569,-0.22782403230667114,0.03221443295478821,0.5985324382781982,0.07216720283031464,-0.6384612917900085,0.2303076982498169,0.2733447849750519,0.647513210773468,0.04519803449511528,-0.09930959343910217,0.5698552131652832,-0.48879000544548035,-0.045946795493364334,0.5673359632492065,-0.04976744204759598,0.3280526399612427,-0.002045881934463978,0.0761268138885498,-0.6000357866287231]},"output":{"rows":1,"columns":1,"weights":[0.8713693022727966]},"inputLookup":null,"inputLookupLength":0,"outputLookup":null,"outputLookupLength":0}