{"type":"GRUTimeStep","options":{"inputSize":1,"inputRange":0,"hiddenLayers":[20],"outputSize":1,"decayRate":0.999,"smoothEps":1e-8,"regc":0.000001,"clipval":5,"maxPredictionLength":100,"dataFormatter":{"indexTable":{},"characterTable":{},"characters":[],"specialIndexes":[]}},"hiddenLayers":[{"updateGateInputMatrix":{"rows":20,"columns":1,"weights":[2.2632272243499756,1.0955244302749634,0.5684098601341248,1.1695895195007324,0.5509240031242371,1.2636175155639648,1.0018857717514038,0.6685563325881958,0.5362587571144104,1.0898786783218384,1.527710199356079,1.498235821723938,0.5957953929901123,1.1865627765655518,1.0745548009872437,1.2328985929489136,0.8162716031074524,1.2325546741485596,0.5164705514907837,1.2825766801834106]},"updateGateHiddenMatrix":{"rows":20,"columns":20,"weights":[0.5802664756774902,0.5147953033447266,-0.47135865688323975,-0.3103722333908081,-0.38510504364967346,0.24454449117183685,-0.8648916482925415,-0.007317424286156893,0.14120176434516907,-0.46729183197021484,-1.2974005937576294,0.2183275669813156,-0.34951382875442505,-0.877054750919342,-0.23872573673725128,-0.08291368186473846,0.3814370334148407,-0.48444536328315735,-0.1024802029132843,0.382597953081131,0.6005680561065674,0.48912978172302246,-0.9247764348983765,-0.41146761178970337,-0.8783965110778809,0.5988596081733704,-0.592820942401886,-0.24143408238887787,0.735104501247406,0.22225601971149445,-0.46352168917655945,0.335102379322052,-0.8472171425819397,-0.5971211791038513,-0.19048704206943512,-0.3712649941444397,0.14594785869121552,-0.2631736099720001,-1.354288935661316,0.536565363407135,0.1592380851507187,0.2943081259727478,-1.0196280479431152,-0.42879822850227356,-1.104295015335083,0.22886495292186737,-0.25678256154060364,-0.698735237121582,1.0137667655944824,0.7379896640777588,-0.38025540113449097,0.18608489632606506,-0.42281991243362427,-0.2102164775133133,0.8432770371437073,-0.721133828163147,0.28112608194351196,-0.2536036968231201,-0.5732579827308655,0.26371392607688904,0.7109453678131104,0.13495025038719177,-0.6331452131271362,-0.20094531774520874,-0.4593964219093323,0.459987610578537,-0.2334751933813095,-0.1351916342973709,0.4661162197589874,-0.20543155074119568,-0.42571118474006653,0.4857412278652191,-0.2867348790168762,-0.38477611541748047,-0.4729892909526825,-0.37967634201049805,0.3191215693950653,-0.794451892375946,-0.43156754970550537,0.20378948748111725,0.3311557173728943,0.5249136686325073,-1.1824346780776978,-0.46082615852355957,-1.2003912925720215,0.3387673795223236,-0.31283727288246155,-0.9735861420631409,1.1653717756271362,0.6829017400741577,-0.2503288984298706,0.3855004906654358,-0.594792902469635,-0.2797159254550934,0.5969552397727966,-0.8857106566429138,0.22203321754932404,-0.48523446917533875,-0.7176615595817566,0.34912943840026855,0.9120568037033081,0.6346932053565979,-0.5642151832580566,-0.18301011621952057,-0.6355100274085999,0.9213773608207703,-0.4978618323802948,-0.15079642832279205,0.5859920382499695,0.4866120517253876,-0.6241729259490967,0.7092236280441284,-0.4342232346534729,-0.6452150344848633,-0.3825613856315613,-0.33243611454963684,0.4145975112915039,-0.6422522664070129,-0.4849761128425598,0.6438421010971069,0.4335309863090515,0.426700621843338,-0.6249313950538635,-0.36618509888648987,-0.5835418701171875,0.39690864086151123,-0.48423752188682556,-0.050626564770936966,0.3708011507987976,0.2854233682155609,-0.7576544284820557,0.4244104027748108,-0.3401450514793396,-0.6973984241485596,0.31563135981559753,-0.12538819015026093,0.5697451233863831,-0.47788453102111816,-0.2660219073295593,0.3178190588951111,0.12156762927770615,0.29176217317581177,-0.8735167384147644,-0.3964875638484955,-0.9500911831855774,0.5325590968132019,-0.3457024097442627,-0.9498955011367798,0.9205771088600159,0.45421072840690613,-0.22364875674247742,0.2660946547985077,-0.6530989408493042,-0.3004876375198364,0.4055667519569397,-0.5666863322257996,0.1725119650363922,-0.47330009937286377,-0.7399044632911682,0.30762535333633423,0.43647995591163635,0.6670536398887634,-1.1710058450698853,-0.5985736846923828,-1.1307086944580078,0.5265203714370728,-0.45947957038879395,-1.0262434482574463,1.07927405834198,0.7281191945075989,-0.31763967871665955,0.39681732654571533,-0.7053911685943604,-0.39764511585235596,0.5988351106643677,-1.0291728973388672,0.18451713025569916,-0.6214633584022522,-0.6231908202171326,0.4086349606513977,0.3655978739261627,0.9813483357429504,-0.8927131295204163,-0.3985667824745178,-0.7761636972427368,0.43969812989234924,-0.7607948780059814,-0.8686582446098328,0.6381503343582153,0.8233901858329773,-0.5430245995521545,0.6029852032661438,-0.1183319166302681,-0.4008208215236664,0.8908514976501465,-0.7250449061393738,0.5881450772285461,-0.714046061038971,-0.1736900955438614,0.6477782726287842,0.40034568309783936,0.46538421511650085,-0.618887186050415,-0.3036433160305023,-0.648172914981842,0.37488269805908203,-0.5663319230079651,0.08904373645782471,0.5545114874839783,-0.005258763208985329,-0.245376318693161,0.3815320134162903,-0.33070287108421326,-0.5914198756217957,0.21647748351097107,0.08414392918348312,0.32927802205085754,-0.4148036241531372,-0.3288189172744751,0.4121246039867401,0.8166467547416687,0.3009715974330902,-0.6040921211242676,-0.33107990026474,-0.6871883273124695,0.7652912139892578,-0.9324895143508911,-0.12252543121576309,0.818848192691803,0.3182114362716675,-0.504763662815094,0.22949305176734924,-0.7250913977622986,-0.6551392078399658,-0.10215035825967789,-0.41405150294303894,0.11674243211746216,-0.3430030047893524,-1.0198063850402832,0.5965625047683716,0.5321676731109619,0.5998564958572388,-1.0389288663864136,-0.5086241960525513,-0.8510746955871582,0.34671634435653687,-0.503783106803894,-0.3434198200702667,0.7739437222480774,0.17027738690376282,-0.4885198175907135,0.5159485936164856,-1.1912946701049805,-0.3958541750907898,0.267115980386734,-0.17068803310394287,0.4304029643535614,-0.7294238805770874,-0.6674289107322693,0.42424383759498596,0.4775466024875641,0.6590577960014343,-1.025620698928833,-0.40201547741889954,-0.7942141890525818,0.4461399018764496,-0.46587899327278137,-0.24100352823734283,0.5275512933731079,0.21487131714820862,-0.585766613483429,0.39241015911102295,-0.6905509233474731,-0.3017905652523041,0.021187974140048027,-0.24121397733688354,0.2395380586385727,-0.27903544902801514,-0.9026566743850708,0.4257568120956421,0.36862605810165405,0.07620861381292343,-1.0910791158676147,-0.17872102558612823,-0.8685767650604248,0.3748571574687958,-0.015526257455348969,-0.7019482851028442,0.7434278726577759,0.5508853197097778,0.013450724072754383,0.16765595972537994,-0.3511720895767212,-0.1141180694103241,-1.1634522676467896,-0.6791713237762451,-0.18335434794425964,-0.1298358291387558,0.2545180916786194,0.26546531915664673,0.7601882815361023,0.8448155522346497,-0.6458874940872192,-0.20693810284137726,-0.6550666689872742,0.4483320116996765,-0.6469614505767822,-0.5135853290557861,0.6912537813186646,0.9652912020683289,-0.46061980724334717,0.5937829613685608,-0.3262583613395691,-0.6861180663108826,0.7349337935447693,-0.5001304149627686,0.17788273096084595,-0.48644089698791504,-0.3052248954772949,0.5496096014976501,0.4018499553203583,0.620158851146698,-0.01775595359504223,-0.7005218267440796,-0.006556879263371229,0.5687264800071716,-0.6073708534240723,-0.32270190119743347,-0.03801533207297325,0.4809719920158386,-0.9269871115684509,0.5251739621162415,-0.7214005589485168,-0.897243320941925,0.3629966974258423,-0.20152904093265533,-0.4394994080066681,-0.6127529740333557,-0.902055561542511,0.8307613730430603,0.4496382474899292,0.2103956937789917,-0.5698570013046265,-0.3612673878669739,-0.6316625475883484,0.5107020735740662,-0.7828360795974731,-0.1698603481054306,0.8306883573532104,0.38963446021080017,-0.42904821038246155,0.08796878159046173,-0.867553174495697,-0.4746391773223877,-0.16943994164466858,-0.3658212423324585,0.10919717699289322,-0.2406211793422699,-1.3549009561538696,0.44479694962501526,-0.03362959995865822,0.8818672299385071,-1.08400559425354,-0.7547603845596313,-0.7929612398147583,0.5947656631469727,-0.47321638464927673,-0.5070365071296692,0.4806598126888275,0.06654113531112671,-0.33412495255470276,0.7112089991569519,-1.3584097623825073,-0.5918573141098022,0.3486993610858917,-0.16842758655548096,0.4318152666091919,-0.7364161014556885,-2.3195066452026367,0.4932781159877777,0.5218831896781921,0.37777480483055115,-0.6530784964561462,-0.2621307671070099,-0.5027716755867004,0.13700981438159943,-0.5173758268356323,-0.25183311104774475,0.4026671051979065,0.19755324721336365,-0.8759464621543884,0.22100713849067688,-0.30072689056396484,-0.1644454449415207,0.17893195152282715,-0.33569201827049255,0.4250759482383728,-0.23039071261882782,-0.46489426493644714,0.6212753653526306]},"updateGateBias":{"rows":20,"columns":1,"weights":[0,0,0,0,0,0,0,0,0,0,0,0,0,0,0,0,0,0,0,0]},"resetGateInputMatrix":{"rows":20,"columns":1,"weights":[0.9342344999313354,0.8847148418426514,-2.222245693206787,0.831009566783905,-2.3103764057159424,0.7127282619476318,0.6095452904701233,-0.016291631385684013,-1.99861478805542,0.44357454776763916,0.6890101432800293,0.7379739284515381,-0.155351921916008,0.7148402333259583,-0.9549539685249329,-0.07411105930805206,0.03996029496192932,0.815694272518158,0.7943646311759949,0.5346571803092957]},"resetGateHiddenMatrix":{"rows":20,"columns":20,"weights":[0.36927857995033264,0.17802974581718445,0.6144526600837708,0.019858386367559433,0.3810715675354004,0.08423387259244919,-0.14143922924995422,0.4489988386631012,-0.12107724696397781,-0.08850205689668655,-0.06729128956794739,0.1956285834312439,0.12764741480350494,0.09053491055965424,-0.1973900943994522,0.08357451111078262,0.055228088051080704,0.14069850742816925,0.19616766273975372,-0.1852911412715912,0.23693083226680756,-0.29050835967063904,1.1539808511734009,0.17699100077152252,0.7128298282623291,0.034178368747234344,-0.09999655932188034,0.6042672991752625,-0.46961238980293274,0.22044219076633453,-0.38187313079833984,0.12509708106517792,0.3772158920764923,0.15443503856658936,-0.16505132615566254,-0.025548888370394707,0.392040491104126,0.24918706715106964,0.4777495563030243,-0.11034513264894485,-0.0617799386382103,0.9175845980644226,-1.0773019790649414,-0.5258699059486389,-0.46048685908317566,0.6589381098747253,0.598257303237915,-0.7063679695129395,0.03348241373896599,0.15105527639389038,1.111122727394104,0.4222041964530945,-0.7317318916320801,-0.6565203666687012,0.1187673881649971,-0.1673022210597992,-1.2970316410064697,-0.649752676486969,-0.26617270708084106,0.10698718577623367,0.7331993579864502,-0.03303106501698494,0.48271644115448,0.030391737818717957,0.4376911520957947,0.22489456832408905,-0.347089022397995,0.42882102727890015,-0.27862176299095154,0.10595650970935822,-0.17270135879516602,0.25891515612602234,0.21437647938728333,0.09755463898181915,-0.07511492818593979,-0.35893744230270386,0.13077032566070557,0.06483452022075653,1.8934333324432373,0.0923040434718132,0.10685821622610092,0.7270757555961609,-1.0990086793899536,-0.44697338342666626,-0.42115238308906555,0.7620886564254761,0.6032421588897705,-0.738664984703064,0.09936974942684174,0.06743043661117554,1.1601340770721436,0.45579084753990173,-0.613379716873169,-0.5507863163948059,-0.18811337649822235,-0.2978383004665375,-1.1485867500305176,-0.5665876865386963,-0.16268093883991241,0.1579093188047409,0.5349543690681458,0.13486304879188538,-0.1923075169324875,-0.03541659191250801,-0.2846926748752594,0.10957370698451996,-0.1622365266084671,-0.2703269422054291,0.10937537252902985,0.6242210865020752,-0.1559312343597412,0.13593681156635284,0.04778062552213669,0.0694807693362236,0.4585890471935272,-0.5431457161903381,0.23083704710006714,0.012628993019461632,0.40184494853019714,-0.006153480615466833,-0.08287937939167023,0.2982204258441925,-0.034607041627168655,-0.15301275253295898,-0.08345148712396622,0.2230863720178604,0.17937706410884857,0.4333415627479553,0.14586451649665833,-0.4307135343551636,-0.15134075284004211,0.1618434190750122,-0.22967524826526642,-0.3408902585506439,-0.09769907593727112,0.6945217847824097,0.2548188865184784,-0.16956697404384613,-0.014874844811856747,-0.004451862536370754,-0.1733567714691162,-0.11286886036396027,0.5319024920463562,0.1494264304637909,0.5504122376441956,-0.05983056500554085,0.14667828381061554,0.40341994166374207,-0.5569755434989929,-0.42010390758514404,0.16593226790428162,-0.18234962224960327,0.1797672063112259,0.21582548320293427,-0.2267843633890152,0.32570672035217285,-0.14464865624904633,0.16997027397155762,0.2138165831565857,-0.0829285979270935,-0.02975940704345703,0.5979150533676147,-1.0705058574676514,-0.4823496341705322,-0.6990640163421631,0.5572649240493774,0.467436283826828,-0.624650776386261,0.15840598940849304,0.07716826349496841,0.8494676947593689,0.42814892530441284,-0.39691704511642456,-0.5615163445472717,-0.10126786679029465,-0.32696452736854553,-0.896325409412384,-0.4374021887779236,-0.5040393471717834,0.13555431365966797,0.05477451905608177,-0.13437753915786743,0.5625370144844055,0.18669851124286652,0.6076768636703491,0.11371500045061111,-0.010248142294585705,0.3844372034072876,-0.5427360534667969,-0.33582454919815063,-0.19943884015083313,-0.024139070883393288,0.12404198199510574,-0.009157860651612282,-0.17527960240840912,0.18031753599643707,-0.11500906944274902,0.004710069391876459,0.5381384491920471,-0.041826605796813965,0.1879918873310089,0.629887044429779,-0.34580883383750916,-0.3840193450450897,-0.40095949172973633,0.5636559724807739,0.010266310535371304,0.14707334339618683,0.23429076373577118,-0.5005092024803162,-0.06309250742197037,0.523049533367157,-0.5146728157997131,-0.5911373496055603,-0.46887174248695374,0.5080908536911011,0.19996970891952515,-0.5716161727905273,-0.3854842483997345,0.12828345596790314,-0.08721841871738434,0.23178237676620483,0.7173568606376648,-0.12915931642055511,0.39561107754707336,-0.08874844759702682,-0.26513999700546265,0.3251202404499054,-0.21381866931915283,0.2658272385597229,-0.612705409526825,-0.0496712289750576,-0.16067473590373993,0.09335196763277054,-0.046612177044153214,0.01753956638276577,0.5239019393920898,0.1044171154499054,-0.13048776984214783,0.2221156656742096,0.3455803096294403,0.14997301995754242,-0.39710187911987305,-0.22881165146827698,-0.3705442249774933,0.1283428966999054,-0.28802725672721863,-0.3394210636615753,0.29722264409065247,0.4617484211921692,-0.2748541533946991,0.12836430966854095,0.11863749474287033,-0.12817761301994324,0.7755710482597351,-0.5074793696403503,0.24798351526260376,-0.07866982370615005,0.049857307225465775,0.13753743469715118,0.32092955708503723,0.021022282540798187,0.8717449307441711,-0.0027459412813186646,0.4412253499031067,0.03233461081981659,-0.0676666647195816,0.23283088207244873,-0.298258513212204,0.1307847946882248,-0.2013668715953827,0.12995310127735138,0.11985154449939728,0.08975815027952194,0.15796087682247162,-0.04951726645231247,0.3545129895210266,0.19892267882823944,0.39974454045295715,-0.09523586183786392,-0.5332231521606445,0.031854454427957535,-0.5882372856140137,0.2549891471862793,-0.3622871935367584,-0.09648139774799347,0.3780730068683624,-0.15954391658306122,0.12871262431144714,-0.1644252985715866,0.4337675869464874,-0.33072781562805176,-0.01626468636095524,0.10176962614059448,0.1481592208147049,0.22211258113384247,-0.419793039560318,0.20282696187496185,-0.25434941053390503,-0.3024102747440338,0.05340912938117981,-0.08150453865528107,0.4607173800468445,-0.018789920955896378,0.4740716814994812,0.008051766082644463,-0.23881880939006805,0.3655838966369629,-0.41468724608421326,-0.2174035608768463,-0.14727795124053955,0.09709637612104416,0.0734153464436531,-0.05738986283540726,-0.1542036235332489,0.06341617554426193,-0.004159013275057077,-0.00600915914401412,-0.0011952831409871578,0.18945862352848053,-0.05952827259898186,0.2548362910747528,-0.5792407393455505,-0.21671049296855927,-0.6780872941017151,0.03222062066197395,-0.33048388361930847,-0.6174198985099792,0.6348366737365723,0.2604981064796448,-0.1470140516757965,0.04116208851337433,-0.35519370436668396,-0.3311755657196045,0.32511162757873535,-0.15422935783863068,0.09671939164400101,-0.12180831283330917,-0.3882957398891449,0.24279068410396576,-0.1328192800283432,-0.1834876984357834,0.9427180290222168,0.1355389505624771,0.4451398253440857,-0.08790292590856552,0.036124009639024734,0.4669775068759918,-0.12313494086265564,0.20082667469978333,-0.31631189584732056,-0.033640291541814804,0.17865964770317078,0.25296592712402344,-0.09483817219734192,0.14134787023067474,0.35765647888183594,0.18975713849067688,0.16088910400867462,-0.22628499567508698,0.12941350042819977,-0.1923132687807083,-0.03246425464749336,0.002558099338784814,-0.04667811840772629,-0.25133591890335083,-0.05320249870419502,-0.1493554413318634,0.1304633915424347,0.4019591808319092,-0.14034022390842438,-0.06383956223726273,0.3943778872489929,0.22325101494789124,0.4347975254058838,-0.35342711210250854,0.27540507912635803,-0.03210576996207237,2.7741470336914062,0.0667346939444542,0.3433324694633484,0.27200207114219666,0.45026612281799316,-0.08340969681739807,0.13128548860549927,0.1574282944202423,-0.3693348467350006,0.4058830142021179,-0.028401900082826614,-0.12701298296451569,-0.42858457565307617,0.08505555242300034,0.01626061275601387,-0.17839375138282776,0.03092201054096222,0.2153671681880951,0.37719184160232544,-0.10888155549764633,-0.09746865183115005,0.006131227593868971]},"resetGateBias":{"rows":20,"columns":1,"weights":[0,0,0,0,0,0,0,0,0,0,0,0,0,0,0,0,0,0,0,0]},"cellWriteInputMatrix":{"rows":20,"columns":1,"weights":[0.43224984407424927,0.8926263451576233,-0.9736537933349609,-0.7104976773262024,-0.9817594885826111,1.299523115158081,-0.8153784275054932,-0.9194849729537964,0.9540923237800598,1.247855544090271,-0.7540592551231384,1.630578637123108,-0.8160451650619507,-0.7831149697303772,-0.5306299924850464,-1.1403700113296509,0.6848253011703491,-0.6254297494888306,-0.47545325756073,0.9540648460388184]},"cellWriteHiddenMatrix":{"rows":20,"columns":20,"weights":[-0.12944412231445312,-0.04138670116662979,1.6033973693847656,1.0699411630630493,1.8268855810165405,-0.16344742476940155,-0.048607878386974335,0.343054860830307,-1.253673791885376,-0.49439483880996704,-0.038407161831855774,-0.5706984400749207,-0.8334213495254517,-0.24035531282424927,-0.08305662870407104,0.12865670025348663,-0.589827835559845,0.7460703253746033,-1.6065824031829834,-0.1502818614244461,0.59466952085495,0.20681200921535492,0.5240471363067627,0.6943464279174805,0.8050131797790527,0.45307403802871704,-0.46577736735343933,0.034946031868457794,-1.0955430269241333,0.33565446734428406,-0.49755042791366577,0.3638013005256653,0.14538393914699554,-0.5650488138198853,0.7148090600967407,-0.30176040530204773,0.2714407742023468,-0.1730256825685501,0.9250538349151611,0.3985579311847687,-0.6443944573402405,-0.37256646156311035,0.13097646832466125,-0.29176411032676697,0.0469210222363472,-0.9276812672615051,0.3068389296531677,-0.1797189563512802,-0.24494408071041107,0.011572491377592087,0.5296069979667664,-0.5530049800872803,0.2715042233467102,0.6823504567146301,-0.022109441459178925,-0.14007429778575897,-0.2586558759212494,0.11301248520612717,0.609668493270874,-0.5774177312850952,-0.5314531326293945,0.014793379232287407,-0.8996621966362,-1.2696292400360107,-1.1804035902023315,-0.6164427995681763,0.2569809854030609,0.022895196452736855,1.2319250106811523,-0.2110687792301178,0.2767169177532196,-0.02474714256823063,0.01990494132041931,0.3974391520023346,-0.8729985952377319,0.17394070327281952,-0.09876511245965958,-0.21590735018253326,0.1419461965560913,-0.49514615535736084,-0.8293850421905518,-0.41966694593429565,0.026754356920719147,-0.36258596181869507,-0.05525319278240204,-1.0132591724395752,0.256419837474823,-0.11095042526721954,-0.27117329835891724,-0.12372925132513046,0.44092118740081787,-0.7893946170806885,0.13448554277420044,0.7547139525413513,0.08735495805740356,-0.04898783564567566,-0.23597291111946106,0.1994573026895523,-0.11906614154577255,-0.5524130463600159,0.6934084892272949,-0.9534652829170227,0.7606987953186035,3.6556737422943115,1.1047289371490479,-0.5783578753471375,-0.2558446526527405,0.28841522336006165,-1.1820120811462402,0.2107435017824173,-0.26698392629623413,-0.22727684676647186,0.33969318866729736,0.7540019750595093,0.8319800496101379,-0.016848977655172348,0.12603311240673065,0.4658765196800232,1.7215358018875122,0.5390429496765137,-0.2881002128124237,0.025540843605995178,-1.2579336166381836,-0.615641176700592,-1.63181734085083,0.009851636365056038,-0.08171886950731277,-0.24111464619636536,1.5582059621810913,0.06943944096565247,0.2667287588119507,-0.13530446588993073,-0.13572722673416138,-0.3969181180000305,-0.09014599025249481,-0.05583391711115837,-0.16476130485534668,0.248271644115448,-0.967402458190918,0.059058044105768204,-0.6015830636024475,-0.34685826301574707,-0.9654597043991089,-0.5394152402877808,-1.300220251083374,-0.9148892164230347,0.1792750507593155,-0.0818374827504158,1.712663173675537,-0.22636540234088898,0.501055121421814,-0.566064178943634,0.23019005358219147,0.5095102190971375,-0.583172619342804,0.04434659332036972,-0.3097670078277588,0.21240700781345367,0.11498527973890305,-0.46505188941955566,0.7546972632408142,0.5138930082321167,-0.09312546998262405,0.4561375677585602,-0.02027980610728264,0.9635356664657593,-0.23170769214630127,0.21714997291564941,0.2941085994243622,-0.007292025722563267,-0.4352707862854004,0.7159069776535034,0.0016095630126073956,-0.7979418635368347,-0.2074383944272995,0.048871591687202454,0.21979515254497528,-0.2997395992279053,0.3198949694633484,0.5425891280174255,0.5810605883598328,-0.5437635779380798,1.6550620794296265,0.9056364893913269,2.269052505493164,0.20868372917175293,0.47870108485221863,0.4645235538482666,-1.0557547807693481,-1.0154598951339722,0.3083375096321106,-0.31612247228622437,-0.6911603808403015,1.289292573928833,-0.6120218634605408,0.6487944722175598,0.030087897554039955,0.2795110046863556,0.7446306347846985,-0.016615310683846474,-0.34094077348709106,0.2610534131526947,-1.532623291015625,-0.7646318078041077,-1.9581151008605957,-0.23720282316207886,-0.19678211212158203,-0.10406813770532608,1.9020978212356567,0.003203320549800992,0.10392271727323532,0.08692354708909988,0.0785822942852974,-0.4694511890411377,-0.25235387682914734,0.1680658608675003,0.05895380675792694,-0.08689271658658981,-0.8543769717216492,0.12202490121126175,0.29494205117225647,-0.904303252696991,1.0059196949005127,4.820191383361816,1.2286889553070068,-0.054143358021974564,-0.47576382756233215,0.1769251972436905,-1.3810404539108276,0.248818039894104,-0.5533931851387024,-0.07398636639118195,-0.18908467888832092,1.0267157554626465,0.9578596353530884,-0.3628103733062744,0.26021134853363037,0.04006807506084442,0.9848256707191467,0.7662789225578308,-0.55611252784729,-0.08519867807626724,-0.5464293956756592,-0.4357382357120514,-0.8517558574676514,-0.934325098991394,0.18119339644908905,-0.1156345084309578,1.0876996517181396,-0.16791819036006927,0.4662609398365021,-0.5624896883964539,-0.0763097032904625,0.5784454941749573,-0.6594545841217041,0.14597342908382416,-0.22324803471565247,0.23067471385002136,-0.40335193276405334,-0.3830905258655548,-0.34281042218208313,0.2836458683013916,-0.752101719379425,-1.2398828268051147,-1.1734732389450073,0.059009019285440445,0.3240533769130707,-0.13465112447738647,1.2310353517532349,-0.2728919982910156,0.5588275194168091,-0.1632920801639557,-0.026467613875865936,-0.7024332880973816,-0.6106557846069336,0.07645608484745026,-0.1790439933538437,-0.058591265231370926,-2.0413026809692383,-0.4032500386238098,-0.13193641602993011,-0.08524932712316513,1.3808352947235107,0.49388137459754944,1.5691959857940674,-0.0282791368663311,0.2050316035747528,0.1960943192243576,-0.8973578810691833,-0.4605312645435333,0.4552639424800873,-0.34884020686149597,-0.5946114659309387,0.6165772080421448,-0.8238581418991089,0.27802130579948425,0.14970217645168304,0.2066088169813156,-0.5890910625457764,-0.3123805522918701,-1.437712550163269,0.9737054109573364,-1.3130784034729004,-1.8006569147109985,-1.7591841220855713,-0.26167160272598267,-0.2614533603191376,-0.9495803117752075,1.2677252292633057,0.8853055238723755,-0.006714444141834974,0.2447480708360672,0.7485902905464172,-0.4216683804988861,0.3693883717060089,-0.3463381230831146,1.010062336921692,-0.9540196061134338,-0.114901103079319,-0.3439403474330902,0.04525024816393852,-0.16373178362846375,1.3392266035079956,0.5050941109657288,1.4773452281951904,-0.3529244065284729,0.3145837187767029,-0.3838270306587219,-1.4351104497909546,0.5949077010154724,0.11875052750110626,-0.20143653452396393,0.7321608662605286,0.2422911673784256,0.4910218417644501,-0.6101813912391663,0.16145330667495728,0.1230432540178299,1.19243586063385,-0.40984225273132324,-0.6886802315711975,-0.1370088905096054,-0.7669588327407837,-1.0539045333862305,-1.0052016973495483,-0.45906418561935425,0.4481217563152313,-0.18034188449382782,1.2350220680236816,-0.178595170378685,0.666296124458313,-0.47115546464920044,-0.33702635765075684,0.2158685028553009,-0.632469892501831,0.1905042678117752,-0.13001686334609985,0.13166707754135132,-2.1517422199249268,-0.5264925956726074,-0.9962260723114014,-0.9734038710594177,-0.40241310000419617,-0.07611514627933502,-0.5102209448814392,-1.4855047464370728,0.2587813436985016,-0.036881234496831894,0.7183694243431091,-0.2691619098186493,0.6407760977745056,-1.2526038885116577,-0.4361134469509125,0.9510863423347473,-0.25178995728492737,0.10288278013467789,-0.177840918302536,0.4446132779121399,-0.06924355775117874,-0.6347549557685852,0.1319040060043335,-0.22576753795146942,1.381062626838684,2.062390089035034,1.801856517791748,0.16792817413806915,0.008553590625524521,0.16775351762771606,-1.7461035251617432,-0.5556681156158447,0.21981549263000488,-0.5561258792877197,-0.6108774542808533,0.5324903130531311,0.1802462637424469,0.13613508641719818,-0.012449277564883232,0.5296559929847717,0.33417192101478577,-0.18397217988967896]},"cellWriteBias":{"rows":20,"columns":1,"weights":[1.1805781126022339,-5.377262115478516,5.882049560546875,4.981442928314209,5.875271320343018,-5.752809047698975,4.474373817443848,5.472099781036377,-5.784852504730225,-4.7952070236206055,4.3249688148498535,-6.058981418609619,5.342915058135986,5.095362186431885,-2.579737901687622,5.187307834625244,-4.50623893737793,4.975266933441162,5.4554524421691895,-4.688908576965332]}}],"outputConnector":{"rows":1,"columns":20,"weights":[0.2901088297367096,0.33030965924263,-0.2578999698162079,-0.20579293370246887,-0.3617749512195587,0.4324715733528137,-0.26105839014053345,-0.2838473618030548,0.312882661819458,0.38224858045578003,-0.32136794924736023,0.35015061497688293,-0.24099671840667725,-0.2590855360031128,-0.19686423242092133,-0.2768254280090332,0.10569703578948975,-0.31613069772720337,-0.25517767667770386,0.3473387658596039]},"output":{"rows":1,"columns":1,"weights":[2.4580206871032715]},"inputLookup":null,"inputLookupLength":0,"outputLookup":null,"outputLookupLength":0}