{"type":"LSTMTimeStep","options":{"inputSize":1,"inputRange":0,"hiddenLayers":[20],"outputSize":1,"decayRate":0.999,"smoothEps":1e-8,"regc":0.000001,"clipval":5,"maxPredictionLength":100,"dataFormatter":{"indexTable":{},"characterTable":{},"characters":[],"specialIndexes":[]}},"hiddenLayers":[{"inputMatrix":{"rows":20,"columns":1,"weights":[0.21919818222522736,0.10054526478052139,0.11305516958236694,0.5061511993408203,0.23901551961898804,-0.8350971341133118,0.07089602947235107,0.6579186320304871,0.13629156351089478,0.0022706028539687395,-0.07762858271598816,0.339874804019928,0.37697142362594604,0.15036733448505402,0.20567943155765533,0.24055132269859314,0.18651698529720306,-1.612821340560913,0.1403111219406128,0.1889328509569168]},"inputHidden":{"rows":20,"columns":20,"weights":[-0.6400715112686157,-0.6301474571228027,0.5431455969810486,0.3602775037288666,0.38570746779441833,0.19752803444862366,-0.5547740459442139,-0.33074864745140076,-0.7240551114082336,-0.6096473932266235,-1.3282314538955688,0.5841245651245117,0.5767681002616882,0.5002231597900391,-0.6886802315711975,0.535539448261261,0.46270379424095154,0.08389169722795486,0.6146160364151001,-1.2173068523406982,0.20260722935199738,-1.3876336812973022,0.5942091345787048,0.4276130497455597,1.8225626945495605,-0.6559460759162903,0.06426817923784256,-1.6882706880569458,-0.1800888478755951,-0.8455897569656372,-2.4709112644195557,-0.20761878788471222,0.24984700977802277,0.3749525547027588,0.12575270235538483,1.3351564407348633,0.225807324051857,0.8469350337982178,0.4633731245994568,0.2335098683834076,-0.5452714562416077,0.43923598527908325,0.21799150109291077,0.8817452192306519,-0.3568190932273865,-1.2863166332244873,-0.5507071018218994,-0.7581669092178345,-0.2086840569972992,0.23025333881378174,-1.0251115560531616,0.5493263006210327,1.3444315195083618,0.0715632289648056,-0.48361536860466003,0.4793231785297394,0.3542538583278656,1.5503485202789307,-0.041431523859500885,-0.07303685694932938,-0.11030808091163635,0.4795050024986267,0.7890306711196899,0.530299961566925,-0.6667766571044922,-1.6346962451934814,-0.04028899967670441,0.026774220168590546,0.4571985602378845,0.47202783823013306,-0.495410293340683,0.04679128900170326,0.4965897500514984,-0.4044830799102783,-0.06354643404483795,0.1328539252281189,0.38803309202194214,1.5207804441452026,-0.46556803584098816,-0.0035105617716908455,0.14644300937652588,-1.429975152015686,0.673127293586731,0.5890305638313293,1.6402766704559326,-0.6684750914573669,0.2384018898010254,-2.2508738040924072,-0.1522354930639267,-0.7071825265884399,-2.5671091079711914,-0.1056746169924736,0.38779717683792114,0.3973090946674347,0.07057525217533112,0.9609025120735168,0.14888577163219452,1.1490840911865234,0.40891033411026,0.3193465769290924,-0.3616430461406708,-0.9918080568313599,1.2283443212509155,0.658459484577179,1.014970302581787,-0.17146411538124084,-0.4077712893486023,-1.414577841758728,-0.859745979309082,-0.9936936497688293,-1.2291319370269775,0.3242112696170807,0.5080622434616089,0.952655553817749,-0.33877381682395935,0.9987908005714417,0.5962121486663818,-1.648591160774231,0.9020324349403381,-0.7039230465888977,-0.33517929911613464,-0.5515297055244446,0.41597238183021545,0.32904261350631714,0.9423174858093262,0.2405976504087448,-0.40306833386421204,-1.1957926750183105,-1.0033432245254517,-0.1643158495426178,-0.944004237651825,0.290134459733963,0.5436521768569946,0.26626908779144287,-0.2616361379623413,1.2510707378387451,0.39429453015327454,0.3266366124153137,0.20531967282295227,-1.505637288093567,-0.13500073552131653,-0.9032728672027588,0.23440369963645935,0.09481735527515411,0.6991755366325378,-0.8674549460411072,-0.011637364514172077,0.17095062136650085,-0.8331341743469238,-1.1789532899856567,-0.8995532393455505,0.08456485718488693,0.058518584817647934,0.879940390586853,0.10095957666635513,-0.16350995004177094,-0.022081967443227768,-0.4139848053455353,0.9052571654319763,-0.04811752960085869,-0.32212623953819275,-0.629000186920166,0.2691000998020172,0.3390524685382843,0.45019465684890747,-0.43503400683403015,-0.39536359906196594,-0.9572110176086426,-0.6852881908416748,-0.5691524744033813,-1.5391446352005005,0.4331424832344055,0.3728780150413513,0.6456945538520813,-0.3531227707862854,0.3435204327106476,0.487848162651062,1.0602868795394897,0.6631336212158203,-0.46418699622154236,-0.0645662397146225,-0.9179724454879761,0.754865288734436,0.3281504809856415,0.8688890337944031,-0.6940262913703918,-0.08627396821975708,-1.203254222869873,-0.008773277513682842,-0.528572678565979,-1.673903226852417,0.06558893620967865,0.41102835536003113,0.34636011719703674,-0.06680618971586227,0.8485444188117981,0.1714598834514618,0.7232890725135803,0.47800809144973755,0.17189376056194305,0.01693430356681347,-0.9868983626365662,0.241963192820549,0.8380888104438782,0.7428403496742249,-1.3280372619628906,0.10421992093324661,-1.5315184593200684,-0.5305747985839844,-0.9061058163642883,-1.4194673299789429,0.06578008085489273,0.3001667261123657,0.7238618731498718,-0.15160655975341797,1.037280797958374,0.36832934617996216,2.0821313858032227,0.728924572467804,-0.04823079705238342,-0.6326109766960144,-0.5698510408401489,0.6654285192489624,0.5335659980773926,0.37235409021377563,-0.0816660225391388,-0.5632331967353821,-0.24363340437412262,-0.6702266931533813,-0.5325207114219666,-1.1452885866165161,0.6264470815658569,0.502947211265564,0.4955790340900421,-0.6532546281814575,0.14642159640789032,0.5257624983787537,0.254925400018692,0.5374600887298584,-0.7464561462402344,0.16496628522872925,0.15524105727672577,1.6374645233154297,0.29696351289749146,-0.20708918571472168,-1.2012710571289062,0.25288331508636475,-0.02956574596464634,0.2511789798736572,0.19188927114009857,-0.6575568914413452,-0.16974212229251862,1.5260405540466309,-0.42386332154273987,0.14095301926136017,0.5525285005569458,0.030702292919158936,1.272256851196289,-0.21989303827285767,0.48723146319389343,-0.3501110076904297,-0.5928729772567749,0.3494194447994232,0.3663374185562134,0.5383257865905762,-0.48286721110343933,-0.36119315028190613,-0.9736141562461853,-0.41107282042503357,-0.485029011964798,-1.538468599319458,0.33187806606292725,0.3571719527244568,0.531114935874939,-0.380122572183609,0.5724344849586487,0.562042772769928,1.0222183465957642,0.43856555223464966,-0.34037742018699646,-0.4639998972415924,-0.8122098445892334,0.589062511920929,0.38557422161102295,0.541454553604126,-0.017228864133358,-0.5081760287284851,-0.12775397300720215,-0.9132848381996155,-0.9455284476280212,-1.4178721904754639,0.3596252202987671,0.49553003907203674,0.6553297638893127,-0.5701310038566589,0.09676704555749893,0.46032294631004333,0.08004730194807053,0.8357148170471191,-0.8746557831764221,-0.4383835792541504,-0.8790546655654907,0.12900924682617188,0.35474103689193726,0.9833603501319885,1.4766937494277954,-0.3842405378818512,-0.6196200251579285,-0.972934901714325,-1.0006917715072632,-0.9037529826164246,0.46996062994003296,0.40446779131889343,0.8932956457138062,-0.5076640248298645,0.2165444940328598,0.47897619009017944,-1.592514991760254,0.8844834566116333,-0.49336516857147217,-0.5544471144676208,-0.4468979835510254,0.45620569586753845,0.4703941345214844,0.7878490686416626,0.4869096875190735,-0.5262938141822815,-1.0810297727584839,-0.6924186944961548,-0.3760465979576111,-1.0794763565063477,0.6865609288215637,0.46569913625717163,0.5172154307365417,-0.4992941915988922,0.518268346786499,0.5711452960968018,0.3256548345088959,0.30855950713157654,-0.5489368438720703,-0.03833537548780441,-0.48278021812438965,-0.0308223869651556,0.2866937220096588,0.5551770925521851,2.157836437225342,0.08040397614240646,-0.8526533842086792,-0.4974398612976074,-0.5586572289466858,-0.8074392676353455,-0.08743487298488617,-0.06838972866535187,0.5206830501556396,-0.01731274276971817,0.17725741863250732,0.27566781640052795,-1.8810796737670898,0.45739153027534485,-0.4423781633377075,-0.21595577895641327,-0.7698419094085693,0.35137027502059937,0.26045697927474976,0.5471857190132141,-0.40584462881088257,-0.31984251737594604,-0.7510853409767151,-0.5624811053276062,-0.5937408804893494,-1.6018397808074951,0.31376156210899353,0.3938290774822235,0.5245961546897888,-0.4242720603942871,0.49731364846229553,0.4298994839191437,0.836560845375061,0.5794517993927002,-0.45152464509010315,-0.44818446040153503,-0.723621129989624,0.06573855876922607,0.2511480748653412,0.8707407712936401,0.10941218584775925,-0.2125912308692932,-0.6370994448661804,-0.6410573124885559,-0.7736084461212158,-1.0358914136886597,0.4343741536140442,0.25354039669036865,0.6650433540344238,-0.3809114992618561,0.6079632639884949,0.271819531917572,0.1467553973197937,0.6599295735359192,-0.6236860156059265]},"inputBias":{"rows":20,"columns":1,"weights":[0.061961643397808075,0.4476252496242523,-0.3394932150840759,-0.41773098707199097,0.4653976559638977,1.8613536357879639,-0.026688020676374435,-0.0596892312169075,0.594264805316925,0.5013243556022644,0.11010964214801788,-0.02535899169743061,-0.24223977327346802,0.5769495368003845,-0.015848079696297646,-0.205268993973732,-0.21247269213199615,1.8073011636734009,0.6287711262702942,-0.008426938205957413]},"forgetMatrix":{"rows":20,"columns":1,"weights":[0.3580382764339447,0.1267760694026947,0.4686047434806824,0.8101500272750854,0.32889673113822937,-1.8803255558013916,0.11437814682722092,0.5285581350326538,0.2401968538761139,0.35245659947395325,0.35733112692832947,0.2394249439239502,1.1295808553695679,0.1428661197423935,0.4452241361141205,0.23963312804698944,0.22702495753765106,-1.2670154571533203,0.14182929694652557,0.5205285549163818]},"forgetHidden":{"rows":20,"columns":20,"weights":[-0.5956739783287048,-0.664555549621582,0.6465960741043091,0.44511476159095764,0.513392448425293,-0.3087587356567383,-0.4954068958759308,-0.05243495851755142,-0.7091631889343262,-0.6632368564605713,-1.2204840183258057,0.44810542464256287,0.5374047756195068,0.4824216961860657,-0.6262000799179077,-0.010639633052051067,0.5251603126525879,0.27186110615730286,0.6697213053703308,-0.6278659701347351,-0.3744511902332306,-1.0318018198013306,0.2812328338623047,0.6182976365089417,1.2611112594604492,-0.5793458819389343,-0.25271865725517273,-1.4982998371124268,-0.5469671487808228,-1.1037288904190063,-2.110930919647217,0.21037651598453522,0.3894369900226593,0.6992524862289429,-0.3701731264591217,0.4976482391357422,0.4278988838195801,1.1773958206176758,0.7261936068534851,-0.000429032021202147,-0.8154517412185669,-0.50862717628479,0.21319955587387085,0.5812299251556396,0.49336957931518555,0.027708750218153,-0.6270482540130615,0.4341394901275635,-0.4598948359489441,-0.5569508671760559,-0.7313752770423889,0.9453162550926208,0.8350550532341003,0.5626344680786133,-0.9314321875572205,0.06129789724946022,0.4338033199310303,0.29193079471588135,0.599236011505127,-0.0060561588034033775,-0.4291137158870697,0.14580674469470978,0.39461222290992737,0.8147702217102051,-0.19929467141628265,-0.9464941620826721,-0.47597187757492065,-0.24662557244300842,-0.030111288651823997,0.003979151602834463,-0.7786587476730347,0.514918327331543,0.3706950545310974,0.0521707683801651,-0.43909120559692383,-0.11680144816637039,0.6236318945884705,1.079795002937317,0.12921862304210663,-0.17604586482048035,-0.13052530586719513,-0.7886179685592651,0.2669742703437805,0.7868857383728027,0.8123362064361572,-1.2343182563781738,-0.05204241722822189,-1.3342822790145874,-0.37818315625190735,-0.44339719414711,-2.0753915309906006,0.17439532279968262,0.17342139780521393,0.5447549819946289,-0.15304617583751678,0.17828962206840515,0.36890166997909546,2.0311388969421387,0.5350451469421387,0.08670568466186523,0.20455069839954376,-0.4962001144886017,1.2732634544372559,0.18971340358257294,0.4595700800418854,1.530948281288147,0.06771347671747208,-0.7356430888175964,-0.43539100885391235,-0.3305988907814026,-0.22944630682468414,-0.07635434716939926,0.4010334312915802,0.27886733412742615,0.10225776582956314,0.9745318293571472,-0.11405257135629654,-1.6846539974212646,0.4187232255935669,0.14961308240890503,-0.5061793923377991,-0.7063115835189819,0.3293004631996155,0.44031551480293274,1.077974557876587,0.24739617109298706,-0.4669237732887268,-1.0977365970611572,-0.8678880333900452,-0.5477590560913086,-1.143705129623413,0.3881768584251404,0.5884527564048767,0.5852411389350891,-0.5327860116958618,0.5475624203681946,0.358040452003479,-0.07220111042261124,0.47688883543014526,-0.6506088972091675,-0.16633418202400208,-1.1140846014022827,0.28704458475112915,0.15915745496749878,0.8382602334022522,-1.2621493339538574,-0.18822534382343292,-0.1917322725057602,-0.9461985230445862,-1.195246696472168,-0.7771628499031067,0.18535678088665009,0.21286725997924805,0.9517160654067993,-0.2480771839618683,-0.5841159820556641,0.18384988605976105,-0.31927958130836487,1.2117496728897095,-0.07053370773792267,-0.2577687203884125,-1.0966360569000244,0.5614290833473206,0.6446889042854309,0.9587063193321228,-0.853121817111969,-0.15708991885185242,-0.972248375415802,-0.5843765735626221,-1.1537728309631348,-2.2126944065093994,0.23312906920909882,0.4357324242591858,0.5955585837364197,-0.2316252440214157,0.4515896439552307,0.6847209334373474,1.2488720417022705,0.7433305978775024,-0.3562370538711548,-0.31032902002334595,-0.7223619818687439,0.2789177894592285,0.5255398750305176,0.5574764013290405,-1.092335820198059,-0.3116527795791626,-0.8367101550102234,-0.550320565700531,-0.6141135692596436,-1.9169812202453613,0.3465423583984375,0.2432093769311905,0.5710049867630005,-0.34341004490852356,0.040690258145332336,0.4908192753791809,1.9408340454101562,0.6382402777671814,-0.07306712865829468,-0.6341786980628967,-0.9478208422660828,-0.17272701859474182,0.537011444568634,0.8846501708030701,-2.2124526500701904,-0.5104842185974121,-0.3836783170700073,-0.8813754320144653,-0.9786497354507446,-0.8975194692611694,0.5700284242630005,0.2979969084262848,0.963353157043457,-0.6361111402511597,0.19884321093559265,0.5618433952331543,2.829676389694214,1.0968960523605347,-0.6443754434585571,-0.49792569875717163,-0.7460097074508667,0.6265082955360413,0.5519139766693115,0.6391568779945374,-0.2950213849544525,-0.44840651750564575,-0.2365810126066208,-0.8879969120025635,-0.8188598155975342,-1.338658332824707,0.5374743938446045,0.5578025579452515,0.47097185254096985,-0.6240794658660889,0.038964930921792984,0.5676144957542419,0.09295759350061417,0.599456787109375,-0.7253463864326477,-0.5213398933410645,-0.38245463371276855,0.6497054696083069,1.101501226425171,0.08676611632108688,-0.9816551208496094,-0.5373920202255249,-0.31581756472587585,-0.15215489268302917,-0.10012781620025635,-1.4361791610717773,0.5218038558959961,0.5791476964950562,0.12564879655838013,-0.44444650411605835,-0.221782848238945,0.8971248865127563,1.1895965337753296,0.31619834899902344,-0.3284514546394348,-0.2953680157661438,-0.9649041295051575,0.4514794945716858,0.4234364330768585,1.201302170753479,-0.3986695408821106,-0.35380837321281433,-1.5949188470840454,-0.44904738664627075,-0.8688571453094482,-1.9426859617233276,0.2708049714565277,0.37925004959106445,0.6519646644592285,-0.2823040783405304,0.5484594106674194,0.4683948755264282,1.0057681798934937,0.7114949226379395,-0.057295169681310654,-0.44021502137184143,-0.7070978283882141,0.5996934771537781,0.5070090889930725,0.5542773604393005,-0.49825549125671387,-0.48863130807876587,0.15057288110256195,-0.6159775257110596,-0.7033942341804504,-1.2483928203582764,0.496294766664505,0.40098699927330017,0.44173216819763184,-0.547213077545166,-0.07088568061590195,0.5447014570236206,0.37471166253089905,0.6818255186080933,-0.4478894770145416,-0.5767901539802551,-0.7493909597396851,0.25447553396224976,0.3422448933124542,0.8448243737220764,1.4351409673690796,-0.5197376608848572,-0.7624248266220093,-0.730938196182251,-0.8434819579124451,-0.7008521556854248,0.45953476428985596,0.40521758794784546,0.8956915140151978,-0.5629115104675293,0.36127206683158875,0.534130334854126,-1.7228859663009644,0.8051397204399109,-0.409717857837677,-0.604266881942749,-0.6647672057151794,0.3844833970069885,0.4695381224155426,0.8650860786437988,0.27079805731773376,-0.4107668995857239,-1.570052981376648,-0.7049885988235474,-0.7280281782150269,-1.5672721862792969,0.6060551404953003,0.3780105710029602,0.6339831352233887,-0.5449397563934326,0.3618565797805786,0.3992341458797455,0.562351644039154,0.6013191342353821,-0.646349310874939,-0.03250666335225105,-0.48059573769569397,0.39026346802711487,0.34122851490974426,0.6695109009742737,1.35736083984375,-0.16212506592273712,-1.364274501800537,-0.5022723078727722,-0.5179738402366638,-0.6517015695571899,0.05521257221698761,0.3135468363761902,0.4742030203342438,-0.18239375948905945,0.6848408579826355,0.2578791379928589,-1.0889737606048584,0.4188102185726166,-0.049844950437545776,-0.3053281605243683,-0.7267270684242249,0.41867101192474365,0.4425404369831085,1.0186412334442139,-0.6767275929450989,-0.4234093427658081,-0.9992873668670654,-0.6657289862632751,-0.953258216381073,-1.79666268825531,0.3682784140110016,0.34790557622909546,0.6214258074760437,-0.3970145583152771,0.34672054648399353,0.5476049780845642,1.4869709014892578,0.6388588547706604,-0.2270946353673935,-0.1539856493473053,-0.8801029324531555,0.6016519069671631,0.5040592551231384,0.9889701008796692,-0.33160853385925293,-0.15584014356136322,-0.901241660118103,-0.4415568709373474,-0.6888213753700256,-0.9513865113258362,0.1460866779088974,0.1712486296892166,0.6089003086090088,-0.16502396762371063,0.5111185908317566,0.451452374458313,0.38960644602775574,0.6681554913520813,-0.20639948546886444]},"forgetBias":{"rows":20,"columns":1,"weights":[0,0,0,0,0,0,0,0,0,0,0,0,0,0,0,0,0,0,0,0]},"outputMatrix":{"rows":20,"columns":1,"weights":[0.20093873143196106,0.36552146077156067,0.3933592438697815,0.5524332523345947,0.3489669859409332,-1.1831732988357544,0.30978450179100037,0.7487948536872864,0.27174362540245056,0.3982101082801819,0.41775256395339966,0.25351834297180176,0.20582614839076996,0.3965126872062683,0.16413035988807678,0.4173659086227417,0.8036563992500305,-1.0835018157958984,0.2771291136741638,0.47839635610580444]},"outputHidden":{"rows":20,"columns":20,"weights":[-0.5174898505210876,-0.8765966892242432,0.5189981460571289,0.48031601309776306,0.9541675448417664,-0.24663981795310974,-0.4572645425796509,-0.3918645679950714,-0.9228723049163818,-0.9461908340454102,-1.5455830097198486,0.4912821054458618,0.5287548303604126,0.7437418699264526,-0.5993887186050415,0.2268061637878418,0.3685152232646942,0.258212685585022,0.819207489490509,-0.7722488641738892,-0.11557711660861969,-0.66501784324646,0.32177218794822693,0.6296546459197998,0.6607038974761963,-1.5312846899032593,-0.07528349757194519,-0.2473612129688263,-0.5222599506378174,-0.769775390625,-2.100027561187744,0.1348661631345749,0.19293621182441711,0.5200188755989075,-0.20712585747241974,0.1933726817369461,0.5836668014526367,2.5149450302124023,0.5664938688278198,0.019199039787054062,-1.0548173189163208,-0.7695539593696594,0.12091091275215149,0.5393090844154358,0.7843978404998779,0.3528056740760803,-0.7758408188819885,-0.16565752029418945,-0.5130261778831482,-1.020124077796936,-1.5056428909301758,0.9343382120132446,0.7213382124900818,0.9666457176208496,-1.0781434774398804,0.06393320113420486,0.540549099445343,0.08721034973859787,0.985277533531189,-0.12494716048240662,-0.5702765583992004,-0.528937578201294,0.40401390194892883,0.6694213151931763,0.5204132795333862,-0.49465903639793396,-0.5905799269676208,-0.6562322378158569,-0.7248618006706238,-0.5137748718261719,-0.8283739686012268,0.6886400580406189,0.47445932030677795,0.5641717910766602,-0.6738145351409912,0.02357783354818821,0.7010360956192017,0.533164381980896,0.46558505296707153,-0.41832754015922546,-0.20805421471595764,-0.7991784811019897,0.46487918496131897,0.5600526928901672,0.6609103679656982,-1.297545075416565,-0.1404547542333603,-0.3997511863708496,-0.6099675297737122,-0.6147388815879822,-1.741811990737915,0.11649420857429504,0.3339018225669861,0.6273373961448669,-0.16685396432876587,0.14988522231578827,0.3324851989746094,2.1374049186706543,0.7305670976638794,0.05035322532057762,-0.7359022498130798,-1.3412824869155884,1.5347721576690674,1.0316160917282104,1.338403344154358,-0.6013523936271667,-0.7121995687484741,-1.101004958152771,-1.292237639427185,-1.4254764318466187,-1.7823642492294312,0.7986449003219604,1.114281415939331,1.3077971935272217,-0.6825572848320007,1.6237081289291382,0.8164870738983154,-0.8256397247314453,1.3078925609588623,-0.8236140012741089,-0.629367470741272,-0.8545873761177063,0.4398680031299591,0.4899577498435974,0.8091020584106445,-0.40146079659461975,-0.5828445553779602,-0.28421011567115784,-0.7451983094215393,-0.8713634014129639,-1.3646095991134644,0.6295741200447083,0.4169633090496063,0.6872940063476562,-0.651108980178833,0.21649114787578583,0.42263326048851013,0.5851143598556519,0.6716273427009583,-0.44736120104789734,0.2380911111831665,-0.6022114753723145,0.36551332473754883,0.054067932069301605,0.7290594577789307,-1.2721997499465942,0.18866665661334991,-0.23289445042610168,-1.433079481124878,-0.960064709186554,-0.6502591967582703,-0.160090371966362,0.2149510383605957,0.8819981217384338,0.3781830072402954,0.054216209799051285,-0.18188977241516113,-0.16639022529125214,0.8701608777046204,-0.032865364104509354,-0.3571018874645233,-0.7194620370864868,0.33501437306404114,0.50579434633255,0.8426992893218994,-1.0875338315963745,-0.326198011636734,-0.3238435685634613,-0.7049234509468079,-0.9034653902053833,-1.9286364316940308,0.3269423544406891,0.34286072850227356,0.6203562021255493,-0.33027103543281555,-0.006563724484294653,0.41606444120407104,2.1500871181488037,0.6903759837150574,-0.169054314494133,-0.15995819866657257,-0.8010373711585999,0.6071432828903198,0.6009644269943237,0.6073214411735535,-1.1897437572479248,-0.08549175411462784,-0.48664113879203796,-0.5529200434684753,-0.5335133671760559,-1.6423718929290771,0.22692307829856873,0.22056667506694794,0.6248323917388916,-0.10508711636066437,0.18657563626766205,0.4347681701183319,2.1818370819091797,0.5656474232673645,-0.053770214319229126,0.026686863973736763,-0.6875268220901489,-0.49796831607818604,0.5621774792671204,0.5056542158126831,-3.293914794921875,-0.030413320288062096,0.21651269495487213,-0.5988270044326782,-0.6103529930114746,-1.5214320421218872,0.08370915800333023,-0.9402443766593933,0.5461350679397583,-0.04140746593475342,-0.21705114841461182,0.4745083451271057,3.848264694213867,0.6918348670005798,0.01321873813867569,-0.64838045835495,-0.8369917869567871,0.5243578553199768,0.3754790127277374,0.9321305155754089,-0.179818794131279,-0.46549350023269653,-0.4137531518936157,-0.8510941863059998,-0.8821444511413574,-1.3956059217453003,0.48764654994010925,0.5380927920341492,0.6174024939537048,-0.6399533152580261,0.28485992550849915,0.5156883001327515,0.3148544132709503,0.7999632358551025,-0.5740218162536621,-0.5627599954605103,-1.002451777458191,0.4233800768852234,0.5468040108680725,0.9626993536949158,-0.3350476622581482,-0.49635782837867737,-0.38245734572410583,-0.6981357336044312,-1.141319990158081,-2.035458564758301,0.565742015838623,0.5848221182823181,0.8012231588363647,-0.6781154870986938,0.03158918023109436,0.5254210829734802,0.46719178557395935,0.9214097261428833,-0.34810155630111694,-0.2664630115032196,-0.6726394295692444,0.5011054873466492,0.5618175268173218,0.7252909541130066,-0.9826472401618958,-0.3464682400226593,-0.1829289197921753,-0.5243414044380188,-0.7467657923698425,-1.928221344947815,0.3131263256072998,0.36315155029296875,0.5297964811325073,-0.3146808445453644,-0.003386222990229726,0.6353171467781067,1.9026548862457275,0.5969301462173462,-0.0066029345616698265,-0.46480852365493774,-0.9815996289253235,0.42910516262054443,0.4223477244377136,1.1496156454086304,-0.25228723883628845,-0.46844184398651123,-0.23173962533473969,-0.9499251246452332,-1.2666511535644531,-1.7650020122528076,0.49929359555244446,0.4358268678188324,0.7892996072769165,-0.4532555043697357,0.18691109120845795,0.3531646132469177,0.21471552550792694,0.8302896618843079,-0.897392988204956,-0.2392471432685852,-0.7653130292892456,0.5944188237190247,0.37848666310310364,0.8955711722373962,0.6686355471611023,-0.2575949430465698,-0.9453139901161194,-0.9456858038902283,-0.8262646794319153,-1.0552899837493896,0.3602554500102997,0.3343549370765686,0.6889545321464539,-0.27375364303588867,0.5576357245445251,0.37511521577835083,-1.077879786491394,0.8235452175140381,-0.5204518437385559,-0.4153694212436676,-0.2984926402568817,0.5231655836105347,0.9310649633407593,-0.04286781698465347,-1.7819702625274658,-0.2822202444076538,-0.07920189201831818,-0.11963347345590591,-0.014877310954034328,-1.7211021184921265,0.3591749966144562,0.3476238250732422,0.15489712357521057,-0.3630311191082001,-0.0839255154132843,0.5983901023864746,1.763321042060852,0.2965368926525116,-0.05578335002064705,0.07328279316425323,-0.515665590763092,1.1208667755126953,-0.10323386639356613,0.7252486944198608,0.2996964156627655,0.06364839524030685,-0.3112022280693054,-0.535508394241333,-0.5877518653869629,-0.6567440032958984,-0.1454458236694336,-0.1766969859600067,0.5110029578208923,-0.015806594863533974,0.8161295652389526,-0.03996095433831215,-0.4284038245677948,0.5234283208847046,-0.09823714941740036,-0.24790246784687042,-0.6715948581695557,0.4005870819091797,0.46301698684692383,0.9456686973571777,-1.3804500102996826,-0.28810909390449524,-0.39532262086868286,-0.6686654686927795,-0.8632410168647766,-1.9325459003448486,0.2679365873336792,0.20267096161842346,0.6002120971679688,-0.38282567262649536,-0.0358998104929924,0.4448404610157013,2.358708381652832,0.6953474879264832,-0.09544326364994049,-0.376471608877182,-0.9100140333175659,0.3121301829814911,0.4075567126274109,0.9500206112861633,-0.023119019344449043,-0.2562445402145386,-0.7848708629608154,-0.7250908613204956,-0.8819833993911743,-1.1494659185409546,0.3624797761440277,0.15359380841255188,0.731816828250885,-0.28790801763534546,0.43671029806137085,0.2889591455459595,0.1242976188659668,0.7381433844566345,-0.3788772523403168]},"outputBias":{"rows":20,"columns":1,"weights":[0.06747183948755264,0.4891805946826935,-0.32289204001426697,-0.3962312340736389,0.5106053948402405,1.8773863315582275,-0.018567945808172226,-0.023218095302581787,0.6335423588752747,0.5325926542282104,0.15967945754528046,-0.012335642240941525,-0.233567476272583,0.621685266494751,-0.006000041496008635,-0.2121032327413559,-0.20710617303848267,1.8004456758499146,0.6724595427513123,-0.04005526006221771]},"cellActivationMatrix":{"rows":20,"columns":1,"weights":[-0.2009340077638626,0.07750662416219711,0.5097982287406921,0.13248175382614136,-0.25509461760520935,-1.1870813369750977,-0.08139259368181229,-0.03155682235956192,0.03117338754236698,0.09008798748254776,0.08919542282819748,0.24143292009830475,0.24729973077774048,-0.06349321454763412,-0.24153418838977814,0.08171480149030685,0.0028723813593387604,-0.32838091254234314,-0.026057224720716476,-0.1856798380613327]},"cellActivationHidden":{"rows":20,"columns":20,"weights":[0.4769631326198578,0.2302735149860382,-0.3579467535018921,-0.31017041206359863,0.031187063083052635,-0.1274593621492386,0.43416115641593933,-0.16836541891098022,0.18863128125667572,0.3172084093093872,0.5662243366241455,-0.46349185705184937,-0.3317398130893707,-0.19961506128311157,0.622901439666748,-0.020769698545336723,-0.37234166264533997,-0.08891479671001434,-0.3473835289478302,0.5458433032035828,0.3133469820022583,0.3564525544643402,-0.559907853603363,-0.3978598117828369,0.11554885655641556,0.11883876472711563,0.45266643166542053,-0.22391536831855774,0.12714695930480957,0.33430215716362,0.5147472620010376,-0.28956010937690735,-0.5618054270744324,-0.259402334690094,0.46607378125190735,-0.38061952590942383,-0.3123581111431122,0.4926185607910156,-0.301424115896225,0.3385682702064514,-0.22554264962673187,0.2235085517168045,0.46516990661621094,0.2590515613555908,-0.1909310519695282,-0.630334734916687,-0.2758488953113556,0.2667992413043976,0.18308518826961517,0.20557698607444763,-0.16147524118423462,0.35997578501701355,0.2465524673461914,-0.23572643101215363,-0.23523429036140442,0.08245190232992172,0.35132184624671936,0.9915202260017395,-0.2786492109298706,-0.06789955496788025,-0.3379173278808594,-0.17780722677707672,0.36218124628067017,0.5238494873046875,0.11607594788074493,-0.3470343053340912,-0.3643140196800232,-0.0669555589556694,-0.17004385590553284,-0.10865125060081482,-0.2754557430744171,0.36510446667671204,0.11469243466854095,0.10782694071531296,-0.2562706768512726,0.1187048852443695,0.5538665652275085,0.21405108273029327,0.09935690462589264,-0.24193114042282104,-0.2712869644165039,-0.5696507692337036,0.8245057463645935,0.7363520264625549,0.71312415599823,0.21110069751739502,-0.1851499080657959,-0.591964840888977,0.2965179979801178,-0.12512998282909393,-0.8407682180404663,0.14684094488620758,1.0619879961013794,0.13812662661075592,-0.3578682541847229,1.1438992023468018,0.4275524318218231,-0.03535200655460358,0.24391497671604156,-0.8643544912338257,-0.564738392829895,-0.30187132954597473,-0.39667558670043945,0.17152677476406097,0.4158663749694824,-0.4996684491634369,-0.636306881904602,-0.9949955940246582,-0.6011605858802795,-0.15023168921470642,-0.8946568965911865,0.5500779747962952,0.34594598412513733,0.30302107334136963,-0.7506914734840393,0.42360830307006836,0.6845558881759644,2.6765334606170654,0.33274033665657043,-0.6383536458015442,0.20751769840717316,0.2800706624984741,-0.4210297167301178,-0.3029227554798126,-0.04051165282726288,-0.07120320200920105,0.3107089400291443,0.0214509479701519,0.44438818097114563,0.18623250722885132,0.4500955045223236,-0.1361384242773056,-0.4539494812488556,-0.2190481275320053,0.3610017001628876,-0.27550816535949707,-0.2760040760040283,0.08365367352962494,-0.23557624220848083,0.4975360631942749,0.19093866646289825,0.08742695301771164,-0.13164372742176056,-0.726901650428772,-0.1307656615972519,0.1499333530664444,0.13932567834854126,0.8234493136405945,-0.04145058989524841,-0.02996881492435932,1.3901852369308472,-0.22365176677703857,-0.8208797574043274,0.16707612574100494,0.23842103779315948,-1.9754420518875122,-0.6121223568916321,-0.9241033792495728,0.08178213983774185,0.71849125623703,-0.16863034665584564,0.5591871738433838,-1.151343822479248,-0.9050203561782837,-0.5653748512268066,0.19312229752540588,0.05849989131093025,0.11432766914367676,-0.184845969080925,0.30244728922843933,0.7943496108055115,0.2767234742641449,-0.8541809916496277,-0.08299735188484192,0.1812460869550705,-0.9929757118225098,-0.9657018780708313,0.06240508705377579,-0.07017780095338821,1.5842877626419067,0.31405654549598694,0.33114638924598694,-0.6280800700187683,-0.5576997995376587,-0.07312756031751633,0.05508852377533913,0.5675420761108398,-0.4945313632488251,0.1843458116054535,0.16764244437217712,0.5193426609039307,-0.3423026502132416,-0.5937583446502686,-0.2572438716888428,0.47376561164855957,0.01247413270175457,-0.5276976823806763,0.5034899115562439,-0.2933379113674164,0.22992874681949615,0.2917154133319855,0.610540509223938,-0.2923120856285095,-0.2650725841522217,0.010453443042933941,0.12340584397315979,0.24163280427455902,-0.28434863686561584,0.06954280287027359,0.5852438807487488,0.8224301934242249,-0.1286853402853012,-0.23104770481586456,-0.35038241744041443,0.5340858101844788,-0.5390077233314514,-0.20296499133110046,0.42558470368385315,-0.46857553720474243,0.27205339074134827,-0.579182505607605,-0.24610395729541779,0.3068634271621704,0.3921784460544586,0.08175013214349747,0.1502610296010971,-0.49536213278770447,0.06682523339986801,-0.230903759598732,-0.22130054235458374,-0.43633759021759033,0.515674889087677,0.41681331396102905,0.16131381690502167,-0.6449050307273865,0.0017076274380087852,0.29478704929351807,-0.017130449414253235,0.3660021424293518,-0.6561464667320251,0.008978770114481449,-0.049172524362802505,0.7684142589569092,0.9117569327354431,-0.0853700339794159,-0.41763463616371155,-0.09438980370759964,-0.12170157581567764,0.15596115589141846,0.010720238089561462,-0.7513682842254639,-0.000087851301941555,0.5200048685073853,-0.2570944130420685,-0.1596774160861969,0.17227435111999512,0.442456990480423,0.6096340417861938,-0.061096590012311935,0.013606896623969078,-0.32726889848709106,-0.14996516704559326,0.6741846203804016,0.5220062136650085,0.019787166267633438,0.14291632175445557,-0.5487402081489563,0.025396255776286125,0.01238660141825676,0.04598322883248329,-0.35116174817085266,0.3126702308654785,0.7377723455429077,-0.049745749682188034,-0.39060094952583313,0.4102436304092407,0.828590452671051,-0.1569042056798935,0.1431780606508255,-0.5270601511001587,0.34969550371170044,0.5936310291290283,-0.23962917923927307,-0.2299325168132782,-0.19417482614517212,0.1977679431438446,0.3846144676208496,-0.32000118494033813,0.242078498005867,0.6222029328346252,0.6939977407455444,-0.30877554416656494,-0.3073258697986603,-0.4433593451976776,0.4790177047252655,0.2696975767612457,-0.1783531755208969,-0.1393698900938034,-0.6100265383720398,0.40729469060897827,0.16625788807868958,-0.29813894629478455,1.0497761964797974,-0.23535077273845673,0.22896207869052887,-0.2726728022098541,0.004065343178808689,-0.20611687004566193,-0.10541432350873947,-0.11857748031616211,-0.39556050300598145,-0.18937723338603973,-0.1939433068037033,0.17506609857082367,0.05449193716049194,1.3618192672729492,-0.06126061826944351,0.37216004729270935,0.1647098809480667,0.2769366502761841,-0.29519474506378174,-0.6341122984886169,0.24175328016281128,0.37783464789390564,0.32444748282432556,0.17401103675365448,-0.313528448343277,-0.09851735085248947,-0.46005627512931824,-0.5564150214195251,-0.6561535596847534,0.18623925745487213,0.3433015048503876,0.5619229674339294,-0.2706141173839569,0.6056003570556641,0.036428555846214294,-0.2766357958316803,0.45239150524139404,-0.9660817980766296,0.15471187233924866,0.6945160627365112,-0.3994397521018982,-0.526088297367096,-0.9052790403366089,1.7308809757232666,0.2766687572002411,1.325354814529419,0.5906990766525269,0.33724772930145264,0.951577365398407,-0.22828258574008942,-0.7695537805557251,-0.36173132061958313,0.2966483533382416,-0.5549302697181702,-0.8288430571556091,-0.8508722186088562,-0.3684343695640564,0.3277844190597534,-0.41710472106933594,-0.21764521300792694,0.5776816606521606,0.4981166124343872,-0.04372217133641243,0.05950957536697388,-0.6023427248001099,0.2987569570541382,-0.16842114925384521,-0.16435714066028595,-0.43956369161605835,0.2806027829647064,0.5588616132736206,0.1638404279947281,-0.5089342594146729,0.15183678269386292,0.5274028778076172,-0.4538663923740387,0.2435387223958969,-0.11331859230995178,-0.05452636629343033,0.832736074924469,-0.7058172821998596,-0.715704083442688,-0.603219747543335,0.25206536054611206,0.1037927120923996,-0.2380765676498413,0.3372931480407715,0.8053357601165771,1.4422415494918823,0.039124440401792526,0.19085544347763062,-0.5137211680412292,0.02055373415350914,-0.469408243894577,-0.4752521216869354,-0.09464925527572632,-0.6178621649742126,0.1849549412727356]},"cellActivationBias":{"rows":20,"columns":1,"weights":[-0.2482742965221405,-0.43053653836250305,-0.7105391621589661,-0.3616173267364502,0.40612679719924927,2.118391513824463,-0.09307003766298294,0.04985253885388374,-0.5727146863937378,-0.5114169716835022,-0.05944392457604408,0.15767690539360046,-0.15549516677856445,0.5489116311073303,-0.09398574382066727,-0.4235166907310486,-0.37849944829940796,-1.4385104179382324,0.5734806060791016,0.27934005856513977]}}],"outputConnector":{"rows":1,"columns":20,"weights":[-0.38800933957099915,-0.3905661106109619,0.37687721848487854,0.35165441036224365,0.3835706114768982,-1.9591779708862305,-0.42101719975471497,-0.40791743993759155,-0.41080984473228455,-0.3808327913284302,-0.41927292943000793,0.3745422959327698,0.4022587835788727,0.3831251263618469,-0.3985939919948578,0.4676726460456848,0.3784709572792053,2.2020761966705322,0.4124143421649933,-0.3671369254589081]},"output":{"rows":1,"columns":1,"weights":[1.731507658958435]},"inputLookup":null,"inputLookupLength":0,"outputLookup":null,"outputLookupLength":0}