{"type":"GRUTimeStep","options":{"inputSize":1,"inputRange":0,"hiddenLayers":[20],"outputSize":1,"decayRate":0.999,"smoothEps":1e-8,"regc":0.000001,"clipval":5,"maxPredictionLength":100,"dataFormatter":{"indexTable":{},"characterTable":{},"characters":[],"specialIndexes":[]}},"hiddenLayers":[{"updateGateInputMatrix":{"rows":20,"columns":1,"weights":[0.5987652540206909,0.5341582894325256,0.9960860013961792,0.8610308766365051,0.5922828912734985,0.5113006830215454,0.35871919989585876,0.7847396731376648,0.3005654215812683,0.8028523921966553,0.4377984404563904,0.5688435435295105,0.8859172463417053,0.4471600353717804,0.5174893140792847,0.6332927942276001,0.3957487642765045,0.37930968403816223,0.4841068685054779,0.6576935052871704]},"updateGateHiddenMatrix":{"rows":20,"columns":20,"weights":[-0.5769731998443604,-0.5912656784057617,0.7099129557609558,0.5909071564674377,-0.7174052000045776,0.6656882762908936,-0.3796587884426117,0.7036586403846741,0.5348410606384277,-0.5895079374313354,0.3231832981109619,0.325825572013855,-0.1452961266040802,-0.547410249710083,0.578504741191864,-0.5852752923965454,-0.4060683846473694,-0.6853938698768616,0.4612167775630951,-0.42487671971321106,-0.4062001705169678,-0.5725353956222534,0.45688551664352417,0.49229326844215393,-0.44833436608314514,0.8076211810112,-0.39972132444381714,0.5794876217842102,0.512241542339325,-0.5257076025009155,0.4202040731906891,0.3472176790237427,-0.25235864520072937,-0.38767993450164795,0.45287710428237915,-0.545096218585968,-0.42576664686203003,-0.643043041229248,0.37749889492988586,-0.6065787672996521,-0.654668390750885,-0.05925419554114342,0.2515627145767212,0.18461918830871582,-0.13783897459506989,0.904296338558197,-0.673231303691864,0.5536860823631287,0.26250141859054565,-0.0530196875333786,0.3930860161781311,0.37160733342170715,-0.5888683199882507,-0.3385339081287384,0.5666313767433167,0.07670512795448303,-0.3102007210254669,-0.16952718794345856,0.5765640735626221,-0.5423537492752075,-0.5276349186897278,-0.3593452274799347,0.3565833866596222,0.38006138801574707,-0.5999844670295715,0.8423276543617249,-0.6450431942939758,0.5576475858688354,0.30319297313690186,-0.42568472027778625,0.6003784537315369,0.5470530986785889,-0.33779284358024597,-0.35529088973999023,0.5229894518852234,-0.609687328338623,-0.5071451663970947,-0.527877151966095,0.718365490436554,-0.6886287927627563,-0.5886937379837036,-0.5228355526924133,0.6516519784927368,0.6895685791969299,-0.7604576349258423,0.6835885643959045,-0.5357780456542969,0.6624810099601746,0.505395233631134,-0.5185883641242981,0.4760420620441437,0.4526892304420471,-0.33772945404052734,-0.4481738209724426,0.6389568448066711,-0.552818238735199,-0.6263349652290344,-0.32050710916519165,0.6181029081344604,-0.6670916080474854,-0.3642844259738922,-0.38857290148735046,0.4619838297367096,0.33685731887817383,-0.3000330626964569,0.8334144353866577,-0.6634132266044617,0.4286142885684967,0.33431383967399597,-0.32745689153671265,0.7510039210319519,0.9196763038635254,-1.0787620544433594,-0.40474358201026917,0.40610453486442566,-0.8795321583747864,-0.3794022500514984,-0.35733774304389954,0.5460383892059326,-0.3525536060333252,-0.5834465622901917,-0.5029083490371704,0.6341286301612854,0.6170487999916077,-0.6483271718025208,0.8525280952453613,-1.009329915046692,0.6377196311950684,0.4182969927787781,-0.4581056535243988,0.687228262424469,0.7981166839599609,-0.655016303062439,-0.4241814613342285,0.6197892427444458,-0.9297274947166443,-0.5478723049163818,-0.5304426550865173,0.8316827416419983,-0.6291922926902771,-0.5694524049758911,-0.6045629978179932,0.7002049684524536,0.6361291408538818,-0.6087895035743713,0.6883370876312256,-0.45237675309181213,0.8204448819160461,0.5433239340782166,-0.46174347400665283,0.29919102787971497,0.2915988266468048,-0.27305424213409424,-0.561321496963501,0.50483638048172,-0.36892589926719666,-0.3002946972846985,-0.5544553995132446,0.361000657081604,-0.5052414536476135,-0.5184178352355957,-0.3585309684276581,0.4121173918247223,0.3655446469783783,-0.4798485338687897,0.86188805103302,-0.48368966579437256,0.5312424302101135,0.3954916298389435,-0.2646571099758148,0.29381224513053894,0.4111664295196533,-0.23787780106067657,-0.45566505193710327,0.6521481871604919,-0.49350404739379883,-0.6216340661048889,-0.43081071972846985,0.6501255631446838,-0.6028512120246887,-0.3140731453895569,0.04681657254695892,-0.6013110280036926,0.002516563283279538,-0.2340584099292755,1.4721497297286987,-0.6570156812667847,0.2607521116733551,0.03349972143769264,-0.12795032560825348,0.5579134225845337,0.8349058628082275,-1.032745599746704,-0.2488383948802948,0.5486695170402527,-1.2246425151824951,-0.365317165851593,-0.5289736986160278,1.4962074756622314,-0.5383661985397339,-0.25959038734436035,-0.3945606052875519,0.19682544469833374,0.34798216819763184,-0.30052465200424194,0.9483470916748047,-0.4299670159816742,0.20011594891548157,0.10975263267755508,-0.22631895542144775,1.0330830812454224,0.8789758682250977,-1.016256332397461,-0.24556276202201843,0.16246232390403748,-0.999204695224762,-0.3986331522464752,-0.43092259764671326,0.5398114323616028,-0.4606837034225464,-0.2761237323284149,-0.26944607496261597,0.28082677721977234,0.36714622378349304,-0.32512226700782776,0.9132992029190063,-0.3613666594028473,0.30442729592323303,0.22664964199066162,-0.18396848440170288,0.8464391231536865,0.806532621383667,-0.999653160572052,-0.2680276334285736,0.24485303461551666,-0.9805270433425903,-0.32016444206237793,-0.2757894694805145,0.5890981554985046,-0.24436651170253754,-0.034787338227033615,0.07833046466112137,0.5605474710464478,0.7638286352157593,-0.3833140432834625,1.6964517831802368,-1.4631917476654053,0.3259707987308502,0.3011148273944855,-0.1803451031446457,1.0562208890914917,1.2452763319015503,-1.2167383432388306,-0.07910893857479095,0.33387118577957153,-0.8741856813430786,0.13827243447303772,-0.11347751319408417,1.1695753335952759,-0.17641937732696533,-0.4666770100593567,-0.6784435510635376,0.5092417597770691,0.5049796104431152,-0.5962220430374146,0.5723608136177063,-0.4485477805137634,0.6304585337638855,0.511306643486023,-0.6537042856216431,0.2693270742893219,0.22533264756202698,-0.23992116749286652,-0.7319150567054749,0.5004076361656189,-0.5341043472290039,-0.6878921389579773,-0.8294602036476135,0.6076045632362366,-0.6410142183303833,-0.5619815587997437,-0.5734487175941467,0.7098989486694336,0.6823561787605286,-0.6867228746414185,0.7549456357955933,-0.41179701685905457,0.6433465480804443,0.5633135437965393,-0.5165485739707947,0.24799472093582153,0.33336347341537476,-0.28656241297721863,-0.5485720634460449,0.5231881737709045,-0.6381640434265137,-0.37707579135894775,-0.7103608250617981,0.4703330993652344,-0.4009409248828888,-0.3677394688129425,-0.20266959071159363,0.26033085584640503,0.33132320642471313,-0.2923021912574768,0.8733619451522827,-0.7049238681793213,0.5130547285079956,0.14759165048599243,-0.13084830343723297,0.8359428644180298,0.841559648513794,-0.7369703650474548,-0.2732871472835541,0.5363613367080688,-0.901245653629303,-0.26600003242492676,-0.2516483664512634,1.1783931255340576,-0.18189160525798798,-0.43871191143989563,-0.6330875754356384,0.6278100609779358,0.5685129761695862,-0.6986241340637207,0.660394549369812,-0.3897513449192047,0.39191150665283203,0.5515017509460449,-0.6216217279434204,0.22386352717876434,0.29174163937568665,-0.1739235520362854,-0.5406963229179382,0.4854631721973419,-0.5582920908927917,-0.502955973148346,-0.5811959505081177,0.3754052221775055,-0.40883326530456543,-0.562632143497467,-0.5486249923706055,0.6590641140937805,0.5863516330718994,-0.6949341893196106,0.68839031457901,-0.5660815238952637,0.7962749004364014,0.496340811252594,-0.6558824777603149,0.4258165657520294,0.34503060579299927,-0.17992529273033142,-0.6350169777870178,0.6389094591140747,-0.493581622838974,-0.32169705629348755,-0.7042171955108643,0.45133087038993835,-0.42735782265663147,-0.24705739319324493,-0.14607737958431244,0.11906620115041733,0.22542960941791534,-0.2712554633617401,1.1919772624969482,-1.1763079166412354,0.25762104988098145,0.11874387413263321,0.014435794204473495,1.0060220956802368,0.914178729057312,-0.8926218748092651,-0.1286417841911316,0.30865076184272766,-0.7487475275993347,-0.17958705127239227,-0.3171837329864502,1.1441173553466797,-0.2594705820083618,-0.37737736105918884,-0.7305249571800232,0.6899266242980957,0.7559220194816589,-0.9661773443222046,0.5365737080574036,-0.09185254573822021,0.788723349571228,0.7958736419677734,-0.7820528149604797,0.21370360255241394,0.1901339441537857,0.011725513264536858,-0.9123566746711731,0.5436796545982361,-0.37406638264656067,-0.4642610251903534,-0.687118411064148,0.10078351199626923,-0.16447719931602478]},"updateGateBias":{"rows":20,"columns":1,"weights":[0,0,0,0,0,0,0,0,0,0,0,0,0,0,0,0,0,0,0,0]},"resetGateInputMatrix":{"rows":20,"columns":1,"weights":[0.0734482929110527,0.6722090244293213,-0.38679584860801697,0.7181271910667419,0.233324334025383,-0.12861812114715576,-0.5515276789665222,1.385421633720398,-0.39288148283958435,0.11555096507072449,-0.3932303786277771,-0.3363991677761078,-0.7257667779922485,-0.6958403587341309,1.1721071004867554,-0.3128364086151123,0.44310224056243896,1.4300990104675293,-2.777449607849121,0.02846197411417961]},"resetGateHiddenMatrix":{"rows":20,"columns":20,"weights":[-0.025968031957745552,-0.4770968556404114,0.5174980163574219,0.4391562342643738,-0.23700833320617676,0.41525736451148987,0.5026819705963135,0.22435316443443298,0.5122767090797424,-0.45275062322616577,0.3485266864299774,0.35061100125312805,-0.2894153296947479,-0.1440889984369278,0.10645285993814468,-1.0157891511917114,0.15445591509342194,-0.29525673389434814,-0.6306924223899841,-0.264911949634552,0.0692717656493187,0.7732272744178772,-0.568403422832489,-0.5581231713294983,0.04927774518728256,-0.0054114037193357944,0.005156645551323891,-0.36401793360710144,-0.6989888548851013,0.5005999207496643,-0.12303987890481949,-0.3579016625881195,0.3019949197769165,0.18769733607769012,0.21244864165782928,0.03282950818538666,0.2336452454328537,0.33643248677253723,-0.2177913933992386,0.588177502155304,-0.2424144297838211,-0.12084022909402847,0.21001014113426208,0.007936951704323292,-0.4996143579483032,-0.8770945072174072,0.7390211224555969,0.3190094530582428,0.16231216490268707,-0.21715660393238068,-0.6435893774032593,-0.7466797828674316,0.6057385206222534,-0.550215482711792,0.3150552213191986,0.6566316485404968,-0.33195996284484863,-0.4119495451450348,-0.9517616033554077,-0.05789193883538246,-0.38069120049476624,-0.3082750141620636,0.4509609639644623,0.35264572501182556,-0.1623692661523819,-0.7378683090209961,0.4208131730556488,0.45407387614250183,0.3271743655204773,-0.305663526058197,-0.5229638814926147,-0.5823939442634583,0.5252025723457336,-0.03449143469333649,0.43681684136390686,0.5387938022613525,-0.3018598258495331,-0.48909991979599,-0.5122479796409607,-0.23518973588943481,0.016998209059238434,-0.27318790555000305,0.30110540986061096,0.3412095010280609,-0.22422625124454498,0.4446536600589752,0.4205721318721771,0.08867727220058441,0.32036086916923523,-0.19846326112747192,0.5498072504997253,0.3906730115413666,-0.3161950707435608,-0.23074188828468323,-0.07034000754356384,-0.12408161163330078,-0.16739502549171448,-0.23605966567993164,0.24407915771007538,-0.03690978139638901,-0.38061952590942383,-0.20019127428531647,0.5091733932495117,0.2031857818365097,-0.3142758905887604,0.40325117111206055,0.8386461734771729,0.3999026119709015,0.11988022923469543,-0.07980168610811234,0.33473852276802063,0.41219356656074524,-0.6023887395858765,-0.31829848885536194,0.3914920389652252,-0.3486200273036957,-0.3096944987773895,-0.2595241963863373,-0.6918714642524719,-0.5011007189750671,0.43043115735054016,0.48055946826934814,-0.43412965536117554,-0.3691129982471466,0.2338055521249771,-0.24020938575267792,0.1516234278678894,-0.40434199571609497,-0.4081984758377075,0.3377813398838043,-0.12300869077444077,-0.15194334089756012,0.2170802801847458,0.15465421974658966,-0.4760139286518097,0.029736654832959175,0.49911773204803467,0.3304763436317444,-0.22059199213981628,0.5781271457672119,-0.22836585342884064,-0.620140016078949,0.550044059753418,0.6038472056388855,-1.01188325881958,-1.19815993309021,0.45125719904899597,0.28274139761924744,0.6333922743797302,-0.9387761950492859,-0.9315264821052551,-0.9405909776687622,1.0202621221542358,-0.4155430495738983,0.24234046041965485,0.11263736337423325,-0.08856271952390671,-1.1327605247497559,-0.49936729669570923,-0.6518012881278992,0.6388728618621826,0.41491687297821045,-0.2976069152355194,-0.41025903820991516,-0.0069000995717942715,-0.5065830945968628,-0.3030324876308441,-0.6676092147827148,-0.41784176230430603,0.3915609121322632,-0.5584355592727661,-0.5606909394264221,0.7107419967651367,0.003328098449856043,-0.3668351471424103,0.3745037019252777,0.2270098328590393,0.09760470688343048,0.10538973659276962,0.7412598729133606,-0.290358304977417,-0.04066646099090576,0.15015459060668945,0.11788198351860046,-0.8679230809211731,-0.5166578888893127,0.458690345287323,0.3345631957054138,0.16821834444999695,0.037472087889909744,-0.09044225513935089,-0.4328673779964447,0.34166988730430603,-0.5911177396774292,0.41850602626800537,0.2773018479347229,-0.3906378149986267,-0.5082239508628845,-0.8540040254592896,0.08459063619375229,0.10856512188911438,-0.03480926901102066,0.11776319146156311,0.12867891788482666,-0.24005049467086792,0.45814794301986694,-0.2026643455028534,-0.1289142519235611,0.002741720760241151,-0.15922068059444427,0.5955042243003845,0.4650278389453888,-0.23324783146381378,-0.039534322917461395,-0.03890001401305199,-0.817674458026886,-0.0688563734292984,0.10013355314731598,0.2058204859495163,0.024365216493606567,-0.27171996235847473,-0.23066304624080658,0.3961687386035919,0.30345985293388367,-0.29088452458381653,0.24558110535144806,0.05546769127249718,0.2704348564147949,0.3406216502189636,-0.3988971710205078,0.3054874837398529,0.23370137810707092,-0.1531880795955658,-0.3648378551006317,0.3915369510650635,-0.39521363377571106,-0.3777242600917816,-0.3200463056564331,0.12291629612445831,-0.27863484621047974,-0.39670073986053467,-0.18150955438613892,0.22034893929958344,0.11308622360229492,-0.12631933391094208,0.2519514560699463,0.5388478636741638,0.3635776937007904,0.15055327117443085,-0.3567812740802765,0.3819580376148224,0.39499029517173767,-0.16691555082798004,-0.1973128318786621,0.3398229479789734,0.04747459292411804,-0.41592368483543396,-0.2880309522151947,-0.016036929562687874,-0.4601813852787018,1.3296997547149658,0.5508790016174316,-0.569604218006134,-0.6587465405464172,0.9118512272834778,-0.7583546042442322,0.23754554986953735,-1.2411824464797974,-0.5480153560638428,0.24434611201286316,-0.6508714556694031,-0.7018532752990723,0.7995583415031433,0.9225794672966003,-1.4955859184265137,-0.03991235792636871,1.3941621780395508,0.9068885445594788,-0.4166925251483917,0.9860231876373291,0.17433808743953705,-0.3681943416595459,0.3199458122253418,0.3465394675731659,-0.5878937840461731,-0.8934733271598816,-0.19688113033771515,-0.007155582308769226,0.1992613524198532,-0.4804339110851288,-1.0749528408050537,-1.2530063390731812,1.2296805381774902,-0.06938868761062622,-0.1739233136177063,0.1526377648115158,0.23285748064517975,-0.6053498387336731,-0.2847967743873596,-0.24858848750591278,0.17717692255973816,0.09864012151956558,-0.04124664515256882,0.09298519790172577,0.0902944803237915,0.6261863112449646,-0.5013115406036377,-0.30382245779037476,-0.19156518578529358,0.004092699848115444,0.5431795716285706,0.4335249662399292,-0.19131098687648773,0.3187781274318695,-0.15541240572929382,-0.8121154308319092,0.15248747169971466,-0.4076443016529083,0.3757766783237457,-0.17792584002017975,-0.1152644008398056,-0.47290557622909546,0.6760321855545044,0.5586513876914978,-0.32703325152397156,-1.0437625646591187,0.38939836621284485,0.12960709631443024,0.5638285279273987,-0.8412724137306213,-0.7364380359649658,-0.8530668616294861,0.7075239419937134,0.019345702603459358,0.05778440460562706,0.41002681851387024,0.09356512129306793,-0.09465903043746948,-0.6851406097412109,-0.36432093381881714,0.34928444027900696,0.18187928199768066,-0.31363967061042786,-0.24067474901676178,0.2980290353298187,-0.41970542073249817,-0.3140363395214081,-0.5009856820106506,-0.30108651518821716,-0.011540742591023445,-0.8258367776870728,-1.0213347673416138,0.9110777378082275,0.6852308511734009,-0.2639916241168976,-0.23209641873836517,0.5679622292518616,0.2124956250190735,-0.2147884964942932,0.04456779360771179,-1.1503591537475586,-0.02589688077569008,0.026386380195617676,0.07681144773960114,-0.846365749835968,0.7227497100830078,0.8973498940467834,1.0923864841461182,0.22120073437690735,-0.030575189739465714,1.6856052875518799,1.7402310371398926,-1.1877974271774292,-1.1706428527832031,1.4415361881256104,-0.19312207400798798,-1.2220604419708252,-0.731270432472229,-0.4765947163105011,-0.2219468057155609,0.01907585747539997,-0.04939404875040054,0.09720710664987564,0.15037161111831665,-0.2825804054737091,1.0474480390548706,-0.02541070058941841,0.2559274137020111,0.0869150459766388,-0.08584078401327133,0.8373687863349915,0.8444765210151672,-0.9308151602745056,-0.32333439588546753,0.2700357139110565,-1.0825079679489136,-0.09609058499336243,-0.3426479697227478,0.16951514780521393,-0.41689518094062805]},"resetGateBias":{"rows":20,"columns":1,"weights":[0,0,0,0,0,0,0,0,0,0,0,0,0,0,0,0,0,0,0,0]},"cellWriteInputMatrix":{"rows":20,"columns":1,"weights":[-0.19392633438110352,-0.5632321834564209,0.22606639564037323,0.36460697650909424,-0.1989923119544983,0.18806703388690948,-0.0740557387471199,0.1801408976316452,0.44763195514678955,-0.7149370312690735,0.10311166942119598,0.09465491771697998,-0.34665095806121826,-0.2400808334350586,0.15210212767124176,-0.33677276968955994,-0.17695020139217377,-0.26093789935112,0.1362486183643341,-0.26007333397865295]},"cellWriteHiddenMatrix":{"rows":20,"columns":20,"weights":[-0.17279499769210815,-0.12540031969547272,-0.1522759348154068,0.014359555207192898,-0.07221497595310211,0.14727842807769775,0.6030843257904053,-0.3777948319911957,0.17567184567451477,0.4894118010997772,0.0593557134270668,0.3123703598976135,-1.5625346899032593,-0.2858105003833771,-0.3693341314792633,0.18884220719337463,-0.0680907592177391,0.21837954223155975,3.1509921550750732,0.4239376187324524,0.08525741100311279,0.2568967044353485,0.785480797290802,-0.8020756244659424,-0.011647599749267101,0.21186862885951996,-0.6597564220428467,-2.2777130603790283,-0.250119686126709,0.1246168464422226,0.07504065334796906,0.4636012017726898,-1.6649463176727295,0.3869706988334656,-1.0848647356033325,0.05989532172679901,-1.4361506700515747,0.3351873457431793,2.8903937339782715,-0.7962036728858948,0.1776917576789856,-0.5331284999847412,1.2319570779800415,-0.4102816879749298,-0.01899602636694908,-0.19823972880840302,0.877415657043457,0.35303422808647156,0.24083973467350006,0.9538378119468689,-0.38407832384109497,-0.6655705571174622,2.253683567047119,-0.1281205117702484,0.3897152543067932,-0.17133687436580658,0.7901396751403809,-0.43954411149024963,-3.3092963695526123,0.36310717463493347,0.08847448229789734,-0.518836498260498,-0.3511580526828766,-0.9376664757728577,-0.0337066687643528,-0.23204238712787628,0.8199560046195984,0.4734047055244446,0.2531561851501465,-0.015344630926847458,-0.41915416717529297,-0.6431918740272522,2.0523757934570312,-0.3678855299949646,0.2251146286725998,-0.035489581525325775,-0.5974615216255188,-0.6309698820114136,-3.1869609355926514,0.3251613676548004,0.05564658343791962,0.18098053336143494,-0.6712830066680908,-0.3881460130214691,-0.03698214143514633,-0.13880781829357147,-0.19446799159049988,-0.8875279426574707,-0.18704749643802643,0.29954496026039124,0.10841839760541916,0.1474107801914215,-1.1461899280548096,0.08271630108356476,-0.3728756606578827,0.08502359688282013,-0.155713751912117,0.27245306968688965,2.497208595275879,0.9185131192207336,-0.487090528011322,-0.08844387531280518,0.016368312761187553,0.7569568157196045,-0.0483497679233551,0.3134768605232239,-0.3156975209712982,2.5181124210357666,-0.015850281342864037,-0.48461276292800903,0.410241961479187,0.34702247381210327,-0.3834584355354309,0.09449765086174011,0.3787277936935425,-0.15857970714569092,0.011463937349617481,-0.20434041321277618,-0.22479328513145447,-0.43056240677833557,0.23335078358650208,0.012689376249909401,-0.14220836758613586,-0.4208674132823944,0.1551007181406021,-0.5367026925086975,-0.29186806082725525,-1.355347990989685,0.040830910205841064,0.22753387689590454,-0.47567233443260193,-0.6240507364273071,0.6962565183639526,0.24749362468719482,-0.14373570680618286,0.5155455470085144,-0.2870749235153198,-0.0056848954409360886,0.19966234266757965,0.03714216127991676,0.043805718421936035,-0.04225601628422737,0.5106979012489319,-0.03893782198429108,0.11971902847290039,0.20313315093517303,-0.20421934127807617,0.33800235390663147,0.02759382873773575,0.179182231426239,-0.12563665211200714,-0.20887652039527893,1.3359811305999756,-0.000810875091701746,0.45666608214378357,-0.06260962039232254,-0.14476774632930756,-0.23584924638271332,-2.7814388275146484,-0.4235483407974243,-0.014057425782084465,-0.25441884994506836,-0.05719463899731636,0.22460506856441498,-0.26767802238464355,-0.287544846534729,0.9006792902946472,1.7071187496185303,0.2437538057565689,-0.46408611536026,-0.1581810563802719,-0.5625429749488831,2.025587320327759,-0.3332023620605469,0.6890332698822021,-0.16278351843357086,0.36664775013923645,-0.5703184604644775,-3.2791907787323,0.5405436158180237,-0.5666975378990173,0.47461870312690735,0.6604896187782288,1.6196271181106567,0.05991987884044647,0.4638618230819702,-0.8733314871788025,0.02533918432891369,-0.2484382838010788,-1.552164912223816,0.5477181077003479,0.9248929023742676,-1.7573237419128418,0.11496464908123016,-0.7235965728759766,0.086839459836483,-0.8392543196678162,0.717721700668335,2.778045654296875,-1.1659753322601318,-0.19445225596427917,-0.16492168605327606,-0.5011658668518066,1.077372670173645,-0.00030797437648288906,0.04675133153796196,-0.22173629701137543,1.8807424306869507,-0.03049125149846077,-0.30275237560272217,0.10677769035100937,-0.0525265596807003,0.10368742048740387,0.12487296760082245,0.46011099219322205,-0.08032722026109695,0.5849119424819946,-0.15915547311306,-0.7653915286064148,-0.6488677263259888,-0.2103722244501114,-0.1711949110031128,-0.2745225429534912,0.4653061032295227,-0.04802153259515762,0.05897113308310509,-0.3693426549434662,1.4206666946411133,-0.01811951957643032,-0.2554336190223694,0.21645955741405487,0.07418036460876465,0.02034144662320614,0.2222444713115692,0.3391576111316681,-0.10497189313173294,0.4369513690471649,-0.0928758755326271,-0.6854724287986755,-0.6507319211959839,0.13103444874286652,0.08632292598485947,-1.3841865062713623,-0.16420318186283112,0.3086830675601959,0.4678867757320404,0.7918747067451477,-2.071946620941162,-0.5123738050460815,-0.2380855232477188,-0.01123925019055605,0.4145224094390869,0.29074418544769287,-0.20605581998825073,-1.129822850227356,0.4538285434246063,0.22080205380916595,-0.019261881709098816,-0.4395335018634796,0.24936531484127045,-0.06680823117494583,0.16522952914237976,-0.14478103816509247,-0.7359419465065002,0.05864890664815903,-0.11682501435279846,-0.3088940978050232,-1.058127522468567,-0.134244903922081,0.45101460814476013,0.09781157970428467,0.12168397754430771,-1.334690809249878,0.006109378766268492,-0.4851016700267792,0.07421538978815079,-0.06360966712236404,0.2856846749782562,2.6739046573638916,1.122929334640503,0.07327708601951599,0.08607278019189835,0.7271546721458435,0.23486892879009247,-0.000017581722204340622,-0.24280352890491486,-0.6423035264015198,0.7856860756874084,-0.03352665901184082,-0.1868434101343155,0.1258409470319748,-0.34304890036582947,1.0456912517547607,0.26382961869239807,0.21644975244998932,-0.019804399460554123,0.14454971253871918,-0.1341308355331421,-2.455211639404297,-0.6767041683197021,0.4221969246864319,0.2772107720375061,-0.22608372569084167,-2.1096482276916504,0.4906541705131531,-0.40116235613822937,0.577620804309845,-2.975461006164551,-0.28711846470832825,0.26579928398132324,-0.02850019745528698,-0.3303055167198181,0.5793631672859192,0.30698132514953613,-0.669969916343689,0.5092904567718506,-0.9427356123924255,0.23190872371196747,-0.2318340390920639,0.18070968985557556,-0.21515215933322906,0.008350851014256477,-0.3069506883621216,-0.41082486510276794,-0.07165820896625519,0.2216193825006485,0.6251325607299805,-0.5438055396080017,0.04523172229528427,0.03591635823249817,-0.1308198720216751,0.24827198684215546,-1.4373596906661987,-0.19397713243961334,-0.3250524699687958,0.2199658900499344,-0.01254906877875328,0.14275389909744263,2.889923572540283,0.9190734624862671,0.2279016524553299,0.23148632049560547,0.026614965870976448,-0.3968627154827118,0.03873422369360924,0.09235719591379166,0.07524121552705765,-2.5479512214660645,-0.21573233604431152,0.06145043298602104,0.049152836203575134,0.1629721224308014,-1.0809543132781982,0.1857483834028244,-0.7957735061645508,0.4461061358451843,-0.0960398018360138,0.28832244873046875,1.9432783126831055,-0.24742479622364044,-0.29737043380737305,0.10876426845788956,-0.1278349608182907,0.47695842385292053,-0.1037832647562027,0.6915825605392456,-0.10785909742116928,1.5122028589248657,-0.3115738332271576,0.14140324294567108,0.7910956740379333,0.7761523127555847,-0.832593560218811,0.5600904226303101,0.5381679534912109,-0.6645016074180603,-0.49940094351768494,0.037637051194906235,-0.25040897727012634,-0.32651016116142273,-0.44872036576271057,-0.12056191265583038,-0.2919789254665375,-0.44246795773506165,0.003815559670329094,0.07559754699468613,0.6005741357803345,-0.2546826899051666,0.2003668248653412,0.028356505557894707,-0.26148098707199097,0.028458300977945328,-2.0259454250335693,-0.23628520965576172,-0.2261304259300232,0.5144838690757751,-0.0587814636528492,0.19099396467208862,2.769392967224121,-0.8638237714767456]},"cellWriteBias":{"rows":20,"columns":1,"weights":[-0.678045392036438,3.406186580657959,2.3023364543914795,2.054501533508301,0.8469066619873047,-2.5567667484283447,-2.2962677478790283,2.393751859664917,-2.9967639446258545,-1.459047555923462,-1.368028998374939,-1.1932599544525146,-0.7361907362937927,2.9158544540405273,-2.3791463375091553,3.2850053310394287,2.7167887687683105,2.9145591259002686,-2.475351572036743,-1.5410751104354858]}}],"outputConnector":{"rows":1,"columns":20,"weights":[-0.3324950337409973,-0.4125489890575409,0.25652357935905457,0.4175792634487152,-0.41163796186447144,0.47676265239715576,-0.38575923442840576,0.3541949391365051,0.12189679592847824,-0.3895860016345978,0.2169763296842575,0.3963686525821686,-0.23239673674106598,-0.3059046268463135,0.20917633175849915,-0.3876815438270569,0.05480160191655159,-0.29010912775993347,-0.047209031879901886,-0.2863955497741699]},"output":{"rows":1,"columns":1,"weights":[1.6193139553070068]},"inputLookup":null,"inputLookupLength":0,"outputLookup":null,"outputLookupLength":0}